FANN_FLO_2.0
num_layers=10
learning_rate=0.700000
connection_rate=1.000000
shortcut_connections=1
learning_momentum=0.000000
training_algorithm=2
train_error_function=0
train_stop_function=0
cascade_output_change_fraction=0.010000
quickprop_decay=-0.000100
quickprop_mu=1.750000
rprop_increase_factor=1.200000
rprop_decrease_factor=0.500000
rprop_delta_min=0.000000
rprop_delta_max=50.000000
rprop_delta_zero=0.500000
cascade_output_stagnation_epochs=12
cascade_candidate_change_fraction=0.010000
cascade_candidate_stagnation_epochs=12
cascade_max_out_epochs=150
cascade_max_cand_epochs=150
cascade_num_candidate_groups=2
bit_fail_limit=3.49999994039535520000e-001
cascade_candidate_limit=1.00000000000000000000e+003
cascade_weight_multiplier=4.00000005960464480000e-001
cascade_activation_functions_count=6
cascade_activation_functions=3 5 7 8 10 11 
cascade_activation_steepnesses_count=4
cascade_activation_steepnesses=2.50000000000000000000e-001 5.00000000000000000000e-001 7.50000000000000000000e-001 1.00000000000000000000e+000 
layer_sizes=3 1 1 1 1 1 1 1 1 1 
neurons (num_inputs, activation_function, activation_steepness)=(0, 0, 0.00000000000000000000e+000) (0, 0, 0.00000000000000000000e+000) (0, 0, 0.00000000000000000000e+000) (3, 11, 1.00000000000000000000e+000) (4, 8, 2.50000000000000000000e-001) (5, 7, 1.00000000000000000000e+000) (6, 11, 1.00000000000000000000e+000) (7, 3, 1.00000000000000000000e+000) (8, 11, 5.00000000000000000000e-001) (9, 8, 1.00000000000000000000e+000) (10, 8, 7.50000000000000000000e-001) (11, 13, 5.00000000000000000000e-001) 
connections (connected_to_neuron, weight)=(0, -8.14596831798553470000e-001) (1, 1.19851815700531010000e+000) (2, 1.29985213279724120000e-001) (0, -3.04191637039184570000e+000) (1, 1.64462044835090640000e-001) (2, -1.53377652168273930000e+000) (3, -3.21716904640197750000e+000) (0, -1.02014231681823730000e+000) (1, 5.37279427051544190000e-001) (2, -2.05037784576416020000e+000) (3, 1.03646135330200200000e+000) (4, -1.40345640182495120000e+001) (0, -4.07306432723999020000e-001) (1, -2.19638109207153320000e+000) (2, -1.15556216239929200000e+000) (3, -1.30732688903808590000e+001) (4, 1.15557031631469730000e+001) (5, 1.12283256530761720000e+002) (0, -3.85243803262710570000e-001) (1, -3.02030062675476070000e+000) (2, -8.32319259643554690000e-001) (3, -7.72282958030700680000e-001) (4, 1.03208818435668950000e+001) (5, -8.03985519409179690000e+001) (6, -1.83214402198791500000e+000) (0, 8.11001285910606380000e-002) (1, -1.56803041696548460000e-001) (2, 1.75548195838928220000e-001) (3, 5.99285697937011720000e+000) (4, 2.72376556396484370000e+001) (5, -1.27382671833038330000e+000) (6, 3.33775258064270020000e+000) (7, 4.54001007080078120000e+001) (0, 1.15694022178649900000e+000) (1, 2.58112642914056780000e-002) (2, -2.20780149102211000000e-002) (3, -1.38430094718933110000e+000) (4, -1.76463146209716800000e+001) (5, 5.46021223068237300000e-001) (6, 6.29082471132278440000e-002) (7, -4.62299776077270510000e+000) (8, 4.24965858459472660000e-001) (0, 2.55576699972152710000e-001) (1, -2.33921721577644350000e-001) (2, 4.31787967681884770000e-002) (3, -1.92222952842712400000e+000) (4, -1.94979834556579590000e+000) (5, -1.67075085639953610000e+000) (6, 2.48779726028442380000e+000) (7, -3.42025351524353030000e+000) (8, -1.12719848752021790000e-001) (9, -1.41091927886009220000e-001) (0, 1.12163662910461430000e+000) (1, -2.49292358756065370000e-001) (2, 6.39909744262695310000e-001) (3, -1.08009004592895510000e+000) (4, 5.61882972717285160000e+000) (5, 5.99990487098693850000e-001) (6, 1.66212648153305050000e-001) (7, -1.18201780319213870000e+000) (8, -1.17809996008872990000e-001) (9, 3.82122136652469640000e-002) (10, -3.35616320371627810000e-002) 
