FANN_FLO_2.1
num_layers=18
learning_rate=0.700000
connection_rate=1.000000
network_type=1
learning_momentum=0.000000
training_algorithm=2
train_error_function=0
train_stop_function=0
cascade_output_change_fraction=0.010000
quickprop_decay=-0.000100
quickprop_mu=1.750000
rprop_increase_factor=1.200000
rprop_decrease_factor=0.500000
rprop_delta_min=0.000000
rprop_delta_max=50.000000
rprop_delta_zero=0.100000
cascade_output_stagnation_epochs=12
cascade_candidate_change_fraction=0.010000
cascade_candidate_stagnation_epochs=12
cascade_max_out_epochs=150
cascade_max_cand_epochs=150
cascade_num_candidate_groups=2
bit_fail_limit=3.49999994039535522461e-01
cascade_candidate_limit=1.00000000000000000000e+03
cascade_weight_multiplier=4.00000005960464477539e-01
cascade_activation_functions_count=10
cascade_activation_functions=3 5 7 8 10 11 14 15 16 17 
cascade_activation_steepnesses_count=4
cascade_activation_steepnesses=2.50000000000000000000e-01 5.00000000000000000000e-01 7.50000000000000000000e-01 1.00000000000000000000e+00 
layer_sizes=17 1 1 1 1 1 1 1 1 1 1 1 1 1 1 1 1 16 
scale_included=0
neurons (num_inputs, activation_function, activation_steepness)=(0, 0, 0.00000000000000000000e+00) (0, 0, 0.00000000000000000000e+00) (0, 0, 0.00000000000000000000e+00) (0, 0, 0.00000000000000000000e+00) (0, 0, 0.00000000000000000000e+00) (0, 0, 0.00000000000000000000e+00) (0, 0, 0.00000000000000000000e+00) (0, 0, 0.00000000000000000000e+00) (0, 0, 0.00000000000000000000e+00) (0, 0, 0.00000000000000000000e+00) (0, 0, 0.00000000000000000000e+00) (0, 0, 0.00000000000000000000e+00) (0, 0, 0.00000000000000000000e+00) (0, 0, 0.00000000000000000000e+00) (0, 0, 0.00000000000000000000e+00) (0, 0, 0.00000000000000000000e+00) (0, 0, 0.00000000000000000000e+00) (17, 15, 7.50000000000000000000e-01) (18, 14, 7.50000000000000000000e-01) (19, 15, 5.00000000000000000000e-01) (20, 14, 1.00000000000000000000e+00) (21, 15, 1.00000000000000000000e+00) (22, 14, 5.00000000000000000000e-01) (23, 14, 5.00000000000000000000e-01) (24, 15, 5.00000000000000000000e-01) (25, 8, 5.00000000000000000000e-01) (26, 14, 7.50000000000000000000e-01) (27, 14, 7.50000000000000000000e-01) (28, 15, 5.00000000000000000000e-01) (29, 14, 5.00000000000000000000e-01) (30, 14, 2.50000000000000000000e-01) (31, 15, 2.50000000000000000000e-01) (32, 15, 7.50000000000000000000e-01) (33, 5, 5.00000000000000000000e-01) (33, 5, 5.00000000000000000000e-01) (33, 5, 5.00000000000000000000e-01) (33, 5, 5.00000000000000000000e-01) (33, 5, 5.00000000000000000000e-01) (33, 5, 5.00000000000000000000e-01) (33, 5, 5.00000000000000000000e-01) (33, 5, 5.00000000000000000000e-01) (33, 5, 5.00000000000000000000e-01) (33, 5, 5.00000000000000000000e-01) (33, 5, 5.00000000000000000000e-01) (33, 5, 5.00000000000000000000e-01) (33, 5, 5.00000000000000000000e-01) (33, 5, 5.00000000000000000000e-01) (33, 5, 5.00000000000000000000e-01) (33, 5, 5.00000000000000000000e-01) 
connections (connected_to_neuron, weight)=(0, 1.64755129814147949219e+00) (1, 1.06825685501098632812e+01) (2, 7.03066444396972656250e+00) (3, 5.97900724411010742188e+00) (4, 2.95636606216430664062e+00) (5, 1.19227492809295654297e+00) (6, 8.46639919281005859375e+00) (7, 1.19801366329193115234e+00) (8, 1.33980095386505126953e+00) (9, 2.15245246887207031250e+00) (10, 2.18554544448852539062e+00) (11, 1.31541180610656738281e+00) (12, -7.10980319976806640625e+00) (13, -4.34615945816040039062e+00) (14, -2.83335947990417480469e+00) (15, -6.01596784591674804688e+00) (16, -1.04867625236511230469e+00) (0, 1.69583473205566406250e+01) (1, 7.43517541885375976562e+00) (2, -3.93855023384094238281e+00) (3, 3.90809321403503417969e+00) (4, -6.31374073028564453125e+00) (5, -6.12789201736450195312e+00) (6, 6.98391258716583251953e-01) (7, 6.26450657844543457031e-01) (8, 1.93066775798797607422e+00) (9, 1.46526706218719482422e+00) (10, -1.31418609619140625000e+00) (11, 1.10561990737915039062e+01) (12, 4.76070046424865722656e-01) (13, 8.63463461399078369141e-01) (14, -1.13809633255004882812e+01) (15, 5.44468069076538085938e+00) (16, 1.86225965619087219238e-01) (17, 6.66090130805969238281e-01) (0, 9.29263889789581298828e-01) (1, 2.31710338592529296875e+00) (2, 4.64856195449829101562e+00) (3, 2.99718546867370605469e+00) (4, 6.26151275634765625000e+00) (5, -1.20806801319122314453e+00) (6, 3.50849056243896484375e+00) (7, -4.43067789077758789062e+00) (8, 1.76940679550170898438e+00) (9, -5.60154581069946289062e+00) (10, -1.96352565288543701172e+00) (11, 1.62531137466430664062e+00) (12, 2.04963040351867675781e+00) (13, 2.81296753883361816406e+00) (14, -1.76805841922760009766e+00) (15, -9.48169326782226562500e+00) (16, 5.30698680877685546875e+00) (17, 2.99232435226440429688e+00) (18, 3.81634330749511718750e+00) (0, 2.20958530902862548828e-01) (1, -5.41089475154876708984e-01) (2, 1.87414455413818359375e+00) (3, 1.44832944869995117188e+00) (4, 4.73018884658813476562e+00) (5, -1.96262156963348388672e+00) (6, -6.73415851593017578125e+00) (7, -4.73100304603576660156e-01) (8, 1.20610485076904296875e+01) (9, 1.88515222072601318359e+00) (10, 1.72042918205261230469e+00) (11, 4.46678543090820312500e+00) (12, 1.35636019706726074219e+00) (13, 5.16733109951019287109e-01) (14, -3.83534222841262817383e-01) (15, -3.51785309612751007080e-02) (16, -1.39682245254516601562e+00) (17, 6.72303378582000732422e-01) (18, 2.35081577301025390625e+00) (19, -1.78955364227294921875e+00) (0, 7.19020068645477294922e-01) (1, -3.29148936271667480469e+00) (2, 4.74060916900634765625e+00) (3, 1.89570426940917968750e+00) (4, -1.92830610275268554688e+00) (5, 4.93217563629150390625e+00) (6, 3.09601187705993652344e+00) (7, -1.78378725051879882812e+00) (8, 2.12060689926147460938e+00) (9, 7.07949340343475341797e-01) (10, 5.58777284622192382812e+00) (11, 2.51102614402770996094e+00) (12, 6.61606967449188232422e-01) (13, 2.29498577117919921875e+00) (14, -1.47725701332092285156e-01) (15, 7.56092488765716552734e-01) (16, 6.23390674591064453125e-01) (17, 1.31369543075561523438e+00) (18, 1.29020094871520996094e+00) (19, 2.45332145690917968750e+00) (20, 2.00519776344299316406e+00) (0, -6.70209527015686035156e-02) (1, 4.50697898864746093750e+00) (2, 2.37648636102676391602e-01) (3, 1.72221958637237548828e+00) (4, 1.78812813758850097656e+00) (5, -6.80978298187255859375e+00) (6, -7.27050364017486572266e-01) (7, 1.06349611282348632812e+01) (8, 1.68849253654479980469e+00) (9, 1.14952373504638671875e+00) (10, 6.58883929252624511719e-01) (11, 3.34560942649841308594e+00) (12, 2.18136548995971679688e+00) (13, 6.47521305084228515625e+00) (14, 4.58619058132171630859e-01) (15, -1.14151220321655273438e+01) (16, -3.01752060651779174805e-01) (17, 8.98229002952575683594e-01) (18, 1.91115915775299072266e+00) (19, -4.89485949277877807617e-01) (20, -2.17306542396545410156e+00) (21, 4.26054143905639648438e+00) (0, -3.20851135253906250000e+00) (1, 4.64617204666137695312e+00) (2, 1.08138217926025390625e+01) (3, -4.96010160446166992188e+00) (4, 5.14037322998046875000e+00) (5, 6.47341108322143554688e+00) (6, -4.08434772491455078125e+00) (7, 1.18273007869720458984e+00) (8, 1.40933787822723388672e+00) (9, 1.20758903026580810547e+00) (10, 2.45092749595642089844e+00) (11, 2.48424267768859863281e+00) (12, 4.88752937316894531250e+00) (13, -6.01749086380004882812e+00) (14, -7.23653411865234375000e+00) (15, -4.14138698577880859375e+00) (16, 8.42021226882934570312e-01) (17, 3.65996927022933959961e-01) (18, 2.50704097747802734375e+00) (19, -3.20264160633087158203e-01) (20, 7.63342022895812988281e-01) (21, -1.03811645507812500000e+00) (22, 1.64480566978454589844e+00) (0, 1.11913669109344482422e+00) (1, -3.56726455688476562500e+00) (2, 1.09703416824340820312e+01) (3, 4.75428533554077148438e+00) (4, 2.25311970710754394531e+00) (5, 1.50630521774291992188e+00) (6, 1.21708364486694335938e+01) (7, -2.32208371162414550781e+00) (8, -3.08585190773010253906e+00) (9, -2.32032012939453125000e+00) (10, -2.53156375885009765625e+00) (11, -1.03222770690917968750e+01) (12, 1.17179524898529052734e+00) (13, 2.35029411315917968750e+00) (14, -3.56020951271057128906e+00) (15, 5.93645620346069335938e+00) (16, 3.06459999084472656250e+00) (17, -6.49892687797546386719e-02) (18, 2.80273699760437011719e+00) (19, 9.99706208705902099609e-01) (20, 3.68421268463134765625e+00) (21, 1.52499222755432128906e+00) (22, -2.92253017425537109375e-01) (23, -9.28927123546600341797e-01) (0, 4.99927759170532226562e-01) (1, 8.53203475475311279297e-01) (2, 5.94157409667968750000e+00) (3, 1.47277459502220153809e-01) (4, -3.70961189270019531250e-01) (5, -6.11873529851436614990e-02) (6, 3.98153513669967651367e-01) (7, -7.40216434001922607422e-01) (8, 4.03435260057449340820e-01) (9, 3.28728884458541870117e-01) (10, -4.84651893377304077148e-01) (11, -8.09433832764625549316e-02) (12, -5.34325218200683593750e+00) (13, 1.19459497928619384766e+00) (14, 5.93237543106079101562e+00) (15, -1.35372185707092285156e+00) (16, -2.00831365585327148438e+00) (17, 9.14192140102386474609e-01) (18, 1.06841886043548583984e+00) (19, 2.71970152854919433594e+00) (20, 2.08452656865119934082e-01) (21, 1.00056183338165283203e+00) (22, 1.30294549465179443359e+00) (23, 5.85196077823638916016e-01) (24, 4.36509758234024047852e-01) (0, 4.29226303100585937500e+00) (1, 1.97557580471038818359e+00) (2, -6.07294023036956787109e-01) (3, 6.26485633850097656250e+00) (4, -2.87250900268554687500e+00) (5, 1.76998054981231689453e+00) (6, -2.59877467155456542969e+00) (7, 1.69615304470062255859e+00) (8, 2.78217291831970214844e+00) (9, 6.33617448806762695312e+00) (10, 1.60143160820007324219e+00) (11, 2.14025664329528808594e+00) (12, 5.36218595504760742188e+00) (13, 2.14670777320861816406e+00) (14, -2.27456617355346679688e+00) (15, -6.37615919113159179688e-01) (16, 1.74794411659240722656e+00) (17, 7.80617594718933105469e-01) (18, 1.91964960098266601562e+00) (19, 5.43396651744842529297e-01) (20, 1.40063893795013427734e+00) (21, 1.09134519100189208984e+00) (22, 1.20946526527404785156e+00) (23, 8.41066360473632812500e-01) (24, -2.86255121231079101562e-01) (25, 4.43140268325805664062e+00) (0, 1.12532794475555419922e+00) (1, 2.42866730690002441406e+00) (2, 1.34176218509674072266e+00) (3, 2.37398934364318847656e+00) (4, 3.17135310173034667969e+00) (5, 3.21158218383789062500e+00) (6, 1.11025941371917724609e+00) (7, 2.08971953392028808594e+00) (8, 1.63697826862335205078e+00) (9, 4.07973527908325195312e-01) (10, 1.94397473335266113281e+00) (11, 1.38881647586822509766e+00) (12, 1.84034630656242370605e-01) (13, -1.21876381337642669678e-01) (14, -9.65036201477050781250e+00) (15, 5.75391530990600585938e+00) (16, 1.14510703086853027344e+00) (17, 4.04628723859786987305e-01) (18, 1.52905988693237304688e+00) (19, 6.86891496181488037109e-01) (20, -1.59288668632507324219e+00) (21, -3.30832183361053466797e-01) (22, 1.87841498851776123047e+00) (23, 1.72780430316925048828e+00) (24, 2.04561233520507812500e+00) (25, 1.77141022682189941406e+00) (26, -1.92702746391296386719e+00) (0, -3.08446717262268066406e+00) (1, 1.70819425582885742188e+00) (2, -1.35144424438476562500e+00) (3, -9.54937839508056640625e+00) (4, 1.19044771194458007812e+01) (5, -2.39578342437744140625e+00) (6, 7.44729423522949218750e+00) (7, 5.94668149948120117188e-01) (8, 2.21454286575317382812e+00) (9, 2.07830357551574707031e+00) (10, 1.02414464950561523438e+00) (11, 2.05514883995056152344e+00) (12, 1.08704781532287597656e+00) (13, 2.03321242332458496094e+00) (14, 3.83552193641662597656e+00) (15, 8.82496118545532226562e-01) (16, 2.01316094398498535156e+00) (17, 1.83727037906646728516e+00) (18, -1.63691103458404541016e+00) (19, 5.41683340072631835938e+00) (20, 7.26120805740356445312e+00) (21, 8.42715442180633544922e-01) (22, -2.04013991355895996094e+00) (23, 5.56786417961120605469e-01) (24, 2.26453435607254505157e-03) (25, 4.58846092224121093750e+00) (26, 1.05036723613739013672e+00) (27, 8.25651288032531738281e-01) (0, 7.15241241455078125000e+00) (1, 6.56128549575805664062e+00) (2, -7.55529546737670898438e+00) (3, -1.15021789073944091797e+00) (4, 6.88259935379028320312e+00) (5, -4.82781362533569335938e+00) (6, 2.81094312667846679688e+00) (7, -1.76141035556793212891e+00) (8, 2.06678175926208496094e+00) (9, 2.58029270172119140625e+00) (10, -3.96264886856079101562e+00) (11, 9.63692903518676757812e-01) (12, 1.21832644939422607422e+00) (13, 4.21892166137695312500e+00) (14, 8.94963932037353515625e+00) (15, -1.66323029994964599609e+00) (16, -1.32957661151885986328e+00) (17, 1.85025200247764587402e-01) (18, 9.33023214340209960938e-01) (19, 5.47019779682159423828e-01) (20, 4.03509712219238281250e+00) (21, 3.61539649963378906250e+00) (22, -8.47301959991455078125e-01) (23, 2.67482805252075195312e+00) (24, -4.67482268810272216797e-01) (25, 2.49401473999023437500e+00) (26, 2.16299748420715332031e+00) (27, 2.58034777641296386719e+00) (28, 1.64637482166290283203e+00) (0, -4.26546049118041992188e+00) (1, 7.29806852340698242188e+00) (2, 6.13328170776367187500e+00) (3, -5.92036819458007812500e+00) (4, 2.01212882995605468750e+00) (5, -5.73947668075561523438e+00) (6, 2.67500615119934082031e+00) (7, 1.42761194705963134766e+00) (8, 1.93851590156555175781e+00) (9, 5.89628648757934570312e+00) (10, 3.06445622444152832031e+00) (11, 5.98331451416015625000e-01) (12, 1.79019908905029296875e+01) (13, 9.18943119049072265625e+00) (14, 3.34373307228088378906e+00) (15, -6.92160701751708984375e+00) (16, -1.16287291049957275391e+00) (17, -2.20137333869934082031e+00) (18, 3.73693704605102539062e+00) (19, -1.73789000511169433594e+00) (20, 2.02160787582397460938e+00) (21, 7.08849954605102539062e+00) (22, 4.19653081893920898438e+00) (23, -8.22930276393890380859e-01) (24, -4.23419904708862304688e+00) (25, 8.69128227233886718750e-01) (26, -2.94529414176940917969e+00) (27, -7.68151581287384033203e-01) (28, 5.97259104251861572266e-02) (29, 2.55711483955383300781e+00) (0, 2.32886075973510742188e+00) (1, 1.34811246395111083984e+00) (2, 1.10144119262695312500e+01) (3, 9.80777621269226074219e-01) (4, 1.46174907684326171875e+00) (5, 9.34408605098724365234e-01) (6, 3.18195390701293945312e+00) (7, 6.69223189353942871094e-01) (8, 1.00987186431884765625e+01) (9, 3.87495160102844238281e-01) (10, 2.42454719543457031250e+00) (11, 7.21236848831176757812e+00) (12, 1.44135326147079467773e-01) (13, -3.59089398384094238281e+00) (14, -2.39547615051269531250e+01) (15, -1.17521553039550781250e+01) (16, -1.54673576354980468750e+00) (17, -1.03670704364776611328e+00) (18, 2.95116758346557617188e+00) (19, -9.09519970417022705078e-01) (20, -2.68444478511810302734e-01) (21, 6.45861911773681640625e+00) (22, -8.56143057346343994141e-01) (23, -4.62757945060729980469e-01) (24, -9.20515894889831542969e-01) (25, 5.56374692916870117188e+00) (26, -3.13237309455871582031e+00) (27, 9.10183548927307128906e-01) (28, -3.65958356857299804688e+00) (29, 3.50438332557678222656e+00) (30, 9.58711385726928710938e-01) (0, 2.27898216247558593750e+00) (1, 9.64701592922210693359e-01) (2, -2.88955241441726684570e-01) (3, 4.94600057601928710938e+00) (4, 3.36634135246276855469e+00) (5, 2.47008323669433593750e+00) (6, 4.60504007339477539062e+00) (7, -1.17793393135070800781e+00) (8, 6.98537731170654296875e+00) (9, 3.67545199394226074219e+00) (10, 1.01836287975311279297e+00) (11, 1.39154171943664550781e+00) (12, -9.47897434234619140625e-01) (13, -3.67259234189987182617e-01) (14, -8.71030712127685546875e+00) (15, -1.39680299907922744751e-02) (16, 2.49042105674743652344e+00) (17, 1.28222262859344482422e+00) (18, 2.86174821853637695312e+00) (19, 1.35404348373413085938e-01) (20, 1.21662557125091552734e+00) (21, 1.09352600574493408203e+00) (22, 8.12092423439025878906e-02) (23, 5.24415612220764160156e-01) (24, 3.72358113527297973633e-01) (25, 3.70514202117919921875e+00) (26, 2.29629325866699218750e+00) (27, 4.44322340190410614014e-02) (28, 3.05686998367309570312e+00) (29, 1.12800490856170654297e+00) (30, 1.27262485027313232422e+00) (31, -2.43726804852485656738e-01) (0, -4.52177773695439100266e-05) (1, -5.21699315868318080902e-04) (2, -2.10298714227974414825e-03) (3, -8.02623166237026453018e-04) (4, -1.05732004158198833466e-03) (5, -2.70016607828438282013e-03) (6, 7.64297656132839620113e-05) (7, 9.86575498245656490326e-04) (8, -5.05698844790458679199e-03) (9, 3.90073074959218502045e-03) (10, 3.05858207866549491882e-03) (11, 2.70952796563506126404e-03) (12, 8.74189136084169149399e-04) (13, -2.65874317847192287445e-03) (14, -1.07251318695489317179e-04) (15, -1.33811763953417539597e-03) (16, 8.19091394077986478806e-04) (17, 1.55073561472818255424e-04) (18, 1.37467897729948163033e-04) (19, -6.75123446853831410408e-05) (20, 9.62186095421202480793e-05) (21, 1.24373502330854535103e-04) (22, -7.56719164201058447361e-05) (23, -1.48648890899494290352e-04) (24, 7.38826420274563133717e-05) (25, 2.50430661253631114960e-04) (26, -1.71953171957284212112e-04) (27, -1.32701738039031624794e-04) (28, -9.49451423366554081440e-05) (29, 1.25993581605143845081e-04) (30, -8.78900027601048350334e-06) (31, -2.05991877010092139244e-04) (32, 1.56655252794735133648e-04) (0, 4.36714887619018554688e-02) (1, 8.17252509295940399170e-03) (2, 7.82184675335884094238e-02) (3, 1.98294781148433685303e-02) (4, 3.65910045802593231201e-02) (5, -1.24244391918182373047e-01) (6, 6.79829120635986328125e-02) (7, 7.08099454641342163086e-02) (8, -1.24530322849750518799e-01) (9, 2.07740589976310729980e-01) (10, -1.28342146053910255432e-02) (11, 1.98688492178916931152e-01) (12, -5.90716004371643066406e-02) (13, -4.04334552586078643799e-02) (14, -2.02456638216972351074e-02) (15, 2.08930578082799911499e-02) (16, -1.05838060379028320312e-01) (17, -1.51138252113014459610e-03) (18, -1.73092482145875692368e-03) (19, -1.69335270766168832779e-03) (20, -4.06974414363503456116e-03) (21, -8.81959800608456134796e-04) (22, 3.10486136004328727722e-03) (23, -8.99780599866062402725e-04) (24, -7.24819349125027656555e-03) (25, -1.11500415951013565063e-02) (26, -3.58770514139905571938e-04) (27, -3.35464207455515861511e-03) (28, -2.43892311118543148041e-03) (29, 3.88344924431294202805e-04) (30, -2.83863418735563755035e-03) (31, -3.71893495321273803711e-03) (32, 3.36813274770975112915e-03) (0, 8.57389997690916061401e-04) (1, -1.31986758788116276264e-04) (2, -1.91968842409551143646e-03) (3, 4.21125150751322507858e-04) (4, -2.84769601421430706978e-04) (5, 1.52032170444726943970e-03) (6, 2.07576970569789409637e-03) (7, 9.90373315289616584778e-04) (8, 1.20540801435708999634e-03) (9, -7.55946966819465160370e-04) (10, -2.21293861977756023407e-03) (11, 2.08114436827600002289e-03) (12, -2.03883321955800056458e-03) (13, -5.21089369431138038635e-03) (14, 5.49266859889030456543e-03) (15, -8.57635168358683586121e-04) (16, -8.47218470880761742592e-05) (17, -8.04380761110223829746e-05) (18, 7.33926135580986738205e-05) (19, 1.04608865513000637293e-04) (20, -2.24453233386157080531e-05) (21, -3.40421211149077862501e-05) (22, 1.25455539091490209103e-04) (23, -1.47331142215989530087e-04) (24, 3.38630852638743817806e-05) (25, -1.14613387268036603928e-04) (26, 1.68642873177304863930e-04) (27, 1.48380582686513662338e-04) (28, -1.63677643286064267159e-04) (29, 1.44934674608521163464e-04) (30, 1.35256937937811017036e-04) (31, 3.13887256197631359100e-04) (32, 6.16049219388514757156e-05) (0, -5.27101161424070596695e-04) (1, 1.30723416805267333984e-03) (2, 2.12143943645060062408e-03) (3, 4.19761799275875091553e-03) (4, -1.01261516101658344269e-03) (5, 1.70372752472758293152e-03) (6, -1.12895853817462921143e-03) (7, -1.91088882274925708771e-03) (8, 3.22595867328345775604e-03) (9, -4.37260465696454048157e-03) (10, -2.04589241184294223785e-03) (11, -6.47734245285391807556e-03) (12, -1.88013116712681949139e-04) (13, 8.03239736706018447876e-03) (14, -1.49605586193501949310e-03) (15, 7.74139945860952138901e-04) (16, -8.84633976966142654419e-04) (17, 8.13567748991772532463e-06) (18, 1.19760567031335085630e-04) (19, 2.92971617454895749688e-05) (20, 2.82867491478100419044e-04) (21, 4.15460744989104568958e-05) (22, 1.48980718222446739674e-04) (23, 2.27417418500408530235e-04) (24, -2.44893977651372551918e-04) (25, 2.49547447310760617256e-04) (26, 1.00236007710918784142e-04) (27, -1.21901241072919219732e-04) (28, 3.15365963615477085114e-04) (29, 5.85220659559126943350e-05) (30, 1.45167563459835946560e-04) (31, 2.16458778595551848412e-04) (32, 3.53789910150226205587e-05) (0, 2.73600012063980102539e-01) (1, -3.95481437444686889648e-01) (2, 9.51199769973754882812e-01) (3, 4.56730544567108154297e-01) (4, 1.40450403094291687012e-01) (5, 2.93913446366786956787e-02) (6, 1.35314334183931350708e-02) (7, 5.95808863639831542969e-01) (8, -5.73458820581436157227e-02) (9, 7.06085503101348876953e-01) (10, -8.29931080341339111328e-01) (11, 1.28242552280426025391e+00) (12, 9.21975150704383850098e-02) (13, -6.34920120239257812500e-01) (14, -4.51375216245651245117e-01) (15, -8.40741395950317382812e-01) (16, -1.34870395064353942871e-01) (17, -3.95272970199584960938e-02) (18, 5.87495118379592895508e-02) (19, 2.78432462364435195923e-02) (20, 4.63186129927635192871e-02) (21, 1.96117073297500610352e-01) (22, 6.29961565136909484863e-02) (23, -1.28562906756997108459e-02) (24, -4.57933694124221801758e-02) (25, -3.81456986069679260254e-02) (26, -1.36195167899131774902e-01) (27, 5.74855618178844451904e-02) (28, -3.78452509641647338867e-01) (29, 2.76202231645584106445e-01) (30, -1.77381068468093872070e-01) (31, -1.78729280829429626465e-01) (32, 1.72394365072250366211e-01) (0, 5.35956144332885742188e-01) (1, 5.88030219078063964844e-01) (2, -7.94555127620697021484e-01) (3, 3.71855884790420532227e-01) (4, -7.09006130695343017578e-01) (5, 1.11841477453708648682e-01) (6, -6.53540372848510742188e-01) (7, 2.16252744197845458984e-01) (8, -6.97437822818756103516e-01) (9, 9.20733988285064697266e-01) (10, -5.67707180976867675781e-01) (11, 3.23652066290378570557e-02) (12, -4.78620111942291259766e-01) (13, -4.44232404232025146484e-01) (14, -1.50428721681237220764e-02) (15, 2.57489174604415893555e-01) (16, 5.02102315425872802734e-01) (17, 1.80089492350816726685e-02) (18, 1.41094923019409179688e-01) (19, -6.96255490183830261230e-02) (20, 1.20490873232483863831e-02) (21, -3.58046665787696838379e-02) (22, -1.28586053848266601562e-01) (23, -1.19853504002094268799e-01) (24, 2.05957964062690734863e-01) (25, 2.26032271981239318848e-01) (26, -2.62477874755859375000e-01) (27, -2.41422370076179504395e-01) (28, -2.09882542490959167480e-01) (29, -2.16241449117660522461e-01) (30, 1.43497273325920104980e-01) (31, -2.20291957259178161621e-01) (32, -1.23770043253898620605e-01) (0, -9.60680022835731506348e-02) (1, -1.32406318187713623047e+00) (2, -5.81903278827667236328e-01) (3, 1.28634318709373474121e-01) (4, 7.43200719356536865234e-01) (5, -8.62452089786529541016e-01) (6, 2.07683730125427246094e+00) (7, -3.15665423870086669922e-01) (8, -1.46008741855621337891e+00) (9, -1.78934776782989501953e+00) (10, -1.26093399524688720703e+00) (11, 8.15653145313262939453e-01) (12, 3.20718467235565185547e-01) (13, -9.41017806529998779297e-01) (14, 9.80506658554077148438e-01) (15, 2.24400877952575683594e-01) (16, 1.38052189350128173828e+00) (17, -3.50528173148632049561e-02) (18, -3.01203489303588867188e-01) (19, 8.05343408137559890747e-03) (20, -3.42085808515548706055e-02) (21, 5.03963410854339599609e-01) (22, -1.82458952069282531738e-01) (23, -5.72869122028350830078e-01) (24, -5.61129786074161529541e-02) (25, 1.38290062546730041504e-01) (26, 2.83938497304916381836e-01) (27, 4.13685649633407592773e-01) (28, -6.40045553445816040039e-02) (29, -8.61255303025245666504e-02) (30, 9.48531329631805419922e-02) (31, 4.88126724958419799805e-02) (32, -1.08153268694877624512e-01) (0, -6.07163131237030029297e-01) (1, -1.51514112949371337891e+00) (2, 4.59206849336624145508e-02) (3, 3.53510767221450805664e-01) (4, -9.12840247154235839844e-01) (5, 2.19423747062683105469e+00) (6, 7.53062009811401367188e-01) (7, -2.38664460182189941406e+00) (8, 1.04272127151489257812e+00) (9, 1.01398348808288574219e-01) (10, 5.31142771244049072266e-01) (11, -1.30399549007415771484e+00) (12, 3.26188087463378906250e-01) (13, -3.31827306747436523438e+00) (14, 1.47005093097686767578e+00) (15, 1.31112980842590332031e+00) (16, 9.88354623317718505859e-01) (17, -2.99620062112808227539e-01) (18, -2.10488066077232360840e-01) (19, 1.41612902283668518066e-01) (20, 6.89179956912994384766e-01) (21, -9.12258744239807128906e-01) (22, -8.11107754707336425781e-01) (23, 3.34067583084106445312e-01) (24, -1.89563147723674774170e-02) (25, -4.06769439578056335449e-02) (26, 6.07283152639865875244e-02) (27, 3.59076820313930511475e-02) (28, 1.38112783432006835938e-01) (29, 2.57005751132965087891e-01) (30, 2.21956193447113037109e-01) (31, 1.08091704547405242920e-01) (32, 1.59133374691009521484e-01) (0, -3.59758198261260986328e-01) (1, -3.01592089235782623291e-02) (2, -1.34720706939697265625e+00) (3, -1.31385493278503417969e+00) (4, 3.21481883525848388672e-01) (5, -1.33974730968475341797e+00) (6, -4.44689083099365234375e+00) (7, 1.99647831916809082031e+00) (8, 6.79917991161346435547e-01) (9, 6.29741251468658447266e-01) (10, 3.23815393447875976562e+00) (11, 2.87709736824035644531e+00) (12, -5.10748744010925292969e-01) (13, 7.12607502937316894531e-01) (14, -3.20045292377471923828e-01) (15, -1.53461384773254394531e+00) (16, 6.17830336093902587891e-01) (17, 3.61546784639358520508e-01) (18, -5.34989178180694580078e-01) (19, -2.46552556753158569336e-01) (20, -8.78007829189300537109e-01) (21, -2.24138215184211730957e-01) (22, 4.22545611858367919922e-01) (23, 4.01392608880996704102e-01) (24, 5.91843843460083007812e-01) (25, -4.98827733099460601807e-03) (26, -1.36352449771948158741e-04) (27, 6.02136664092540740967e-02) (28, -1.62711869925260543823e-02) (29, 2.94166542589664459229e-02) (30, 2.56210923194885253906e-01) (31, 1.45821124315261840820e-01) (32, 1.36325061321258544922e-01) (0, -7.32493624091148376465e-02) (1, 7.59187042713165283203e-01) (2, 1.95862138271331787109e+00) (3, 2.56304264068603515625e-01) (4, 3.57791721820831298828e-01) (5, 6.54737889766693115234e-01) (6, 3.14405933022499084473e-02) (7, -1.80277919769287109375e+00) (8, 1.86917996406555175781e+00) (9, -2.32893776893615722656e+00) (10, -1.99153864383697509766e+00) (11, 1.36334240436553955078e-01) (12, -1.68950879573822021484e+00) (13, 3.19441437721252441406e+00) (14, 1.33061587810516357422e+00) (15, -5.07764935493469238281e-01) (16, -6.41838386654853820801e-02) (17, 6.40139639377593994141e-01) (18, 5.86302042007446289062e-01) (19, 9.66537833213806152344e-01) (20, 9.68565344810485839844e-02) (21, 3.63932140171527862549e-02) (22, 2.74364978075027465820e-01) (23, -9.81178730726242065430e-02) (24, 3.50131131708621978760e-02) (25, -7.13480234146118164062e-01) (26, 2.50560671091079711914e-01) (27, -2.00550436973571777344e-01) (28, 3.77051293849945068359e-01) (29, -1.17692664265632629395e-01) (30, 1.21050894260406494141e-01) (31, -1.45224720239639282227e-01) (32, -1.52580350637435913086e-01) (0, -1.06004655361175537109e+00) (1, 6.20221972465515136719e-01) (2, 3.12210649251937866211e-01) (3, -4.01770263910293579102e-01) (4, 9.16342854499816894531e-01) (5, -5.92416167259216308594e-01) (6, 8.08074414730072021484e-01) (7, 7.32646763324737548828e-01) (8, -1.42686069011688232422e-01) (9, 3.22699451446533203125e+00) (10, 1.94086208939552307129e-01) (11, -4.30291938781738281250e+00) (12, 2.14010477066040039062e+00) (13, 1.81648194789886474609e-01) (14, -1.08905243873596191406e+00) (15, 9.33220148086547851562e-01) (16, -2.76568531990051269531e-01) (17, -5.25497794151306152344e-01) (18, 1.94278672337532043457e-01) (19, -4.03306156396865844727e-01) (20, -2.67631292343139648438e-01) (21, 3.72648924589157104492e-01) (22, 1.68055847287178039551e-01) (23, 3.29580485820770263672e-01) (24, -5.55081665515899658203e-01) (25, 3.14461849629878997803e-02) (26, 2.73593038320541381836e-01) (27, -3.28544765710830688477e-01) (28, -1.46838547661900520325e-02) (29, -2.76946276426315307617e-01) (30, -1.50450482964515686035e-01) (31, 1.79042428731918334961e-01) (32, 1.62475049495697021484e-01) (0, 5.40107905864715576172e-01) (1, 8.16211581230163574219e-01) (2, -3.93763750791549682617e-01) (3, -2.24311530590057373047e-01) (4, -5.55057108402252197266e-01) (5, 3.68976444005966186523e-01) (6, 8.39638650417327880859e-01) (7, 6.65126293897628784180e-02) (8, -1.45396694540977478027e-01) (9, -1.89583706855773925781e+00) (10, 1.34558773040771484375e+00) (11, -7.49517917633056640625e-01) (12, -6.56452000141143798828e-01) (13, 1.81111562252044677734e+00) (14, -5.16403019428253173828e-01) (15, 4.76493835449218750000e-01) (16, -1.85159221291542053223e-01) (17, -8.62249955534934997559e-02) (18, 1.43583461642265319824e-01) (19, -2.22835645079612731934e-01) (20, 2.52638220787048339844e-01) (21, -5.76283261179924011230e-02) (22, 2.41430088877677917480e-01) (23, -1.16860352456569671631e-01) (24, 1.69865251518785953522e-03) (25, 1.93405613303184509277e-01) (26, -2.73997545242309570312e-01) (27, 2.07556858658790588379e-01) (28, 2.84332633018493652344e-01) (29, 6.38310387730598449707e-02) (30, -3.28654408454895019531e-01) (31, 2.73885011672973632812e-01) (32, -1.82516023516654968262e-01) (0, 9.24468133598566055298e-03) (1, 2.59917005896568298340e-02) (2, 2.47943331487476825714e-03) (3, 1.25695988535881042480e-02) (4, -1.57441012561321258545e-02) (5, -1.08959777280688285828e-02) (6, 1.51446526870131492615e-02) (7, -2.64375878032296895981e-04) (8, 2.21726708114147186279e-02) (9, -5.27798421680927276611e-02) (10, 3.45767065882682800293e-02) (11, 3.70372715406119823456e-03) (12, 2.24716309458017349243e-02) (13, -2.53980886191129684448e-02) (14, 5.17556257545948028564e-03) (15, 1.02761406451463699341e-02) (16, -1.76301151514053344727e-02) (17, -2.30841484153643250465e-04) (18, 1.02036625321488827467e-04) (19, -1.44741474650800228119e-03) (20, -1.49981537833809852600e-03) (21, -1.24961894471198320389e-03) (22, 2.40718436543829739094e-04) (23, 1.26490637194365262985e-03) (24, -1.92755914758890867233e-03) (25, -5.56360988412052392960e-04) (26, -3.96266201278194785118e-04) (27, 1.92039486137218773365e-04) (28, 5.17907028552144765854e-04) (29, -1.63199671078473329544e-04) (30, -5.51225384697318077087e-04) (31, -1.15836926852352917194e-04) (32, 1.39987547299824655056e-04) (0, -4.07374016940593719482e-02) (1, -1.03015759959816932678e-02) (2, -4.80980724096298217773e-02) (3, 2.79895321000367403030e-04) (4, -5.66880330443382263184e-02) (5, 7.24032521247863769531e-02) (6, -7.62402042746543884277e-02) (7, -1.02411925792694091797e-01) (8, 1.72286391258239746094e-01) (9, -1.30075827240943908691e-01) (10, -1.10813662409782409668e-01) (11, -7.13824778795242309570e-02) (12, 1.30103826522827148438e-01) (13, -6.36350139975547790527e-02) (14, 8.29859152436256408691e-02) (15, 7.54794850945472717285e-03) (16, 6.96288421750068664551e-02) (17, -1.64997163665248081088e-05) (18, 3.32842674106359481812e-03) (19, 4.68508776975795626640e-04) (20, 2.14561540633440017700e-03) (21, 3.05611919611692428589e-03) (22, -2.81312223523855209351e-03) (23, 2.46931519359350204468e-03) (24, 6.57664332538843154907e-03) (25, 6.68431585654616355896e-03) (26, -1.55120983254164457321e-03) (27, 4.16989438235759735107e-03) (28, -8.52660508826375007629e-04) (29, 6.10128976404666900635e-04) (30, 4.33421973139047622681e-03) (31, 1.53655908070504665375e-03) (32, -1.91811216063797473907e-03) (0, -4.09079599194228649139e-04) (1, -6.70142425224184989929e-03) (2, 4.94069559499621391296e-03) (3, -8.10918584465980529785e-03) (4, 6.33673509582877159119e-03) (5, -5.38333319127559661865e-03) (6, -8.05597519502043724060e-04) (7, 7.55242584273219108582e-03) (8, -9.85625479370355606079e-03) (9, 1.18941245600581169128e-02) (10, -7.91354663670063018799e-03) (11, 1.34200574830174446106e-02) (12, -3.90781275928020477295e-03) (13, -2.45663919486105442047e-03) (14, -2.88784899748861789703e-03) (15, -3.41209908947348594666e-03) (16, 2.30957427993416786194e-03) (17, 1.19613316201139241457e-04) (18, 4.72572392027359455824e-05) (19, -5.65379050385672599077e-05) (20, -3.45405016560107469559e-04) (21, 3.33746938849799335003e-05) (22, -2.50592187512665987015e-04) (23, -2.15437277802266180515e-04) (24, 2.14034502278082072735e-04) (25, -4.97972883749753236771e-04) (26, 3.60622175321623217314e-06) (27, -2.65813549049198627472e-04) (28, -4.10626962548121809959e-04) (29, 1.17261488412623293698e-05) (30, 7.68367463024333119392e-05) (31, -2.81023269053548574448e-04) (32, 5.36497318535111844540e-05) (0, 1.14230881445109844208e-03) (1, -5.16755215357989072800e-04) (2, -4.86860191449522972107e-03) (3, 1.67927483562380075455e-03) (4, -2.07670358940958976746e-03) (5, 9.32048540562391281128e-03) (6, -6.17653597146272659302e-03) (7, -1.85779808089137077332e-03) (8, 4.38031041994690895081e-03) (9, -9.61470790207386016846e-03) (10, 4.38048178330063819885e-03) (11, -1.31342373788356781006e-02) (12, 3.20962304249405860901e-03) (13, 7.54668703302741050720e-03) (14, -6.34755633655004203320e-06) (15, 5.66365546546876430511e-04) (16, 1.28818885423243045807e-03) (17, 3.63835220923647284508e-04) (18, -9.88607498584315180779e-05) (19, 1.04542368717375211418e-05) (20, 3.75970412278547883034e-04) (21, 2.64285976300016045570e-04) (22, -8.78110313351498916745e-06) (23, 1.45317375427111983299e-04) (24, 2.63020629063248634338e-04) (25, 4.28932282375171780586e-04) (26, -6.89371081534773111343e-05) (27, 9.47623411775566637516e-05) (28, 5.44421433005481958389e-04) (29, 5.75485319131985306740e-05) (30, 8.87965798028744757175e-05) (31, 3.99065902456641197205e-04) (32, -5.56568193132989108562e-06) 
