FANN_FLO_2.1
num_layers=18
learning_rate=0.700000
connection_rate=1.000000
network_type=1
learning_momentum=0.000000
training_algorithm=2
train_error_function=0
train_stop_function=0
cascade_output_change_fraction=0.010000
quickprop_decay=-0.000100
quickprop_mu=1.750000
rprop_increase_factor=1.200000
rprop_decrease_factor=0.500000
rprop_delta_min=0.000000
rprop_delta_max=50.000000
rprop_delta_zero=0.100000
cascade_output_stagnation_epochs=12
cascade_candidate_change_fraction=0.010000
cascade_candidate_stagnation_epochs=12
cascade_max_out_epochs=150
cascade_max_cand_epochs=150
cascade_num_candidate_groups=2
bit_fail_limit=3.49999994039535522461e-01
cascade_candidate_limit=1.00000000000000000000e+03
cascade_weight_multiplier=4.00000005960464477539e-01
cascade_activation_functions_count=10
cascade_activation_functions=3 5 7 8 10 11 14 15 16 17 
cascade_activation_steepnesses_count=4
cascade_activation_steepnesses=2.50000000000000000000e-01 5.00000000000000000000e-01 7.50000000000000000000e-01 1.00000000000000000000e+00 
layer_sizes=17 1 1 1 1 1 1 1 1 1 1 1 1 1 1 1 1 16 
scale_included=0
neurons (num_inputs, activation_function, activation_steepness)=(0, 0, 0.00000000000000000000e+00) (0, 0, 0.00000000000000000000e+00) (0, 0, 0.00000000000000000000e+00) (0, 0, 0.00000000000000000000e+00) (0, 0, 0.00000000000000000000e+00) (0, 0, 0.00000000000000000000e+00) (0, 0, 0.00000000000000000000e+00) (0, 0, 0.00000000000000000000e+00) (0, 0, 0.00000000000000000000e+00) (0, 0, 0.00000000000000000000e+00) (0, 0, 0.00000000000000000000e+00) (0, 0, 0.00000000000000000000e+00) (0, 0, 0.00000000000000000000e+00) (0, 0, 0.00000000000000000000e+00) (0, 0, 0.00000000000000000000e+00) (0, 0, 0.00000000000000000000e+00) (0, 0, 0.00000000000000000000e+00) (17, 15, 7.50000000000000000000e-01) (18, 15, 7.50000000000000000000e-01) (19, 8, 5.00000000000000000000e-01) (20, 8, 7.50000000000000000000e-01) (21, 15, 7.50000000000000000000e-01) (22, 14, 5.00000000000000000000e-01) (23, 8, 2.50000000000000000000e-01) (24, 15, 5.00000000000000000000e-01) (25, 14, 1.00000000000000000000e+00) (26, 14, 5.00000000000000000000e-01) (27, 15, 1.00000000000000000000e+00) (28, 15, 1.00000000000000000000e+00) (29, 15, 5.00000000000000000000e-01) (30, 14, 1.00000000000000000000e+00) (31, 15, 7.50000000000000000000e-01) (32, 14, 7.50000000000000000000e-01) (33, 5, 5.00000000000000000000e-01) (33, 5, 5.00000000000000000000e-01) (33, 5, 5.00000000000000000000e-01) (33, 5, 5.00000000000000000000e-01) (33, 5, 5.00000000000000000000e-01) (33, 5, 5.00000000000000000000e-01) (33, 5, 5.00000000000000000000e-01) (33, 5, 5.00000000000000000000e-01) (33, 5, 5.00000000000000000000e-01) (33, 5, 5.00000000000000000000e-01) (33, 5, 5.00000000000000000000e-01) (33, 5, 5.00000000000000000000e-01) (33, 5, 5.00000000000000000000e-01) (33, 5, 5.00000000000000000000e-01) (33, 5, 5.00000000000000000000e-01) (33, 5, 5.00000000000000000000e-01) 
connections (connected_to_neuron, weight)=(0, -1.18040096759796142578e+00) (1, 6.19381618499755859375e+00) (2, -6.05900645256042480469e-01) (3, -6.49796390533447265625e+00) (4, 2.82349729537963867188e+00) (5, -2.69809842109680175781e+00) (6, 1.41199684143066406250e+00) (7, -9.20512294769287109375e+00) (8, -2.60980200767517089844e+00) (9, 8.68425750732421875000e+00) (10, 5.77773690223693847656e-01) (11, 1.49152803421020507812e+00) (12, -2.39545989036560058594e+00) (13, -4.62605953216552734375e-01) (14, 1.44109177589416503906e+00) (15, 2.05982418060302734375e+01) (16, 2.08470273017883300781e+00) (0, -5.41030704975128173828e-01) (1, 2.67397999763488769531e+00) (2, -2.05952143669128417969e+00) (3, 8.22061157226562500000e+00) (4, 3.78680324554443359375e+00) (5, -3.28625750541687011719e+00) (6, -1.02994976043701171875e+01) (7, 5.05739307403564453125e+00) (8, 3.32913351058959960938e+00) (9, 5.73424816131591796875e+00) (10, 8.86482429504394531250e+00) (11, 1.37229061126708984375e+00) (12, -7.66332745552062988281e-02) (13, 1.10787892341613769531e+00) (14, 9.08336639404296875000e-01) (15, -3.65912342071533203125e+00) (16, 1.63083004951477050781e+00) (17, 2.87518858909606933594e+00) (0, 8.41505908966064453125e+00) (1, -2.68938517570495605469e+00) (2, -9.94099044799804687500e+00) (3, 1.08632183074951171875e+00) (4, 5.05455732345581054688e-01) (5, -4.01029491424560546875e+00) (6, -1.83553171157836914062e+00) (7, 2.51738339662551879883e-01) (8, -2.60298585891723632812e+00) (9, -3.84489393234252929688e+00) (10, 2.97661423683166503906e+00) (11, 4.95925092697143554688e+00) (12, 6.91962182521820068359e-01) (13, 3.21264410018920898438e+00) (14, 3.36989402770996093750e+00) (15, 2.12156724929809570312e+00) (16, -7.89550781250000000000e-01) (17, -7.59057775139808654785e-02) (18, -1.90068984031677246094e+00) (0, 2.40201526321470737457e-03) (1, -4.57873970270156860352e-01) (2, 2.43931698799133300781e+00) (3, 4.37001079320907592773e-01) (4, -3.19305956363677978516e-01) (5, -1.28938138484954833984e-01) (6, 2.52777528762817382812e+00) (7, 8.55335354804992675781e-01) (8, 1.04035258293151855469e-01) (9, 1.26953244209289550781e+00) (10, -4.57554429769515991211e-01) (11, 1.41131496429443359375e+00) (12, 1.54284849762916564941e-01) (13, -2.18353033065795898438e+00) (14, -2.08835458755493164062e+00) (15, 2.83570170402526855469e-01) (16, -1.32362830638885498047e+00) (17, 1.40357792377471923828e+00) (18, -9.60414588451385498047e-01) (19, 1.63348579406738281250e+00) (0, 1.51350522041320800781e+00) (1, 7.14802885055541992188e+00) (2, -1.72926437854766845703e+00) (3, 6.82966709136962890625e-01) (4, -4.49303531646728515625e+00) (5, 2.22813987731933593750e+00) (6, 1.86856567859649658203e+00) (7, 1.50672852993011474609e+00) (8, 4.38982188701629638672e-01) (9, 2.04647517204284667969e+00) (10, 3.30187082290649414062e+00) (11, 4.18617677688598632812e+00) (12, 9.86764550209045410156e-01) (13, 1.10361022949218750000e+01) (14, -6.55735921859741210938e+00) (15, 1.80243539810180664062e+00) (16, 1.32101130485534667969e+00) (17, 1.52839660644531250000e+00) (18, 8.39220523834228515625e-01) (19, -6.75718307495117187500e-01) (20, 2.73189568519592285156e+00) (0, 3.62280726432800292969e+00) (1, 7.37752437591552734375e-01) (2, -1.38890743255615234375e+00) (3, -1.81555390357971191406e+00) (4, 2.96245026588439941406e+00) (5, 3.71079111099243164062e+00) (6, 2.48992729187011718750e+00) (7, -3.76789641380310058594e+00) (8, -6.59466862678527832031e-01) (9, 1.62979876995086669922e+00) (10, 6.38261258602142333984e-01) (11, 8.12182128429412841797e-01) (12, 1.44429051876068115234e+00) (13, 1.07929921150207519531e+00) (14, -1.27705154418945312500e+01) (15, 1.00917787551879882812e+01) (16, -5.55157899856567382812e-01) (17, 1.86174905300140380859e+00) (18, -2.15071725845336914062e+00) (19, -4.68711423873901367188e+00) (20, -8.11962634325027465820e-02) (21, 3.02889513969421386719e+00) (0, -5.91389274597167968750e+00) (1, 1.03147621154785156250e+01) (2, 1.00344009697437286377e-01) (3, -5.63518238067626953125e+00) (4, -9.28458595275878906250e+00) (5, 4.29002903401851654053e-02) (6, 1.18181591033935546875e+01) (7, 1.25738191604614257812e+00) (8, 1.68709588050842285156e+00) (9, 1.15051674842834472656e+00) (10, -2.25869584083557128906e+00) (11, 3.93072456121444702148e-01) (12, 1.59430003166198730469e+00) (13, 1.21636033058166503906e+00) (14, 1.41179466247558593750e+00) (15, -6.37217235565185546875e+00) (16, -1.71102356910705566406e+00) (17, 8.95379006862640380859e-01) (18, 2.42679405212402343750e+00) (19, -3.00531125068664550781e+00) (20, 8.18610548973083496094e-01) (21, -1.76593399047851562500e+00) (22, 2.86970877647399902344e+00) (0, 1.24097096920013427734e+00) (1, -2.54376840591430664062e+00) (2, 4.99493885040283203125e+00) (3, -2.12671852111816406250e+00) (4, -5.36423540115356445312e+00) (5, 2.11775422096252441406e+00) (6, 6.02985620498657226562e-01) (7, -2.28132152557373046875e+00) (8, 8.05064964294433593750e+00) (9, 1.38654670715332031250e+01) (10, 2.26491236686706542969e+00) (11, 1.93407118320465087891e+00) (12, 3.69103908538818359375e+00) (13, 3.47658967971801757812e+00) (14, 5.44406843185424804688e+00) (15, -1.55917596817016601562e+01) (16, 2.68324542045593261719e+00) (17, -2.91736292839050292969e+00) (18, 1.25718700885772705078e+00) (19, 3.65082526206970214844e+00) (20, 2.09272909164428710938e+00) (21, -1.06504178047180175781e+00) (22, 2.66080594062805175781e+00) (23, 1.83273470401763916016e+00) (0, 5.59967339038848876953e-01) (1, 1.25823438167572021484e+00) (2, -1.88094124197959899902e-01) (3, 1.13885855674743652344e+00) (4, -1.60324800014495849609e+00) (5, 1.79053723812103271484e-01) (6, 2.36319756507873535156e+00) (7, 3.27557158470153808594e+00) (8, 6.02363824844360351562e-01) (9, 8.99967253208160400391e-01) (10, -9.30759966373443603516e-01) (11, 1.47062706947326660156e+00) (12, 4.08964824676513671875e+00) (13, 6.56163275241851806641e-01) (14, 3.68368887901306152344e+00) (15, 2.34079432487487792969e+00) (16, -1.05605018138885498047e+00) (17, 9.39571201801300048828e-01) (18, -4.07633632421493530273e-01) (19, -2.93594837188720703125e-01) (20, 1.43534302711486816406e+00) (21, 3.20563745498657226562e+00) (22, 2.62471842765808105469e+00) (23, 2.90036231279373168945e-01) (24, 2.82986807823181152344e+00) (0, 4.47790116071701049805e-01) (1, 1.10629439353942871094e+00) (2, -5.47971773147583007812e+00) (3, 2.26024436950683593750e+00) (4, -1.26285767555236816406e+00) (5, 2.18690133094787597656e+00) (6, 4.30307817459106445312e+00) (7, 3.26700115203857421875e+00) (8, 1.32453429698944091797e+00) (9, 4.89835119247436523438e+00) (10, 1.71680665016174316406e+00) (11, -4.48870331048965454102e-01) (12, 1.99191236495971679688e+00) (13, 1.63288223743438720703e+00) (14, 1.94999265670776367188e+00) (15, -2.54207104444503784180e-01) (16, -6.97767078876495361328e-01) (17, 5.45275688171386718750e-01) (18, -4.46778178215026855469e-01) (19, 7.72078692913055419922e-01) (20, -5.70696532726287841797e-01) (21, -2.46822500228881835938e+00) (22, 9.71199095249176025391e-01) (23, 8.88951122760772705078e-01) (24, 2.77345490455627441406e+00) (25, 2.30118227005004882812e+00) (0, 2.63469481468200683594e+00) (1, 5.36494588851928710938e+00) (2, 3.36220383644104003906e+00) (3, 7.18248546123504638672e-01) (4, 7.33947157859802246094e-02) (5, 1.12249100208282470703e+00) (6, 1.52889204025268554688e+00) (7, -1.70325249433517456055e-01) (8, 1.12055587768554687500e+00) (9, 9.94374036788940429688e-01) (10, -4.85485106706619262695e-01) (11, 2.25031614303588867188e+00) (12, 7.60101556777954101562e-01) (13, -2.54075455665588378906e+00) (14, 9.07393574714660644531e-01) (15, 6.58262073993682861328e-01) (16, -2.57516145706176757812e-01) (17, 2.32779049873352050781e+00) (18, 3.06021809577941894531e+00) (19, 2.55366110801696777344e+00) (20, 2.58666157722473144531e+00) (21, 1.50093936920166015625e+00) (22, 1.33338406682014465332e-01) (23, -1.91078260540962219238e-02) (24, 2.97143721580505371094e+00) (25, 2.96008324623107910156e+00) (26, 2.48774862289428710938e+00) (0, 1.83372676372528076172e-01) (1, -3.10070419311523437500e+00) (2, -1.17178201675415039062e+00) (3, 1.00855851173400878906e+00) (4, -1.37354925274848937988e-01) (5, 3.57994699478149414062e+00) (6, 1.50765156745910644531e+00) (7, 2.49001097679138183594e+00) (8, 3.27102947235107421875e+00) (9, -1.79384398460388183594e+00) (10, 4.56646084785461425781e-01) (11, 6.84550106525421142578e-02) (12, 1.49734544754028320312e+00) (13, 2.96415448188781738281e+00) (14, 6.06657505035400390625e-01) (15, 1.63514360785484313965e-01) (16, -4.67822432518005371094e-01) (17, -1.01080858707427978516e+00) (18, 1.72392916679382324219e+00) (19, 1.29958617687225341797e+00) (20, 8.98027241230010986328e-01) (21, 4.30968612432479858398e-01) (22, 2.43132019042968750000e+00) (23, 1.17653989791870117188e+00) (24, 3.49596828222274780273e-01) (25, 2.11206007003784179688e+00) (26, 1.23394322395324707031e+00) (27, 5.45734465122222900391e-01) (0, -1.23180484771728515625e+00) (1, -2.00529336929321289062e+00) (2, -2.11642980575561523438e+00) (3, -7.54188394546508789062e+00) (4, 2.97619366645812988281e+00) (5, 4.99249792098999023438e+00) (6, 1.04109983444213867188e+01) (7, 1.09559488296508789062e+01) (8, 1.89703464508056640625e+00) (9, 1.48931086063385009766e+00) (10, -4.03015375137329101562e+00) (11, 3.03617477416992187500e+00) (12, -7.09197711944580078125e+00) (13, 5.38721263408660888672e-01) (14, 2.86317753791809082031e+00) (15, -1.52391982078552246094e+00) (16, -5.18732011318206787109e-01) (17, 2.68823671340942382812e+00) (18, -1.97860169410705566406e+00) (19, -1.66430354118347167969e-01) (20, 6.69768214225769042969e-01) (21, 1.44535529613494873047e+00) (22, -1.93127918243408203125e+00) (23, 5.42505562305450439453e-01) (24, 2.00582647323608398438e+00) (25, -9.12466347217559814453e-01) (26, 1.83468782901763916016e+00) (27, 1.40108597278594970703e+00) (28, 3.99212384223937988281e+00) (0, -5.65585076808929443359e-01) (1, 4.39498163759708404541e-02) (2, -7.82839953899383544922e-01) (3, 3.02858805656433105469e+00) (4, 1.72294282913208007812e+00) (5, 2.96126508712768554688e+00) (6, 3.61413431167602539062e+00) (7, -3.08407191187143325806e-02) (8, 2.51261925697326660156e+00) (9, 1.89553034305572509766e+00) (10, 3.64040166139602661133e-01) (11, 6.89108610153198242188e-01) (12, 3.72201561927795410156e+00) (13, 1.21124732494354248047e+00) (14, 2.31280326843261718750e+00) (15, -9.54300582408905029297e-01) (16, 8.57914328575134277344e-01) (17, 1.56129121780395507812e+00) (18, 2.69212532043457031250e+00) (19, 2.06336426734924316406e+00) (20, 1.29886424541473388672e+00) (21, 2.12828922271728515625e+00) (22, 2.93363761901855468750e+00) (23, 9.57654178142547607422e-01) (24, 4.61761564016342163086e-01) (25, 1.25757217407226562500e+00) (26, 1.67911338806152343750e+00) (27, 3.15264630317687988281e+00) (28, 1.48304700851440429688e+00) (29, 1.38779950141906738281e+00) (0, -5.46418714523315429688e+00) (1, 3.97005605697631835938e+00) (2, 7.42248669266700744629e-02) (3, 1.80461394786834716797e+00) (4, 8.48924064636230468750e+00) (5, 1.13649952411651611328e+00) (6, 4.24794018268585205078e-01) (7, -8.29234063625335693359e-01) (8, 2.82871270179748535156e+00) (9, 1.18592309951782226562e+00) (10, -2.43938589096069335938e+00) (11, -1.44393289089202880859e+00) (12, 2.65330553054809570312e+00) (13, 8.14716219902038574219e-02) (14, 5.79846799373626708984e-01) (15, 3.93443632125854492188e+00) (16, 1.73357725143432617188e+00) (17, 1.54397654533386230469e+00) (18, 4.49728876352310180664e-01) (19, 8.89289081096649169922e-01) (20, 2.94003105163574218750e+00) (21, 1.38985836505889892578e+00) (22, 9.78597462177276611328e-01) (23, 1.46595585346221923828e+00) (24, -6.72241747379302978516e-01) (25, -9.19428706169128417969e-01) (26, 4.96479690074920654297e-01) (27, 2.28462147712707519531e+00) (28, 2.66771507263183593750e+00) (29, 9.29049372673034667969e-01) (30, 4.18041419982910156250e+00) (0, -3.48237800598144531250e+00) (1, 3.16693806648254394531e+00) (2, 3.54642605781555175781e+00) (3, 9.94112968444824218750e-01) (4, -5.96647357940673828125e+00) (5, 9.49428617954254150391e-01) (6, 5.20265161991119384766e-01) (7, 2.87185335159301757812e+00) (8, 1.24131977558135986328e+00) (9, -3.15008163452148437500e-01) (10, 2.20027852058410644531e+00) (11, 1.19066953659057617188e+00) (12, 4.68983983993530273438e+00) (13, 9.07247304916381835938e-01) (14, 3.15235877037048339844e+00) (15, -2.08643436431884765625e+00) (16, -1.37796485424041748047e+00) (17, 2.52681523561477661133e-01) (18, -2.98249404877424240112e-02) (19, 9.87201094627380371094e-01) (20, 4.57426518201828002930e-01) (21, 2.03654193878173828125e+00) (22, 1.62140142917633056641e+00) (23, 9.93735015392303466797e-01) (24, 1.71645057201385498047e+00) (25, 6.84330224990844726562e-01) (26, -5.96368610858917236328e-01) (27, -3.99862200021743774414e-01) (28, 2.52410483360290527344e+00) (29, 1.90904903411865234375e+00) (30, 3.63691377639770507812e+00) (31, 1.86395978927612304688e+00) (0, 1.11925264354795217514e-03) (1, -4.73614223301410675049e-03) (2, -3.54868196882307529449e-03) (3, -5.19503653049468994141e-03) (4, 8.59146099537611007690e-03) (5, 3.58367664739489555359e-03) (6, -1.20603749528527259827e-02) (7, -8.65743402391672134399e-03) (8, -1.51498792693018913269e-02) (9, -1.37060834094882011414e-02) (10, 1.08689712360501289368e-02) (11, 4.38504386693239212036e-03) (12, 9.71100293099880218506e-03) (13, -6.27638353034853935242e-03) (14, -1.32822766900062561035e-02) (15, 1.71390944160521030426e-03) (16, 1.29146538674831390381e-02) (17, -9.48157161474227905273e-04) (18, 4.37440059613436460495e-04) (19, 8.93783639185130596161e-04) (20, 5.97374397329986095428e-04) (21, 4.53616899903863668442e-04) (22, 2.03111747396178543568e-04) (23, -9.55359195359051227570e-04) (24, 5.94237120822072029114e-04) (25, 2.32187248911941424012e-05) (26, -1.04940765595529228449e-04) (27, -2.46928277192637324333e-04) (28, -2.45088449446484446526e-04) (29, -1.65873178048059344292e-04) (30, -5.42404362931847572327e-04) (31, 6.69918954372406005859e-04) (32, 9.49290770222432911396e-05) (0, -6.43661804497241973877e-03) (1, -7.51850986853241920471e-03) (2, -2.81271636486053466797e-02) (3, -3.59294861555099487305e-02) (4, 3.13961952924728393555e-02) (5, 4.26649712026119232178e-02) (6, -4.82151694595813751221e-02) (7, -6.31284564733505249023e-02) (8, -8.49582254886627197266e-02) (9, -8.30539911985397338867e-02) (10, 5.24928756058216094971e-02) (11, -1.64599623531103134155e-02) (12, 4.44275289773941040039e-02) (13, -2.65542864799499511719e-02) (14, -6.29424527287483215332e-02) (15, 6.20288774371147155762e-02) (16, 7.12243095040321350098e-02) (17, -3.17661673761904239655e-03) (18, 2.42656539194285869598e-03) (19, 4.05570445582270622253e-03) (20, 2.30272766202688217163e-03) (21, 3.15241329371929168701e-03) (22, -5.76037098653614521027e-04) (23, -6.14935951307415962219e-03) (24, 4.39631938934326171875e-03) (25, -4.13640751503407955170e-04) (26, -9.76052309852093458176e-04) (27, -1.39590678736567497253e-03) (28, -1.66741665452718734741e-03) (29, -1.01176637690514326096e-03) (30, -1.90845411270856857300e-03) (31, 3.21543309837579727173e-03) (32, 2.00064247474074363708e-03) (0, -5.42961508035659790039e-02) (1, -1.73788771033287048340e-01) (2, -1.29828751087188720703e-01) (3, 6.82142555713653564453e-01) (4, 2.97260910272598266602e-01) (5, -2.50563383102416992188e-01) (6, 2.20278888940811157227e-01) (7, 2.80760169029235839844e-01) (8, 2.01472058892250061035e-01) (9, -4.80032742023468017578e-01) (10, 5.54495334625244140625e-01) (11, -1.18376024067401885986e-01) (12, -2.55178898572921752930e-01) (13, 3.24610501527786254883e-01) (14, -3.20068120956420898438e-01) (15, -1.09699077904224395752e-01) (16, -1.43693000078201293945e-01) (17, 2.14075166732072830200e-02) (18, -3.32938358187675476074e-02) (19, -7.31513649225234985352e-02) (20, 4.75833639502525329590e-02) (21, -3.50602418184280395508e-02) (22, -2.19104364514350891113e-02) (23, 7.96166658401489257812e-02) (24, -8.69764685630798339844e-02) (25, -4.65811826288700103760e-02) (26, 3.51036451756954193115e-02) (27, -7.72389546036720275879e-02) (28, -5.97012564539909362793e-02) (29, 5.15363886952400207520e-02) (30, -9.74032878875732421875e-02) (31, 4.15148548781871795654e-02) (32, -5.82838691771030426025e-02) (0, 4.85328704118728637695e-01) (1, -4.22330379486083984375e-01) (2, -6.83007761836051940918e-02) (3, -5.13827502727508544922e-01) (4, 7.61951923370361328125e-01) (5, 6.55518993735313415527e-02) (6, 4.31246608495712280273e-01) (7, 7.75644974783062934875e-03) (8, -2.41633709520101547241e-02) (9, -3.83919924497604370117e-01) (10, -2.81511217355728149414e-01) (11, 1.34075671434402465820e-01) (12, 1.21427565813064575195e-01) (13, -3.18641155958175659180e-01) (14, -1.81953459978103637695e-02) (15, 1.76436007022857666016e-01) (16, 1.19372988119721412659e-02) (17, 4.00491580367088317871e-02) (18, 9.35336202383041381836e-03) (19, 2.89928488200530409813e-04) (20, 4.01836037635803222656e-02) (21, 1.10791027545928955078e-02) (22, 5.09058162569999694824e-02) (23, 6.66218847036361694336e-02) (24, 4.56418879330158233643e-02) (25, -4.76396121084690093994e-02) (26, 4.23033572733402252197e-02) (27, -2.56653651595115661621e-02) (28, 4.85306978225708007812e-02) (29, 3.27650755643844604492e-02) (30, 5.60916215181350708008e-03) (31, 5.86730726063251495361e-02) (32, 7.00832009315490722656e-02) (0, -3.12056034803390502930e-01) (1, -1.37331619858741760254e-01) (2, -5.43436147272586822510e-02) (3, 4.04471039772033691406e-01) (4, 2.85928487777709960938e-01) (5, -2.02545866370201110840e-01) (6, 2.28831097483634948730e-01) (7, 1.07846222817897796631e-01) (8, 3.10294955968856811523e-01) (9, -3.19630146026611328125e-01) (10, -5.14235794544219970703e-01) (11, 2.96357750892639160156e-01) (12, 3.77823978662490844727e-01) (13, -1.95450216531753540039e-01) (14, -9.38086137175559997559e-02) (15, 3.60521376132965087891e-02) (16, -5.23328259587287902832e-02) (17, 1.14931762218475341797e-02) (18, 1.71144064515829086304e-02) (19, -1.21823996305465698242e-02) (20, 2.70122960209846496582e-02) (21, -2.07463512197136878967e-03) (22, 2.20359247177839279175e-02) (23, 6.68166950345039367676e-02) (24, 3.59047316014766693115e-02) (25, -5.96450902521610260010e-02) (26, 4.84477989375591278076e-02) (27, -1.12701365724205970764e-02) (28, 8.97441506385803222656e-02) (29, 6.93582817912101745605e-02) (30, -8.97144302725791931152e-02) (31, -8.39362293481826782227e-02) (32, -6.02548122406005859375e-02) (0, -3.69422316551208496094e-01) (1, -7.72851526737213134766e-01) (2, 1.78937196731567382812e+00) (3, -2.28925451636314392090e-01) (4, 6.52887046337127685547e-01) (5, -1.29760169982910156250e+00) (6, -4.91218775510787963867e-01) (7, -7.64859974384307861328e-01) (8, 2.50742912292480468750e-01) (9, -4.91531848907470703125e-01) (10, 1.32302120327949523926e-01) (11, 5.73831386864185333252e-02) (12, -9.75867152214050292969e-01) (13, -3.04690629243850708008e-01) (14, 1.05851151049137115479e-01) (15, -2.35151335597038269043e-01) (16, 1.09297311305999755859e+00) (17, -1.70678254216909408569e-02) (18, -5.65380193293094635010e-02) (19, -1.90924972295761108398e-01) (20, 9.57217887043952941895e-02) (21, 3.00631999969482421875e-01) (22, -5.81657886505126953125e-02) (23, -5.14117181301116943359e-02) (24, -3.79263937473297119141e-01) (25, -4.00635153055191040039e-01) (26, -4.27596122026443481445e-01) (27, -5.73039017617702484131e-02) (28, 8.83994922041893005371e-02) (29, -1.48212075233459472656e-01) (30, -9.93971973657608032227e-02) (31, -1.12112432718276977539e-01) (32, 6.43126294016838073730e-02) (0, 1.48925793170928955078e+00) (1, -3.82927030324935913086e-01) (2, -4.23170864582061767578e-01) (3, 6.51138603687286376953e-01) (4, -9.46985661983489990234e-01) (5, 1.30908823013305664062e+00) (6, 1.20270334184169769287e-01) (7, 4.28636372089385986328e-01) (8, -5.09074330329895019531e-01) (9, -1.13074457645416259766e+00) (10, -3.30025053024291992188e+00) (11, -4.09837901592254638672e-01) (12, -1.07885396480560302734e+00) (13, 1.79443717002868652344e+00) (14, 5.42026996612548828125e-01) (15, 1.85809040069580078125e+00) (16, 4.01533812284469604492e-01) (17, 3.64784598350524902344e-01) (18, -4.89681005477905273438e-01) (19, -4.57995831966400146484e-01) (20, 1.52918010950088500977e-01) (21, 3.89139652252197265625e-01) (22, -5.98976314067840576172e-01) (23, -1.34983465075492858887e-01) (24, 6.66300535202026367188e-01) (25, 5.25980353355407714844e-01) (26, -2.25890323519706726074e-01) (27, -6.51788711547851562500e-02) (28, -2.45596587657928466797e-01) (29, 2.21902057528495788574e-01) (30, 2.17722088098526000977e-01) (31, -7.12558403611183166504e-02) (32, -7.70177766680717468262e-02) (0, -9.18254777789115905762e-02) (1, -4.19189147651195526123e-02) (2, 1.65615200996398925781e+00) (3, 6.92062795162200927734e-01) (4, -5.15073299407958984375e-01) (5, -6.12107813358306884766e-01) (6, 1.98756784200668334961e-01) (7, 4.98679488897323608398e-01) (8, -6.41377747058868408203e-01) (9, 1.50324308872222900391e+00) (10, -3.02062213420867919922e-01) (11, 6.72497868537902832031e-01) (12, 3.65274474024772644043e-02) (13, -1.20816242694854736328e+00) (14, -1.16890776157379150391e+00) (15, 5.70598304271697998047e-01) (16, 3.02326560020446777344e-01) (17, 8.86427402496337890625e-01) (18, -4.84129130840301513672e-01) (19, 1.02532720565795898438e+00) (20, -1.20558249950408935547e+00) (21, 1.24015256762504577637e-01) (22, 2.18418329954147338867e-01) (23, 5.63325844705104827881e-02) (24, 2.16883979737758636475e-02) (25, -1.31370589137077331543e-01) (26, -3.98987233638763427734e-02) (27, -1.36760044842958450317e-02) (28, -2.48477920889854431152e-01) (29, -2.16062650084495544434e-01) (30, 1.40109702944755554199e-01) (31, 1.44633293151855468750e-01) (32, -1.62316381931304931641e-01) (0, 9.35078203678131103516e-01) (1, 1.66528248786926269531e+00) (2, -1.89214575290679931641e+00) (3, -1.32898613810539245605e-01) (4, -3.30406904220581054688e-01) (5, 6.56762957572937011719e-01) (6, -4.94519948959350585938e+00) (7, 1.37897872924804687500e+00) (8, -1.60181391239166259766e+00) (9, 2.07905197143554687500e+00) (10, 2.95626878738403320312e+00) (11, -1.55078232288360595703e+00) (12, -2.50246822834014892578e-01) (13, 1.79700985550880432129e-01) (14, 1.50931096076965332031e+00) (15, -2.09692454338073730469e+00) (16, 1.90670549869537353516e+00) (17, -1.25374186038970947266e+00) (18, 1.26015901565551757812e+00) (19, 6.79134666919708251953e-01) (20, -6.75296634435653686523e-02) (21, -8.62004458904266357422e-01) (22, -9.61396694183349609375e-01) (23, 4.19552773237228393555e-01) (24, -8.26353281736373901367e-02) (25, -8.16876664757728576660e-02) (26, -2.72499620914459228516e-01) (27, 1.45244821906089782715e-01) (28, 2.51670956611633300781e-01) (29, 6.13378956913948059082e-02) (30, 3.55695277452468872070e-01) (31, 1.84740200638771057129e-01) (32, 8.10572062619030475616e-04) (0, -8.89340102672576904297e-01) (1, 2.29134082794189453125e+00) (2, -3.00116389989852905273e-01) (3, -1.77854621410369873047e+00) (4, -2.50453782081604003906e+00) (5, 3.18564534187316894531e-01) (6, 3.44419836997985839844e+00) (7, 1.70851990580558776855e-01) (8, 2.92906314134597778320e-01) (9, -2.31534332036972045898e-01) (10, -1.20728552341461181641e+00) (11, 3.16637068986892700195e-01) (12, 7.69654631614685058594e-01) (13, 3.73860657215118408203e-01) (14, 2.52016901969909667969e-01) (15, -1.31474506855010986328e+00) (16, 5.43203711509704589844e-01) (17, 2.24856555461883544922e-01) (18, 6.20323240756988525391e-01) (19, -6.86818242073059082031e-01) (20, 1.85746178030967712402e-01) (21, -4.14925456047058105469e-01) (22, 6.89313173294067382812e-01) (23, -8.80688667297363281250e-01) (24, -3.97059507668018341064e-02) (25, -5.27717955410480499268e-02) (26, -6.89987465739250183105e-02) (27, 1.11500024795532226562e-01) (28, -8.68733376264572143555e-02) (29, 1.19012914597988128662e-01) (30, -9.14576128125190734863e-02) (31, 2.92875543236732482910e-02) (32, 1.00419044494628906250e-01) (0, -3.28476250171661376953e-01) (1, -3.09901028871536254883e-01) (2, -7.04795897006988525391e-01) (3, -3.58796775341033935547e-01) (4, 1.16374984383583068848e-01) (5, 2.11139962077140808105e-01) (6, 2.64811635017395019531e-01) (7, -8.44658911228179931641e-01) (8, 1.11043713986873626709e-01) (9, 4.60159808397293090820e-01) (10, 5.27126431465148925781e-01) (11, 3.83669704198837280273e-01) (12, 1.92820715904235839844e+00) (13, -1.35784518718719482422e+00) (14, 4.91845607757568359375e-01) (15, 7.66093432903289794922e-01) (16, -3.83973538875579833984e-01) (17, -2.65012323856353759766e-01) (18, -1.23631075024604797363e-01) (19, -1.19558371603488922119e-01) (20, 1.10677838325500488281e-01) (21, 2.70023912191390991211e-01) (22, 1.57403007149696350098e-01) (23, 3.09302449226379394531e-01) (24, -3.20008844137191772461e-01) (25, 3.13529580831527709961e-01) (26, 3.21735799312591552734e-01) (27, 4.23833280801773071289e-01) (28, -1.77873536944389343262e-01) (29, -1.38466462492942810059e-01) (30, 2.23295018076896667480e-02) (31, 1.06400072574615478516e-01) (32, 1.79888769984245300293e-01) (0, -4.84353154897689819336e-01) (1, -8.46510007977485656738e-02) (2, 3.90602052211761474609e-02) (3, 1.95441544055938720703e-01) (4, -1.25816822052001953125e-01) (5, 1.89458187669515609741e-02) (6, -5.44383265078067779541e-02) (7, -1.42691865563392639160e-01) (8, 5.18165826797485351562e-01) (9, 6.70764446258544921875e-01) (10, 8.96692454814910888672e-01) (11, -2.48285099864006042480e-01) (12, -4.56441015005111694336e-01) (13, 4.11511600017547607422e-01) (14, -5.55580072104930877686e-02) (15, -3.45506995916366577148e-01) (16, -2.51459360122680664062e-01) (17, -5.40621019899845123291e-02) (18, -1.38290300965309143066e-01) (19, 2.38070525228977203369e-02) (20, 1.03059738874435424805e-01) (21, -6.05442859232425689697e-02) (22, 2.26572483777999877930e-01) (23, -7.89673905819654464722e-03) (24, 6.84543848037719726562e-02) (25, 7.48888403177261352539e-02) (26, 1.97346284985542297363e-01) (27, -2.51796513795852661133e-01) (28, 2.10587695240974426270e-01) (29, -1.49005219340324401855e-01) (30, 9.80695262551307678223e-02) (31, -2.20389500260353088379e-01) (32, -7.35892355442047119141e-02) (0, -5.97503688186407089233e-03) (1, 6.05298765003681182861e-03) (2, 3.34476283751428127289e-03) (3, 1.34605932980775833130e-02) (4, -1.12356143072247505188e-02) (5, -1.35869607329368591309e-02) (6, -6.67301611974835395813e-03) (7, -2.47491669142618775368e-04) (8, -1.22180739417672157288e-02) (9, -1.45417675375938415527e-02) (10, -7.97109771519899368286e-03) (11, -9.29025933146476745605e-03) (12, 4.03933320194482803345e-03) (13, -4.43740002810955047607e-03) (14, 2.73077972233295440674e-02) (15, -2.37104203552007675171e-02) (16, 1.76286771893501281738e-02) (17, 2.38335371250286698341e-04) (18, -4.15683061874005943537e-05) (19, 6.71528759994544088840e-05) (20, -5.21743320859968662262e-04) (21, 4.84455173136666417122e-04) (22, 6.10704941209405660629e-04) (23, -3.75127303414046764374e-04) (24, -2.15010528336279094219e-04) (25, 6.08892551099415868521e-05) (26, -1.45773403346538543701e-03) (27, -8.46061855554580688477e-04) (28, -1.88063291716389358044e-04) (29, -5.81996748223900794983e-04) (30, 8.79334169439971446991e-04) (31, 1.75639012013562023640e-04) (32, -3.65836749551817774773e-04) (0, 1.19898864068090915680e-03) (1, 3.86527809314429759979e-03) (2, 3.33528593182563781738e-03) (3, 7.45736807584762573242e-03) (4, -5.35048684105277061462e-03) (5, -5.29560772702097892761e-03) (6, 1.26793365925550460815e-02) (7, 1.45712252706289291382e-02) (8, 1.74124632030725479126e-02) (9, 1.27431182190775871277e-02) (10, -1.48369995877146720886e-02) (11, 6.03198888711631298065e-04) (12, -1.22358091175556182861e-02) (13, 1.36883473023772239685e-02) (14, 1.31582897156476974487e-02) (15, -4.76828124374151229858e-03) (16, -1.75891891121864318848e-02) (17, 1.14597810897976160049e-03) (18, -6.65192026644945144653e-04) (19, -9.19665209949016571045e-04) (20, -4.37571841757744550705e-04) (21, -7.37174588721245527267e-04) (22, 1.81156676262617111206e-04) (23, 1.50751601904630661011e-03) (24, -7.17500923201441764832e-04) (25, 2.94885103357955813408e-06) (26, 3.48913017660379409790e-04) (27, 3.20910767186433076859e-04) (28, 1.75602515810169279575e-04) (29, 4.59760543890297412872e-04) (30, 3.45031527103856205940e-04) (31, -8.12711194157600402832e-04) (32, -1.63023069035261869431e-04) (0, -1.87484815251082181931e-03) (1, 9.89727050182409584522e-05) (2, -2.59388005360960960388e-03) (3, 1.69960898347198963165e-03) (4, -7.73031846620142459869e-04) (5, 2.45088129304349422455e-04) (6, 2.13534594513475894928e-03) (7, -6.20044395327568054199e-03) (8, -5.46241225674748420715e-03) (9, -9.93332266807556152344e-03) (10, -7.93591514229774475098e-03) (11, 2.50925589352846145630e-03) (12, 3.86772351339459419250e-03) (13, -2.93389265425503253937e-03) (14, 1.53358560055494308472e-03) (15, 9.45075880736112594604e-04) (16, 7.46270734816789627075e-03) (17, 1.14958857011515647173e-04) (18, 8.00922571215778589249e-05) (19, 2.14344239793717861176e-04) (20, -3.01022664643824100494e-04) (21, 3.71029527741484344006e-05) (22, 1.47907849168404936790e-04) (23, -1.29035906866192817688e-04) (24, 3.58163437340408563614e-04) (25, -2.93527642497792840004e-04) (26, -3.60113976057618856430e-04) (27, -3.43862629961222410202e-04) (28, 7.80709597165696322918e-05) (29, -4.63189608126413077116e-05) (30, 8.16197643871419131756e-05) (31, 1.23599093058146536350e-04) (32, 1.58697759616188704967e-04) (0, -2.30971584096550941467e-03) (1, 4.15204055607318878174e-02) (2, 3.38270887732505798340e-02) (3, 2.61523164808750152588e-02) (4, -6.37053027749061584473e-02) (5, -2.53770425915718078613e-02) (6, 7.92382061481475830078e-02) (7, 6.32320269942283630371e-02) (8, 8.96156802773475646973e-02) (9, 7.84074664115905761719e-02) (10, -9.23748537898063659668e-02) (11, -1.60060543566942214966e-02) (12, -8.07460770010948181152e-02) (13, 8.40222686529159545898e-02) (14, 7.41287022829055786133e-02) (15, -2.91328914463520050049e-02) (16, -7.86579027771949768066e-02) (17, 8.44565685838460922241e-03) (18, -2.97038117423653602600e-03) (19, -5.55484788492321968079e-03) (20, -1.64413650054484605789e-03) (21, -2.52624042332172393799e-03) (22, -1.36996898800134658813e-03) (23, 7.24046071991324424744e-03) (24, -3.99081595242023468018e-03) (25, -2.25682932068593800068e-04) (26, 7.53071915823966264725e-04) (27, 1.33094401098787784576e-03) (28, 1.49204873014241456985e-03) (29, 1.66860735043883323669e-03) (30, 2.66324286349117755890e-03) (31, -4.18162345886230468750e-03) (32, -1.12580438144505023956e-03) 
