FANN_FLO_2.1
num_layers=18
learning_rate=0.700000
connection_rate=1.000000
network_type=1
learning_momentum=0.000000
training_algorithm=2
train_error_function=0
train_stop_function=0
cascade_output_change_fraction=0.010000
quickprop_decay=-0.000100
quickprop_mu=1.750000
rprop_increase_factor=1.200000
rprop_decrease_factor=0.500000
rprop_delta_min=0.000000
rprop_delta_max=50.000000
rprop_delta_zero=0.100000
cascade_output_stagnation_epochs=12
cascade_candidate_change_fraction=0.010000
cascade_candidate_stagnation_epochs=12
cascade_max_out_epochs=150
cascade_max_cand_epochs=150
cascade_num_candidate_groups=2
bit_fail_limit=3.49999994039535522461e-01
cascade_candidate_limit=1.00000000000000000000e+03
cascade_weight_multiplier=4.00000005960464477539e-01
cascade_activation_functions_count=10
cascade_activation_functions=3 5 7 8 10 11 14 15 16 17 
cascade_activation_steepnesses_count=4
cascade_activation_steepnesses=2.50000000000000000000e-01 5.00000000000000000000e-01 7.50000000000000000000e-01 1.00000000000000000000e+00 
layer_sizes=17 1 1 1 1 1 1 1 1 1 1 1 1 1 1 1 1 16 
scale_included=0
neurons (num_inputs, activation_function, activation_steepness)=(0, 0, 0.00000000000000000000e+00) (0, 0, 0.00000000000000000000e+00) (0, 0, 0.00000000000000000000e+00) (0, 0, 0.00000000000000000000e+00) (0, 0, 0.00000000000000000000e+00) (0, 0, 0.00000000000000000000e+00) (0, 0, 0.00000000000000000000e+00) (0, 0, 0.00000000000000000000e+00) (0, 0, 0.00000000000000000000e+00) (0, 0, 0.00000000000000000000e+00) (0, 0, 0.00000000000000000000e+00) (0, 0, 0.00000000000000000000e+00) (0, 0, 0.00000000000000000000e+00) (0, 0, 0.00000000000000000000e+00) (0, 0, 0.00000000000000000000e+00) (0, 0, 0.00000000000000000000e+00) (0, 0, 0.00000000000000000000e+00) (17, 14, 1.00000000000000000000e+00) (18, 14, 1.00000000000000000000e+00) (19, 15, 1.00000000000000000000e+00) (20, 14, 5.00000000000000000000e-01) (21, 14, 5.00000000000000000000e-01) (22, 14, 1.00000000000000000000e+00) (23, 14, 7.50000000000000000000e-01) (24, 15, 5.00000000000000000000e-01) (25, 15, 2.50000000000000000000e-01) (26, 14, 5.00000000000000000000e-01) (27, 8, 1.00000000000000000000e+00) (28, 14, 2.50000000000000000000e-01) (29, 14, 2.50000000000000000000e-01) (30, 3, 5.00000000000000000000e-01) (31, 14, 2.50000000000000000000e-01) (32, 15, 5.00000000000000000000e-01) (33, 5, 5.00000000000000000000e-01) (33, 5, 5.00000000000000000000e-01) (33, 5, 5.00000000000000000000e-01) (33, 5, 5.00000000000000000000e-01) (33, 5, 5.00000000000000000000e-01) (33, 5, 5.00000000000000000000e-01) (33, 5, 5.00000000000000000000e-01) (33, 5, 5.00000000000000000000e-01) (33, 5, 5.00000000000000000000e-01) (33, 5, 5.00000000000000000000e-01) (33, 5, 5.00000000000000000000e-01) (33, 5, 5.00000000000000000000e-01) (33, 5, 5.00000000000000000000e-01) (33, 5, 5.00000000000000000000e-01) (33, 5, 5.00000000000000000000e-01) (33, 5, 5.00000000000000000000e-01) 
connections (connected_to_neuron, weight)=(0, -7.88416004180908203125e+00) (1, -4.07709264755249023438e+00) (2, 2.04819393157958984375e+00) (3, 1.49836921691894531250e+01) (4, 1.74150121212005615234e+00) (5, -5.36264657974243164062e+00) (6, 1.32464796304702758789e-01) (7, 1.49431288242340087891e-01) (8, 6.11601993441581726074e-02) (9, 9.64586734771728515625e-01) (10, 4.85124444961547851562e+00) (11, 9.82802391052246093750e-01) (12, 1.21526968479156494141e+00) (13, -2.10309863090515136719e-01) (14, 3.14477300643920898438e+00) (15, 1.96914899349212646484e+00) (16, -1.08506584167480468750e+00) (0, -1.62350785732269287109e+00) (1, 4.78054428100585937500e+00) (2, 1.85650336742401123047e+00) (3, 5.51870644092559814453e-01) (4, -3.37215256690979003906e+00) (5, 2.36646556854248046875e+00) (6, 3.13938641548156738281e+00) (7, -7.24629759788513183594e-01) (8, 1.94129085540771484375e+00) (9, 5.49344491958618164062e+00) (10, -1.79951119422912597656e+00) (11, -4.69294071197509765625e+00) (12, 1.26192009449005126953e+00) (13, 2.86875319480895996094e+00) (14, -4.97049999237060546875e+00) (15, 4.86531209945678710938e+00) (16, 1.37067997455596923828e+00) (17, 1.76813662052154541016e+00) (0, -1.38404572010040283203e+00) (1, 1.88735008239746093750e+00) (2, 2.24790841341018676758e-01) (3, -2.40258002281188964844e+00) (4, 3.85413551330566406250e+00) (5, 1.39194536209106445312e+00) (6, 3.24831962585449218750e+00) (7, 6.24642944335937500000e+00) (8, 4.09936332702636718750e+00) (9, 1.60970306396484375000e+00) (10, 2.55932879447937011719e+00) (11, -8.92278492450714111328e-01) (12, 6.82670176029205322266e-01) (13, 3.76384019851684570312e+00) (14, 7.60197222232818603516e-01) (15, -3.55135989189147949219e+00) (16, 1.46713411808013916016e+00) (17, 1.58488106727600097656e+00) (18, 2.66605544090270996094e+00) (0, 1.27331697940826416016e+00) (1, -2.44217758178710937500e+01) (2, 4.85125446319580078125e+00) (3, -1.20982360839843750000e+00) (4, 2.70477843284606933594e+00) (5, 9.05881118774414062500e+00) (6, 1.91965079307556152344e+00) (7, 9.18125438690185546875e+00) (8, 6.23549270629882812500e+00) (9, 1.53907613754272460938e+01) (10, -1.88681495189666748047e+00) (11, -4.36288785934448242188e+00) (12, 7.63401746749877929688e+00) (13, 1.98963654041290283203e+00) (14, 2.09190344810485839844e+00) (15, -7.61222553253173828125e+00) (16, -1.32564187049865722656e+00) (17, -1.16324496269226074219e+00) (18, -3.93831968307495117188e-01) (19, 7.68132448196411132812e+00) (0, -5.20334839820861816406e-01) (1, -1.07349097728729248047e+00) (2, -2.01231861114501953125e+00) (3, 9.55571842193603515625e+00) (4, 9.58264291286468505859e-01) (5, 5.50283575057983398438e+00) (6, 1.02976489067077636719e+00) (7, 1.33762478828430175781e+00) (8, 4.66642558574676513672e-01) (9, 1.33127689361572265625e+00) (10, -5.02707433700561523438e+00) (11, -4.11069297790527343750e+00) (12, 5.63316917419433593750e+00) (13, 3.72927904129028320312e-01) (14, -2.41477584838867187500e+00) (15, 7.58759737014770507812e+00) (16, 5.58806800842285156250e+00) (17, 3.43884897232055664062e+00) (18, -4.13706207275390625000e+00) (19, 2.35887908935546875000e+00) (20, -2.02567085623741149902e-01) (0, 1.09786379337310791016e+00) (1, 7.09145903587341308594e-01) (2, 3.87064671516418457031e+00) (3, 2.73289370536804199219e+00) (4, 5.59711456298828125000e-01) (5, 4.52732920646667480469e-01) (6, 2.79492664337158203125e+00) (7, 7.90132880210876464844e-01) (8, -3.02985692024230957031e+00) (9, -5.20219516754150390625e+00) (10, -1.93314445018768310547e+00) (11, 5.30000591278076171875e+00) (12, -5.26363909244537353516e-01) (13, 1.31076025962829589844e+00) (14, 3.09810447692871093750e+00) (15, 2.16607856750488281250e+00) (16, 7.85641670227050781250e-01) (17, 3.65381860733032226562e+00) (18, 1.21958220005035400391e+00) (19, 1.24273642897605895996e-01) (20, 3.06958937644958496094e+00) (21, 1.49574771523475646973e-01) (0, -3.50803673267364501953e-01) (1, 3.95927953720092773438e+00) (2, 4.44243860244750976562e+00) (3, -4.53799295425415039062e+00) (4, 1.34624063968658447266e+00) (5, -2.35109150409698486328e-01) (6, 1.45669233798980712891e+00) (7, 3.17393660545349121094e-01) (8, 5.49741649627685546875e+00) (9, -3.39707314968109130859e-01) (10, -5.35349309444427490234e-01) (11, 2.28908136487007141113e-01) (12, 2.79802107810974121094e+00) (13, -2.19791102409362792969e+00) (14, -3.24603207409381866455e-02) (15, 1.36305999755859375000e+00) (16, -8.54392707347869873047e-01) (17, -1.14508318901062011719e+00) (18, 2.65594863891601562500e+00) (19, -2.13616728782653808594e+00) (20, 9.93027031421661376953e-01) (21, -2.24715564399957656860e-03) (22, 3.22032380104064941406e+00) (0, 3.71797275543212890625e+00) (1, 3.08165884017944335938e+00) (2, 1.51106572151184082031e+00) (3, 2.73712110519409179688e+00) (4, -1.14342813491821289062e+01) (5, 1.12537431716918945312e+00) (6, 1.22446656227111816406e+00) (7, 1.52976679801940917969e+00) (8, 1.45860314369201660156e-01) (9, 6.65916860103607177734e-01) (10, 5.45350313186645507812e+00) (11, -1.90683081746101379395e-01) (12, -9.94827877730131149292e-03) (13, -1.87619715929031372070e-01) (14, -1.77883160114288330078e+00) (15, -1.32443106174468994141e+00) (16, 3.22886323928833007812e+00) (17, 2.94288158416748046875e+00) (18, 1.96580338478088378906e+00) (19, 1.56697225570678710938e+00) (20, 4.56924915313720703125e+00) (21, 3.58925521373748779297e-01) (22, 2.00759625434875488281e+00) (23, 1.55580615997314453125e+00) (0, 4.91202735900878906250e+00) (1, -5.32705402374267578125e+00) (2, 1.92606601715087890625e+01) (3, -6.07694959640502929688e+00) (4, 6.73213005065917968750e-01) (5, -3.31523823738098144531e+00) (6, 2.00237298011779785156e+00) (7, 1.98455348610877990723e-01) (8, 2.03934001922607421875e+00) (9, 1.57568874359130859375e+01) (10, 3.61390781402587890625e+00) (11, -7.82868957519531250000e+00) (12, 4.33899688720703125000e+00) (13, -1.92845594882965087891e+00) (14, -1.75294532775878906250e+01) (15, 8.22121238708496093750e+00) (16, 5.83807229995727539062e+00) (17, -3.81282496452331542969e+00) (18, -5.62981796264648437500e+00) (19, 2.93825888633728027344e+00) (20, -5.05810165405273437500e+00) (21, 2.69073128700256347656e-01) (22, 1.07269644737243652344e+00) (23, 3.14664244651794433594e+00) (24, -6.18775463104248046875e+00) (0, 2.02722191810607910156e-01) (1, 1.49740064144134521484e+00) (2, 5.87907743453979492188e+00) (3, 2.59197211265563964844e+00) (4, 6.09864056110382080078e-01) (5, 2.98745244741439819336e-01) (6, 8.04883193969726562500e+00) (7, 3.04029893875122070312e+00) (8, -1.92159485816955566406e+00) (9, 1.92463004589080810547e+00) (10, 1.95502209663391113281e+00) (11, -3.60722136497497558594e+00) (12, 3.87128859758377075195e-01) (13, -1.32707643508911132812e+00) (14, -5.36448240280151367188e+00) (15, 4.70070838928222656250e+00) (16, -1.81181883811950683594e+00) (17, -3.97311151027679443359e-01) (18, -1.88573825359344482422e+00) (19, 2.69587922096252441406e+00) (20, 1.63256108760833740234e+00) (21, 9.67065036296844482422e-01) (22, 1.69554042816162109375e+00) (23, 3.58028411865234375000e+00) (24, -1.41038358211517333984e+00) (25, 1.13507795333862304688e+00) (0, 1.18979811668395996094e+00) (1, -4.66376841068267822266e-01) (2, 3.74570131301879882812e-01) (3, 6.23700261116027832031e-01) (4, -1.03009879589080810547e+00) (5, 2.52913594245910644531e+00) (6, 6.21163368225097656250e-01) (7, -6.79287552833557128906e-01) (8, 1.04923057556152343750e+00) (9, 1.42642199993133544922e+00) (10, -2.74491578340530395508e-01) (11, -7.47494101524353027344e-02) (12, -7.54697263240814208984e-01) (13, -8.05169939994812011719e-01) (14, 2.37774282693862915039e-01) (15, 1.51238024234771728516e-01) (16, -1.50026679039001464844e+00) (17, 1.32742956280708312988e-01) (18, -4.38565045595169067383e-01) (19, 5.05183279514312744141e-01) (20, 7.61963725090026855469e-01) (21, -1.17931701242923736572e-01) (22, 5.68784296512603759766e-01) (23, -9.33149039745330810547e-01) (24, 3.36672753095626831055e-01) (25, 1.51625311374664306641e+00) (26, 9.45517838001251220703e-01) (0, -4.43544864654541015625e+00) (1, -2.20963883399963378906e+00) (2, 1.72063314914703369141e+00) (3, -2.98780888319015502930e-01) (4, 2.91192841529846191406e+00) (5, 5.73889160156250000000e+00) (6, 5.26444435119628906250e+00) (7, 7.45972454547882080078e-01) (8, 1.14890098571777343750e+00) (9, 2.10378742218017578125e+00) (10, 1.57447636127471923828e-01) (11, 1.76752722263336181641e+00) (12, -8.86703300476074218750e+00) (13, -6.39518141746520996094e-01) (14, -2.77416253089904785156e+00) (15, 1.25457315444946289062e+01) (16, -1.01377209648489952087e-02) (17, 4.12669658660888671875e+00) (18, -3.13985252380371093750e+00) (19, 9.30296707153320312500e+00) (20, -7.18577444553375244141e-01) (21, -1.90180814266204833984e+00) (22, 2.41132855415344238281e-01) (23, 2.74378705024719238281e+00) (24, -3.89583301544189453125e+00) (25, -4.65237331390380859375e+00) (26, -4.55164194107055664062e+00) (27, 3.66742648184299468994e-02) (0, 4.74747806787490844727e-01) (1, 1.13812408447265625000e+01) (2, 1.56552886962890625000e+00) (3, 1.02831006050109863281e+00) (4, -1.34900321960449218750e+01) (5, -8.12846004962921142578e-01) (6, -3.43347477912902832031e+00) (7, 8.46271514892578125000e-01) (8, -2.85967350006103515625e-01) (9, -1.81557029485702514648e-01) (10, 1.15823249816894531250e+01) (11, 2.47045783996582031250e+01) (12, 9.05407786369323730469e-01) (13, -1.42537393569946289062e+01) (14, -7.24836587905883789062e+00) (15, -1.04992132186889648438e+01) (16, 1.66190552711486816406e+00) (17, 3.74201703071594238281e+00) (18, 6.10745286941528320312e+00) (19, 3.04407763481140136719e+00) (20, 4.85589075088500976562e+00) (21, 6.41269969940185546875e+00) (22, 6.43563127517700195312e+00) (23, -9.44835126399993896484e-01) (24, 3.08786296844482421875e+00) (25, 2.43521356582641601562e+00) (26, -2.46348786354064941406e+00) (27, 2.88183093070983886719e+00) (28, -2.62266099452972412109e-01) (0, -8.15129852294921875000e+00) (1, -3.03820204734802246094e+00) (2, -3.79699158668518066406e+00) (3, -2.51424574851989746094e+00) (4, -2.93348383903503417969e+00) (5, -2.83862209320068359375e+00) (6, -1.62921047210693359375e+00) (7, -1.42564654350280761719e+00) (8, -2.49819898605346679688e+00) (9, -2.56228089332580566406e+00) (10, -2.88949847221374511719e+00) (11, -9.87634599208831787109e-01) (12, -1.87081193923950195312e+00) (13, -3.33405637741088867188e+00) (14, -3.23389601707458496094e+00) (15, -2.54215002059936523438e+00) (16, -3.26816487312316894531e+00) (17, 1.15620541572570800781e+00) (18, 1.12033724784851074219e+00) (19, 4.02957725524902343750e+00) (20, 2.93909740447998046875e+00) (21, -2.36894106864929199219e+00) (22, 4.90415960550308227539e-01) (23, 1.21841466426849365234e+00) (24, 3.53597855567932128906e+00) (25, 1.34657633304595947266e+00) (26, 1.22464001178741455078e+00) (27, 2.18302059173583984375e+00) (28, 8.46295893192291259766e-01) (29, 1.53859055042266845703e+00) (0, -4.71919345855712890625e+00) (1, 4.17148923873901367188e+00) (2, 9.56222951412200927734e-01) (3, 8.90574550628662109375e+00) (4, -2.45389199256896972656e+00) (5, 1.77771103382110595703e+00) (6, 1.42446649074554443359e+00) (7, 1.20820295810699462891e+00) (8, -2.31219939887523651123e-02) (9, 2.30985975265502929688e+00) (10, 1.29017133712768554688e+01) (11, -2.02196106314659118652e-01) (12, 7.38866031169891357422e-01) (13, 1.56856834888458251953e+00) (14, -9.26046371459960937500e+00) (15, 3.17962616682052612305e-01) (16, 2.70168125629425048828e-01) (17, 5.78369331359863281250e+00) (18, 5.04773283004760742188e+00) (19, 1.25775495544075965881e-02) (20, -3.96229296922683715820e-01) (21, -6.71961688995361328125e+00) (22, 1.07024192810058593750e+00) (23, 2.71746754646301269531e+00) (24, -3.00739407539367675781e+00) (25, -7.27460086345672607422e-01) (26, -7.27887809276580810547e-01) (27, 2.50009608268737792969e+00) (28, 1.78812420368194580078e+00) (29, 2.96941157430410385132e-02) (30, -7.11838901042938232422e-01) (0, 2.34938573837280273438e+00) (1, 3.66695746779441833496e-02) (2, 2.21783328056335449219e+00) (3, 1.97786915302276611328e+00) (4, -1.33680701255798339844e+00) (5, 1.97470903396606445312e+00) (6, 2.24162650108337402344e+00) (7, 1.00100159645080566406e+00) (8, 6.96153759956359863281e-01) (9, 1.63755679130554199219e+00) (10, 9.84846830368041992188e-01) (11, 3.23006200790405273438e+00) (12, 5.81188869476318359375e+00) (13, -2.50015449523925781250e+00) (14, 4.59896564483642578125e+00) (15, 1.32110869884490966797e+00) (16, -1.93309807777404785156e+00) (17, 1.68073427677154541016e+00) (18, 1.87184345722198486328e+00) (19, 7.42026925086975097656e-01) (20, 3.06435298919677734375e+00) (21, 9.16591286659240722656e-01) (22, 2.12755131721496582031e+00) (23, 3.26890254020690917969e+00) (24, 2.06644082069396972656e+00) (25, 1.41549110412597656250e+00) (26, 1.71175092458724975586e-01) (27, 2.44281172752380371094e+00) (28, 6.55440986156463623047e-01) (29, 2.50004339218139648438e+00) (30, 1.16403713226318359375e+01) (31, 1.83904254436492919922e+00) (0, 7.68721150234341621399e-03) (1, 1.24576352536678314209e-02) (2, 1.27405608072876930237e-02) (3, -1.03006036952137947083e-02) (4, -1.55407898128032684326e-02) (5, 8.72109364718198776245e-03) (6, 3.45196686685085296631e-02) (7, -1.90852545201778411865e-02) (8, -6.08923425897955894470e-03) (9, -1.84905175119638442993e-02) (10, 3.31808812916278839111e-02) (11, -6.66796136647462844849e-03) (12, -9.22939926385879516602e-03) (13, 3.59255564399063587189e-03) (14, -1.77003070712089538574e-03) (15, -4.45395970018580555916e-04) (16, -7.99154676496982574463e-03) (17, -3.91798181226477026939e-04) (18, 7.90115387644618749619e-04) (19, 4.32268163422122597694e-04) (20, -3.26623237924650311470e-04) (21, 4.46250691311433911324e-04) (22, 9.81955672614276409149e-04) (23, 1.35548718390055000782e-04) (24, -1.61641300655901432037e-03) (25, -3.01945965475169941783e-05) (26, 8.45092814415693283081e-04) (27, -2.07538530230522155762e-03) (28, 3.08838789351284503937e-04) (29, -1.00947660394012928009e-03) (30, 2.29985080659389495850e-02) (31, -6.61945086903870105743e-04) (32, 8.51008575409650802612e-04) (0, -2.12636266951449215412e-04) (1, -3.48001671954989433289e-03) (2, -1.11577857751399278641e-03) (3, 1.36524438858032226562e-03) (4, -1.53145124204456806183e-03) (5, -1.22147263027727603912e-03) (6, -7.82343558967113494873e-03) (7, 7.00178649276494979858e-03) (8, 2.77878192719072103500e-04) (9, 2.88080098107457160950e-03) (10, -4.43629408255219459534e-03) (11, 8.54313140735030174255e-04) (12, 2.33683409169316291809e-03) (13, -3.74165480025112628937e-04) (14, -1.86668569222092628479e-03) (15, -1.23840384185314178467e-03) (16, 2.25994060747325420380e-03) (17, -1.15453527541831135750e-04) (18, 1.76916277268901467323e-04) (19, -3.48393623426090925932e-05) (20, 1.44736943184398114681e-04) (21, -4.54534128948580473661e-05) (22, -2.64339178102090954781e-04) (23, -2.22480284719495102763e-05) (24, 2.83739937003701925278e-04) (25, 8.64502653712406754494e-05) (26, 4.29502688348293304443e-06) (27, 2.58233048953115940094e-04) (28, 1.18699615995865315199e-04) (29, 3.86152853025123476982e-04) (30, -6.60099787637591362000e-03) (31, 1.43454381031915545464e-04) (32, -2.04807976842857897282e-04) (0, -8.01189453341066837311e-04) (1, -1.83511879295110702515e-02) (2, -1.42330527305603027344e-02) (3, 5.97680173814296722412e-03) (4, 4.97820181772112846375e-03) (5, -1.35646027047187089920e-04) (6, -4.76479083299636840820e-02) (7, 3.82899791002273559570e-02) (8, -5.32009545713663101196e-03) (9, 1.21305296197533607483e-02) (10, -3.13929617404937744141e-02) (11, 6.70051854103803634644e-03) (12, 1.49261113256216049194e-02) (13, -3.24205169454216957092e-03) (14, -3.48349427804350852966e-03) (15, -7.23768305033445358276e-03) (16, 1.45371509715914726257e-02) (17, 1.60862939083017408848e-04) (18, -4.74176049465313553810e-04) (19, -1.59366216394118964672e-04) (20, 9.29475136217661201954e-05) (21, -1.09767448157072067261e-03) (22, -1.28504156600683927536e-03) (23, -2.55930091952905058861e-04) (24, 2.00924300588667392731e-03) (25, 2.53128906479105353355e-04) (26, -1.07353820931166410446e-03) (27, 2.21783714368939399719e-03) (28, 4.18588781030848622322e-04) (29, 1.36234425008296966553e-03) (30, -3.32544781267642974854e-02) (31, 8.16351675894111394882e-04) (32, -1.29926076624542474747e-03) (0, -7.69040063023567199707e-02) (1, 5.28686761856079101562e-01) (2, 1.30742952227592468262e-01) (3, -3.99493664503097534180e-01) (4, 8.65097194910049438477e-02) (5, 1.70064896345138549805e-01) (6, -2.37063094973564147949e-01) (7, -1.02508641779422760010e-01) (8, 4.59272593259811401367e-01) (9, -9.48666453361511230469e-01) (10, 6.55168116092681884766e-01) (11, -2.34394222497940063477e-01) (12, 7.23605513572692871094e-01) (13, -4.36827272176742553711e-01) (14, 6.27918004989624023438e-01) (15, -8.81741717457771301270e-02) (16, -2.15343832969665527344e-01) (17, 6.96649476885795593262e-02) (18, -5.06439283490180969238e-02) (19, 1.90711449831724166870e-02) (20, 3.19598056375980377197e-02) (21, -5.20886145532131195068e-02) (22, -4.62456569075584411621e-02) (23, -6.38847053050994873047e-02) (24, 2.72808894515037536621e-02) (25, 5.55548816919326782227e-02) (26, 1.10995396971702575684e-02) (27, -4.25770552828907966614e-03) (28, -4.25492599606513977051e-02) (29, 3.70233543217182159424e-02) (30, -7.82443657517433166504e-02) (31, -2.70161195658147335052e-04) (32, 7.60512286797165870667e-03) (0, 2.37352862954139709473e-01) (1, 1.62318617105484008789e-01) (2, 2.48065933585166931152e-01) (3, -8.42046365141868591309e-02) (4, -5.52855990827083587646e-02) (5, -1.99823305010795593262e-01) (6, 2.68881887197494506836e-01) (7, -1.28674328327178955078e-01) (8, 5.04469454288482666016e-01) (9, -2.77074605226516723633e-01) (10, -1.24830223619937896729e-01) (11, 7.89534091949462890625e-01) (12, -9.45219933986663818359e-01) (13, -6.92867068573832511902e-03) (14, -3.05308043956756591797e-01) (15, 1.08358405530452728271e-01) (16, -2.79766339808702468872e-02) (17, -1.25036109238862991333e-03) (18, 3.22820656001567840576e-02) (19, 1.48409344255924224854e-02) (20, 5.45245334506034851074e-02) (21, -9.73716727457940578461e-04) (22, 2.21465043723583221436e-02) (23, 2.32517011463642120361e-02) (24, 3.84305082261562347412e-02) (25, -4.62239421904087066650e-02) (26, -8.75690802931785583496e-02) (27, 4.69526425004005432129e-02) (28, -2.40408107638359069824e-02) (29, -4.00822199881076812744e-02) (30, -3.54307517409324645996e-02) (31, 4.18251343071460723877e-02) (32, 5.93012571334838867188e-02) (0, 3.94432246685028076172e-02) (1, 2.30546638369560241699e-01) (2, -1.41933158040046691895e-01) (3, 5.75604662299156188965e-02) (4, 9.82700139284133911133e-02) (5, -3.81929837167263031006e-02) (6, -1.78195565938949584961e-01) (7, 6.31580650806427001953e-02) (8, 2.05783396959304809570e-01) (9, -3.61480385065078735352e-01) (10, 5.89386105537414550781e-01) (11, 1.82258158922195434570e-01) (12, 2.29776158928871154785e-01) (13, -3.91707271337509155273e-01) (14, -5.84076404571533203125e-01) (15, 1.48935243487358093262e-01) (16, -3.36324200034141540527e-02) (17, -3.18288877606391906738e-02) (18, -5.04773668944835662842e-02) (19, -6.58838897943496704102e-02) (20, -8.28302204608917236328e-02) (21, -3.01905069500207901001e-02) (22, 3.99841405451297760010e-02) (23, -5.99275492131710052490e-02) (24, -5.67538328468799591064e-02) (25, 6.43952712416648864746e-02) (26, 1.98549963533878326416e-02) (27, -6.76572993397712707520e-02) (28, -5.65538480877876281738e-02) (29, -8.52652788162231445312e-02) (30, 9.32321846485137939453e-01) (31, 4.66739460825920104980e-02) (32, -5.30091710388660430908e-02) (0, 7.32819914817810058594e-01) (1, -7.34450757503509521484e-01) (2, -4.53886985778808593750e-01) (3, 6.44766688346862792969e-01) (4, -6.71465218067169189453e-01) (5, 3.28999638557434082031e-01) (6, -8.03584277629852294922e-01) (7, 1.44645571708679199219e+00) (8, -1.17376494407653808594e+00) (9, 2.07070159912109375000e+00) (10, -2.17401409149169921875e+00) (11, 8.17432627081871032715e-02) (12, 7.33174383640289306641e-02) (13, 1.25046348571777343750e+00) (14, -5.80516219139099121094e-01) (15, -3.28492790460586547852e-01) (16, 2.43248254060745239258e-01) (17, 3.87908853590488433838e-02) (18, -5.23983128368854522705e-02) (19, -8.48742797970771789551e-02) (20, 2.51198351383209228516e-01) (21, -2.67073571681976318359e-01) (22, 1.74486771225929260254e-01) (23, -1.34882435202598571777e-01) (24, 1.35647073388099670410e-01) (25, 2.73723244667053222656e-01) (26, 2.77965545654296875000e-01) (27, -1.10719144344329833984e-01) (28, -2.45692193508148193359e-01) (29, 2.27388173341751098633e-01) (30, -9.10316705703735351562e-01) (31, 2.38690093159675598145e-01) (32, 1.17989964783191680908e-01) (0, 6.31551325321197509766e-01) (1, 1.11395430564880371094e+00) (2, 2.03445410728454589844e+00) (3, -2.93394279479980468750e+00) (4, -2.59148299694061279297e-01) (5, 4.04648542404174804688e+00) (6, -5.58849811553955078125e+00) (7, -4.66168858110904693604e-02) (8, 4.05747771263122558594e-01) (9, 2.08860301971435546875e+00) (10, 1.50746166706085205078e+00) (11, 7.72850930690765380859e-01) (12, -2.41146135330200195312e+00) (13, 7.38137066364288330078e-01) (14, 9.27270472049713134766e-01) (15, 3.24884295463562011719e-01) (16, -3.01415354013442993164e-01) (17, 1.25866204500198364258e-01) (18, 2.21961751580238342285e-01) (19, 5.19447028636932373047e-01) (20, -8.47905218601226806641e-01) (21, -5.04765033721923828125e-01) (22, -7.02443599700927734375e-01) (23, 9.58894044160842895508e-02) (24, 3.52719306945800781250e-01) (25, -5.67069411277770996094e-01) (26, 3.44919376075267791748e-02) (27, -3.41604888439178466797e-01) (28, 2.66803264617919921875e-01) (29, 1.70494511723518371582e-01) (30, -1.15470910072326660156e+00) (31, -1.33382380008697509766e-01) (32, 2.24137648940086364746e-01) (0, -1.49201428890228271484e+00) (1, -1.11038315296173095703e+00) (2, 2.44989347457885742188e+00) (3, -1.53408432006835937500e+00) (4, 1.12188065052032470703e+00) (5, 9.27702128887176513672e-01) (6, 3.59904575347900390625e+00) (7, 6.86895191669464111328e-01) (8, -1.03422391414642333984e+00) (9, 2.28660583496093750000e+00) (10, -7.12227761745452880859e-01) (11, -2.46706032752990722656e+00) (12, 1.97741091251373291016e+00) (13, -2.12407279014587402344e+00) (14, 2.59941190481185913086e-01) (15, 1.24011695384979248047e+00) (16, -2.89370328187942504883e-01) (17, -6.06259882450103759766e-01) (18, -8.26734840869903564453e-01) (19, 7.32116281986236572266e-01) (20, 1.73886090517044067383e-01) (21, 1.97604775428771972656e-01) (22, 4.06324207782745361328e-01) (23, 9.40728247165679931641e-01) (24, -5.80338776111602783203e-01) (25, 1.80685698986053466797e-01) (26, -4.54058289527893066406e-01) (27, -3.86191084980964660645e-02) (28, -1.80526554584503173828e-01) (29, 3.30475449562072753906e-01) (30, -8.85932028293609619141e-01) (31, -7.58713632822036743164e-02) (32, -2.01078429818153381348e-01) (0, -5.29600024223327636719e-01) (1, -2.00378924608230590820e-01) (2, 4.63511377573013305664e-01) (3, 4.57264095544815063477e-01) (4, 9.95124161243438720703e-01) (5, -3.04889941215515136719e+00) (6, -3.23973208665847778320e-01) (7, -1.14922320842742919922e+00) (8, -5.81250965595245361328e-01) (9, -9.89043116569519042969e-01) (10, 8.39504837989807128906e-01) (11, 5.88365137577056884766e-01) (12, -4.11218851804733276367e-01) (13, -5.58090135455131530762e-02) (14, 1.73294389247894287109e+00) (15, -1.81764686107635498047e+00) (16, 1.95208871364593505859e+00) (17, -7.74639785289764404297e-01) (18, 9.04952108860015869141e-01) (19, -9.75725531578063964844e-01) (20, -9.93518978357315063477e-02) (21, 1.00669610500335693359e+00) (22, -1.76972672343254089355e-01) (23, -3.51064582355320453644e-03) (24, 2.83848613500595092773e-01) (25, 9.84759107232093811035e-02) (26, 1.48969203233718872070e-01) (27, 2.42350280284881591797e-01) (28, -3.56150567531585693359e-01) (29, -2.02529698610305786133e-01) (30, -1.72514867782592773438e+00) (31, -4.05885994434356689453e-01) (32, 6.65120854973793029785e-02) (0, -6.74477875232696533203e-01) (1, 1.36412039399147033691e-01) (2, -4.33804541826248168945e-01) (3, 1.95215356349945068359e+00) (4, -3.81069302558898925781e-01) (5, -1.14298248291015625000e+00) (6, 3.87727642059326171875e+00) (7, -1.90861403942108154297e+00) (8, 7.76406109333038330078e-01) (9, -2.11109137535095214844e+00) (10, -4.72088426351547241211e-01) (11, 4.69687134027481079102e-01) (12, 7.04410076141357421875e-01) (13, -2.34766334295272827148e-01) (14, -7.77556419372558593750e-01) (15, 2.77007341384887695312e-01) (16, 3.94082188606262207031e-01) (17, 3.42035084962844848633e-01) (18, 8.92332047224044799805e-02) (19, -1.79216429591178894043e-01) (20, 1.07244953513145446777e-01) (21, -1.23868864029645919800e-02) (22, 3.34266781806945800781e-01) (23, -2.71953672170639038086e-01) (24, -5.27267813682556152344e-01) (25, -3.60756218433380126953e-01) (26, 2.92892456054687500000e-01) (27, 2.70874023437500000000e-01) (28, 2.41040736436843872070e-01) (29, 1.18240110576152801514e-01) (30, -2.16198682785034179688e+00) (31, 3.79802957177162170410e-02) (32, -1.68222546577453613281e-01) (0, -9.13937110453844070435e-03) (1, 8.43290463089942932129e-02) (2, 3.75609882175922393799e-02) (3, -4.50033769011497497559e-02) (4, 6.29043998196721076965e-03) (5, 5.93538954854011535645e-02) (6, 1.22759006917476654053e-01) (7, -1.25131860375404357910e-01) (8, 7.23294764757156372070e-02) (9, -4.91913817822933197021e-02) (10, 1.00251741707324981689e-01) (11, -4.06788960099220275879e-02) (12, -7.27464407682418823242e-02) (13, 3.27082425355911254883e-02) (14, 4.55918088555335998535e-02) (15, 8.05376246571540832520e-02) (16, -9.14979279041290283203e-02) (17, -5.49634592607617378235e-03) (18, 6.86209532432258129120e-05) (19, 5.88521943427622318268e-04) (20, -7.06405937671661376953e-03) (21, 1.36658567935228347778e-02) (22, 4.44371905177831649780e-03) (23, -3.34359309636056423187e-03) (24, -9.88869275897741317749e-03) (25, -7.81979318708181381226e-03) (26, -2.60667479597032070160e-03) (27, -9.96727216988801956177e-03) (28, 2.76537844911217689514e-03) (29, -7.17737525701522827148e-03) (30, 1.30953493118286132812e+01) (31, -7.68340239301323890686e-03) (32, -1.62700214423239231110e-03) (0, 2.78327316045761108398e-01) (1, -1.60490408539772033691e-01) (2, -1.20113635063171386719e+00) (3, 1.09656695276498794556e-02) (4, 5.06372690200805664062e-01) (5, -7.93374106287956237793e-02) (6, 1.09598886966705322266e+00) (7, -1.46848845481872558594e+00) (8, 2.14565679430961608887e-01) (9, -3.15007805824279785156e-01) (10, 4.27189648151397705078e-01) (11, -7.56840944290161132812e-01) (12, -7.44775176048278808594e-01) (13, 6.94787085056304931641e-01) (14, 2.37292706966400146484e-01) (15, 4.35443043708801269531e-01) (16, 3.19442033767700195312e-01) (17, 2.25407063961029052734e-01) (18, -4.54301238059997558594e-02) (19, 4.81918863952159881592e-02) (20, 7.63799399137496948242e-02) (21, 1.42671331763267517090e-01) (22, 9.89851877093315124512e-02) (23, -2.00143516063690185547e-01) (24, 1.14395111799240112305e-01) (25, 2.00631380081176757812e-01) (26, -1.33407145738601684570e-01) (27, -2.39822372794151306152e-01) (28, 3.12334626913070678711e-01) (29, -3.46267521381378173828e-01) (30, 4.82472628355026245117e-01) (31, 5.04942191764712333679e-03) (32, -2.60780956596136093140e-02) (0, -5.03575317561626434326e-02) (1, 1.93553581833839416504e-01) (2, -3.23230266571044921875e-01) (3, 1.77882105112075805664e-01) (4, -2.03745990991592407227e-01) (5, 2.21157893538475036621e-01) (6, -5.16195237636566162109e-01) (7, 7.98754155635833740234e-01) (8, -3.26396107673645019531e-01) (9, -5.36552071571350097656e-01) (10, 2.38821879029273986816e-01) (11, 6.86302036046981811523e-02) (12, 3.26765239238739013672e-01) (13, -2.26178616285324096680e-01) (14, -1.98196634650230407715e-01) (15, -2.74610191583633422852e-01) (16, 2.35006645321846008301e-01) (17, 1.13417774438858032227e-01) (18, 9.11107510328292846680e-02) (19, 2.03869603574275970459e-02) (20, 5.70161901414394378662e-02) (21, -7.49007612466812133789e-02) (22, -9.70556437969207763672e-02) (23, 4.14523966610431671143e-02) (24, 1.37822451069951057434e-02) (25, 6.88336938619613647461e-02) (26, -4.78010773658752441406e-02) (27, 1.14854574203491210938e-01) (28, 2.55655925720930099487e-02) (29, -1.28502603620290756226e-02) (30, -1.53758168220520019531e+00) (31, -6.79508130997419357300e-03) (32, 4.79600578546524047852e-02) (0, 3.03346919827163219452e-03) (1, -1.30404541268944740295e-02) (2, -4.91308467462658882141e-03) (3, 1.09728919342160224915e-02) (4, -8.28165866550989449024e-05) (5, -8.78885760903358459473e-03) (6, -1.57653205096721649170e-02) (7, 3.72743606567382812500e-02) (8, -1.77726298570632934570e-02) (9, -3.06793116033077239990e-03) (10, -2.86651845090091228485e-03) (11, 2.28645512834191322327e-03) (12, 1.24417375773191452026e-02) (13, -4.50291438028216362000e-04) (14, -9.18264780193567276001e-03) (15, -1.29364440217614173889e-02) (16, 9.88931208848953247070e-03) (17, 2.63614114373922348022e-04) (18, 1.10297150968108326197e-04) (19, 2.59936176007613539696e-04) (20, 2.45350674958899617195e-04) (21, -1.36821705382317304611e-03) (22, -8.70232470333576202393e-04) (23, 1.09557695395778864622e-04) (24, 8.46224022097885608673e-04) (25, 7.13473637006245553493e-05) (26, 1.28180166939273476601e-04) (27, 9.15265409275889396667e-04) (28, 3.93802096368744969368e-04) (29, 8.91565869096666574478e-04) (30, -3.20107452571392059326e-02) (31, 1.25628852401860058308e-04) (32, -3.52301431121304631233e-04) (0, -7.99940433353185653687e-03) (1, 2.03391779214143753052e-02) (2, 2.69629992544651031494e-03) (3, 1.83111671358346939087e-02) (4, 2.54623070359230041504e-02) (5, -1.47351585328578948975e-02) (6, 4.51096594333648681641e-02) (7, -2.55258120596408843994e-02) (8, -1.88459437340497970581e-02) (9, -5.25411106646060943604e-02) (10, 3.64689715206623077393e-02) (11, 1.10325710847973823547e-02) (12, 1.07548376545310020447e-02) (13, -1.06780026108026504517e-02) (14, 3.12280678190290927887e-03) (15, 4.72208531573414802551e-03) (16, -1.29053834825754165649e-02) (17, 1.16820319090038537979e-03) (18, 1.99942252947948873043e-04) (19, -3.43387044267728924751e-04) (20, 1.89568934729322791100e-04) (21, -7.18635856173932552338e-04) (22, -5.13424049131572246552e-04) (23, 1.75039094756357371807e-04) (24, -2.14232085272669792175e-03) (25, 2.92598793748766183853e-04) (26, 1.74811528995633125305e-03) (27, -1.23396911658346652985e-03) (28, -5.70765289012342691422e-04) (29, -5.02793700434267520905e-04) (30, 2.58239498361945152283e-03) (31, -1.14942085929214954376e-03) (32, 1.59766967408359050751e-03) 
