FANN_FLO_2.1
num_layers=18
learning_rate=0.700000
connection_rate=1.000000
network_type=1
learning_momentum=0.000000
training_algorithm=2
train_error_function=0
train_stop_function=0
cascade_output_change_fraction=0.010000
quickprop_decay=-0.000100
quickprop_mu=1.750000
rprop_increase_factor=1.200000
rprop_decrease_factor=0.500000
rprop_delta_min=0.000000
rprop_delta_max=50.000000
rprop_delta_zero=0.100000
cascade_output_stagnation_epochs=12
cascade_candidate_change_fraction=0.010000
cascade_candidate_stagnation_epochs=12
cascade_max_out_epochs=150
cascade_max_cand_epochs=150
cascade_num_candidate_groups=2
bit_fail_limit=3.49999994039535522461e-01
cascade_candidate_limit=1.00000000000000000000e+03
cascade_weight_multiplier=4.00000005960464477539e-01
cascade_activation_functions_count=10
cascade_activation_functions=3 5 7 8 10 11 14 15 16 17 
cascade_activation_steepnesses_count=4
cascade_activation_steepnesses=2.50000000000000000000e-01 5.00000000000000000000e-01 7.50000000000000000000e-01 1.00000000000000000000e+00 
layer_sizes=17 1 1 1 1 1 1 1 1 1 1 1 1 1 1 1 1 16 
scale_included=0
neurons (num_inputs, activation_function, activation_steepness)=(0, 0, 0.00000000000000000000e+00) (0, 0, 0.00000000000000000000e+00) (0, 0, 0.00000000000000000000e+00) (0, 0, 0.00000000000000000000e+00) (0, 0, 0.00000000000000000000e+00) (0, 0, 0.00000000000000000000e+00) (0, 0, 0.00000000000000000000e+00) (0, 0, 0.00000000000000000000e+00) (0, 0, 0.00000000000000000000e+00) (0, 0, 0.00000000000000000000e+00) (0, 0, 0.00000000000000000000e+00) (0, 0, 0.00000000000000000000e+00) (0, 0, 0.00000000000000000000e+00) (0, 0, 0.00000000000000000000e+00) (0, 0, 0.00000000000000000000e+00) (0, 0, 0.00000000000000000000e+00) (0, 0, 0.00000000000000000000e+00) (17, 14, 7.50000000000000000000e-01) (18, 15, 1.00000000000000000000e+00) (19, 15, 1.00000000000000000000e+00) (20, 15, 7.50000000000000000000e-01) (21, 14, 1.00000000000000000000e+00) (22, 14, 7.50000000000000000000e-01) (23, 8, 7.50000000000000000000e-01) (24, 14, 1.00000000000000000000e+00) (25, 15, 1.00000000000000000000e+00) (26, 14, 5.00000000000000000000e-01) (27, 14, 1.00000000000000000000e+00) (28, 8, 5.00000000000000000000e-01) (29, 14, 1.00000000000000000000e+00) (30, 14, 7.50000000000000000000e-01) (31, 14, 5.00000000000000000000e-01) (32, 14, 5.00000000000000000000e-01) (33, 5, 5.00000000000000000000e-01) (33, 5, 5.00000000000000000000e-01) (33, 5, 5.00000000000000000000e-01) (33, 5, 5.00000000000000000000e-01) (33, 5, 5.00000000000000000000e-01) (33, 5, 5.00000000000000000000e-01) (33, 5, 5.00000000000000000000e-01) (33, 5, 5.00000000000000000000e-01) (33, 5, 5.00000000000000000000e-01) (33, 5, 5.00000000000000000000e-01) (33, 5, 5.00000000000000000000e-01) (33, 5, 5.00000000000000000000e-01) (33, 5, 5.00000000000000000000e-01) (33, 5, 5.00000000000000000000e-01) (33, 5, 5.00000000000000000000e-01) (33, 5, 5.00000000000000000000e-01) 
connections (connected_to_neuron, weight)=(0, 1.30868232250213623047e+00) (1, 1.20091331005096435547e+00) (2, 6.31450414657592773438e-01) (3, -1.92564749717712402344e+00) (4, 9.02091026306152343750e-01) (5, 1.14722800254821777344e+00) (6, 8.53976190090179443359e-01) (7, 1.84486019611358642578e+00) (8, 4.96188998222351074219e-01) (9, 4.77007389068603515625e-01) (10, 3.58129858970642089844e+00) (11, -9.48083579540252685547e-01) (12, -9.73245263099670410156e-01) (13, -8.93851101398468017578e-01) (14, -5.82507252693176269531e-01) (15, 6.25713616609573364258e-02) (16, 1.45947611331939697266e+00) (0, 1.13200080394744873047e+00) (1, 7.41234898567199707031e-01) (2, 1.62523674964904785156e+00) (3, 3.33329230546951293945e-01) (4, 1.36820900440216064453e+00) (5, 1.88128650188446044922e+00) (6, 6.50644421577453613281e-01) (7, 9.59222435951232910156e-01) (8, 5.82031011581420898438e-02) (9, -1.30032971501350402832e-02) (10, 1.69940054416656494141e+00) (11, -1.58758392333984375000e+01) (12, 8.70142877101898193359e-01) (13, -1.65198755264282226562e+00) (14, 3.96822547912597656250e+00) (15, 1.34081230163574218750e+01) (16, 2.03056287765502929688e+00) (17, 1.17292184829711914062e+01) (0, 1.35805559158325195312e+00) (1, 1.58844852447509765625e+00) (2, 1.14542734622955322266e+00) (3, 9.18441712856292724609e-01) (4, 4.58604931831359863281e-01) (5, 7.19313263893127441406e-01) (6, -2.02286355197429656982e-02) (7, 6.90447568893432617188e-01) (8, 1.05246400833129882812e+00) (9, 8.73775362968444824219e-01) (10, 4.51574444770812988281e-01) (11, -5.91532564163208007812e+00) (12, 4.81511116027832031250e+00) (13, 6.62193417549133300781e-01) (14, 7.74565458297729492188e-01) (15, 3.47251296043395996094e+00) (16, -2.25185990333557128906e-01) (17, 5.02175140380859375000e+00) (18, 2.83279585838317871094e+00) (0, 2.41241788864135742188e+00) (1, 8.35437476634979248047e-01) (2, 5.97207248210906982422e-01) (3, 2.49343657493591308594e+00) (4, 2.01587533950805664062e+00) (5, 2.33295702934265136719e+00) (6, 1.87337923049926757812e+00) (7, 2.17366456985473632812e+00) (8, 1.87675011157989501953e+00) (9, 3.30868315696716308594e+00) (10, 1.36104261875152587891e+00) (11, 4.34343099594116210938e+00) (12, 1.26910364627838134766e+00) (13, -5.82125329971313476562e+00) (14, -6.96123075485229492188e+00) (15, -4.66419172286987304688e+00) (16, -1.22256815433502197266e+00) (17, 8.35350704193115234375e+00) (18, 2.89373993873596191406e+00) (19, 9.71957623958587646484e-01) (0, -6.53382718563079833984e-01) (1, 2.08241534233093261719e+00) (2, 1.12914121150970458984e+00) (3, -1.59147113561630249023e-01) (4, 1.14991903305053710938e+00) (5, 2.00642347335815429688e+00) (6, 1.89411497116088867188e+00) (7, 2.06636929512023925781e+00) (8, 1.20389580726623535156e+00) (9, 1.90575873851776123047e+00) (10, 1.40236699581146240234e+00) (11, 1.36011707782745361328e+00) (12, 6.91528749465942382812e+00) (13, -5.13859319686889648438e+00) (14, 5.74785327911376953125e+00) (15, 2.19478487968444824219e+00) (16, 7.77840077877044677734e-01) (17, -6.47694826126098632812e-01) (18, 7.64220535755157470703e-01) (19, 1.18382525444030761719e+00) (20, 1.36094021797180175781e+00) (0, 2.24488377571105957031e+00) (1, 2.08902549743652343750e+00) (2, 7.97614932060241699219e-01) (3, 1.58217811584472656250e+00) (4, 5.66007614135742187500e-01) (5, 2.12382340431213378906e+00) (6, 1.23994779586791992188e+00) (7, 4.58181023597717285156e-01) (8, 1.10651123523712158203e+00) (9, 1.86966919898986816406e+00) (10, 9.82183098793029785156e-01) (11, 4.08973884582519531250e+00) (12, -5.56747579574584960938e+00) (13, -1.21549785137176513672e+00) (14, 1.29458153247833251953e+00) (15, 3.97503167390823364258e-01) (16, -1.71425074338912963867e-01) (17, -3.53715348243713378906e+00) (18, -9.17665481567382812500e-01) (19, 2.52601218223571777344e+00) (20, -1.20142924785614013672e+00) (21, 5.84170877933502197266e-01) (0, 9.14136946201324462891e-01) (1, -5.66966794431209564209e-02) (2, 4.64068174362182617188e-01) (3, -6.55996501445770263672e-01) (4, -2.15252906084060668945e-01) (5, -5.92534363269805908203e-01) (6, 1.22834777832031250000e+00) (7, 7.39778757095336914062e-01) (8, -1.75670400261878967285e-01) (9, 2.85707533359527587891e-01) (10, 1.57955944538116455078e-01) (11, 1.65326923131942749023e-01) (12, 5.13967275619506835938e-01) (13, 1.10538649559020996094e+00) (14, -1.53375995159149169922e+00) (15, -1.49208068847656250000e+00) (16, -1.36136186122894287109e+00) (17, -2.13239598274230957031e+00) (18, -8.70078802108764648438e-01) (19, 1.27873396873474121094e+00) (20, 1.18424546718597412109e+00) (21, -1.00219595432281494141e+00) (22, 1.88065350055694580078e-01) (0, 1.05833625793457031250e+00) (1, 6.25514328479766845703e-01) (2, 1.13481581211090087891e+00) (3, 2.13684129714965820312e+00) (4, 2.26909923553466796875e+00) (5, 1.34470403194427490234e+00) (6, 1.92624080181121826172e+00) (7, 2.38752269744873046875e+00) (8, 4.74159538745880126953e-01) (9, 1.04133701324462890625e+00) (10, 3.04573923349380493164e-01) (11, 6.93830907344818115234e-01) (12, -1.54328954219818115234e+00) (13, 3.14661312103271484375e+00) (14, -6.99447488784790039062e+00) (15, -1.26932108402252197266e+00) (16, 9.71210718154907226562e-01) (17, 9.92923259735107421875e-01) (18, 9.27347421646118164062e-01) (19, 2.52074408531188964844e+00) (20, 1.26606786251068115234e+00) (21, 6.98818504810333251953e-01) (22, -3.54745328426361083984e-01) (23, 1.73378193378448486328e+00) (0, -4.98802870512008666992e-01) (1, 1.42914795875549316406e+00) (2, 2.38973319530487060547e-01) (3, 1.23093426227569580078e+00) (4, 4.23431217670440673828e-01) (5, 3.94470751285552978516e-01) (6, 8.71533572673797607422e-01) (7, 1.31505012512207031250e+00) (8, 1.52856671810150146484e+00) (9, 1.49437534809112548828e+00) (10, 2.03693747520446777344e+00) (11, 1.30017626285552978516e+00) (12, 5.04931545257568359375e+00) (13, 1.66602325439453125000e+00) (14, 4.61946296691894531250e+00) (15, 2.56618928909301757812e+00) (16, -1.47148120403289794922e+00) (17, -3.87683248519897460938e+00) (18, 5.92296719551086425781e-01) (19, 6.39531493186950683594e-01) (20, -2.95168548822402954102e-01) (21, -6.82670116424560546875e-01) (22, 5.05022227764129638672e-01) (23, 1.83962547779083251953e+00) (24, 1.42926621437072753906e+00) (0, 8.99436473846435546875e-01) (1, 6.98252081871032714844e-01) (2, 7.58307456970214843750e-01) (3, 1.25001132488250732422e+00) (4, 6.91047072410583496094e-01) (5, 1.89486980438232421875e+00) (6, 1.06034338474273681641e+00) (7, 1.50613760948181152344e+00) (8, 2.06585478782653808594e+00) (9, 1.71470689773559570312e+00) (10, 1.04364454746246337891e+00) (11, 2.57563471794128417969e+00) (12, 1.81729888916015625000e+00) (13, -1.81795334815979003906e+00) (14, 5.19869089126586914062e+00) (15, -3.69356679916381835938e+00) (16, -1.05879008769989013672e+00) (17, -2.24627375602722167969e+00) (18, -1.81556868553161621094e+00) (19, -1.02342247962951660156e+00) (20, 1.49054312705993652344e+00) (21, 5.71434125304222106934e-02) (22, -7.78634011745452880859e-01) (23, -3.94341278076171875000e+00) (24, 2.00461769104003906250e+00) (25, 6.16959035396575927734e-01) (0, 1.00712549686431884766e+00) (1, 7.86202967166900634766e-01) (2, 2.00711631774902343750e+00) (3, 9.79396879673004150391e-01) (4, 1.69281172752380371094e+00) (5, 7.40754902362823486328e-01) (6, 2.30837178230285644531e+00) (7, 2.10550045967102050781e+00) (8, 7.48591840267181396484e-01) (9, 2.01655006408691406250e+00) (10, 1.47473430633544921875e+00) (11, 1.52709090709686279297e+00) (12, -1.35083591938018798828e+00) (13, -1.34980070590972900391e+00) (14, 4.61777150630950927734e-01) (15, 2.17071461677551269531e+00) (16, 1.35537672042846679688e+00) (17, -5.67184829711914062500e+00) (18, 8.43170523643493652344e-01) (19, -3.80091309547424316406e-01) (20, -5.25365889072418212891e-01) (21, 2.35035514831542968750e+00) (22, 1.83285486698150634766e+00) (23, 1.72621941566467285156e+00) (24, -5.22436276078224182129e-02) (25, 2.34417915344238281250e+00) (26, 1.75492215156555175781e+00) (0, -3.00485610961914062500e-01) (1, -1.37262076139450073242e-01) (2, 1.62195086479187011719e+00) (3, 5.37065804004669189453e-01) (4, -2.78316944837570190430e-01) (5, 5.00084578990936279297e-01) (6, -8.61290931701660156250e-01) (7, 3.18298101425170898438e-01) (8, -3.08055907487869262695e-01) (9, -8.76046001911163330078e-01) (10, 9.82366621494293212891e-01) (11, 6.81626141071319580078e-01) (12, -3.40459704399108886719e+00) (13, -2.12811255455017089844e+00) (14, 8.81425976753234863281e-01) (15, 2.34040284156799316406e+00) (16, 2.83528089523315429688e-01) (17, 3.67300271987915039062e-01) (18, -8.85263860225677490234e-01) (19, 1.41226077079772949219e+00) (20, -6.07346117496490478516e-01) (21, -5.49419879913330078125e-01) (22, 1.68253695964813232422e+00) (23, 1.55638813972473144531e-01) (24, 1.08531045913696289062e+00) (25, 4.13459360599517822266e-01) (26, 7.78955519199371337891e-01) (27, 1.00017106533050537109e+00) (0, 1.93267714977264404297e+00) (1, 1.63697004318237304688e+00) (2, 6.58679425716400146484e-01) (3, 2.02830719947814941406e+00) (4, 1.84847128391265869141e+00) (5, 1.24178171157836914062e+00) (6, 1.63746142387390136719e+00) (7, 1.64057552814483642578e+00) (8, 1.51004207134246826172e+00) (9, 3.44455569982528686523e-01) (10, 1.80127298831939697266e+00) (11, 4.39824295043945312500e+00) (12, 1.83534038066864013672e+00) (13, -2.67329120635986328125e+00) (14, 2.66799684613943099976e-02) (15, 5.03719139099121093750e+00) (16, 1.30582201480865478516e+00) (17, 9.33149814605712890625e-01) (18, 1.02131807804107666016e+00) (19, 2.03691124916076660156e-01) (20, -3.66348266601562500000e-01) (21, 2.81567287445068359375e+00) (22, 7.35714793205261230469e-01) (23, 9.39950406551361083984e-01) (24, 1.67945563793182373047e+00) (25, 1.76416265964508056641e+00) (26, 2.35455632209777832031e+00) (27, 3.22372603416442871094e+00) (28, 2.13448807597160339355e-01) (0, 5.07125735282897949219e-01) (1, 1.22272872924804687500e+00) (2, 5.44847071170806884766e-01) (3, 1.07393121719360351562e+00) (4, 5.97657203674316406250e-01) (5, 2.06521534919738769531e+00) (6, 1.28494369983673095703e+00) (7, 1.95739865303039550781e+00) (8, 1.66178655624389648438e+00) (9, 2.22876119613647460938e+00) (10, 9.19941216707229614258e-02) (11, 1.69320963323116302490e-02) (12, 1.00341916084289550781e+00) (13, 1.19735610485076904297e+00) (14, -9.56091843545436859131e-03) (15, 2.73248934745788574219e+00) (16, 5.87910600006580352783e-02) (17, 1.94672060012817382812e+00) (18, 1.30034434795379638672e+00) (19, -4.51504886150360107422e-01) (20, -1.77132105827331542969e+00) (21, 1.12475216388702392578e+00) (22, 1.47798299789428710938e+00) (23, 1.43785381317138671875e+00) (24, 2.33453321456909179688e+00) (25, -9.06064867973327636719e-01) (26, 1.03763270378112792969e+00) (27, 1.16370582580566406250e+00) (28, 2.31739306449890136719e+00) (29, 1.48855257034301757812e+00) (0, 3.56615781784057617188e-02) (1, 8.22520971298217773438e-01) (2, 1.22025275230407714844e+00) (3, 2.02773034572601318359e-01) (4, 2.54501819610595703125e-01) (5, 2.19331908226013183594e+00) (6, 1.11605238914489746094e+00) (7, 1.14634156227111816406e+00) (8, -8.30179974436759948730e-02) (9, 1.54247379302978515625e+00) (10, 2.29158186912536621094e+00) (11, -2.14374393224716186523e-01) (12, -4.78497838973999023438e+00) (13, -2.57207822799682617188e+00) (14, -3.87263119220733642578e-01) (15, 3.06464463472366333008e-01) (16, -1.46070468425750732422e+00) (17, -5.35933196544647216797e-01) (18, 2.26168084144592285156e+00) (19, -4.93249967694282531738e-02) (20, 5.50237596035003662109e-01) (21, 2.46849799156188964844e+00) (22, -2.53922438621520996094e+00) (23, 8.90309393405914306641e-01) (24, 3.06873559951782226562e+00) (25, 1.18411004543304443359e+00) (26, -5.90216696262359619141e-01) (27, 1.28091728687286376953e+00) (28, 2.19569993019104003906e+00) (29, 7.96766757965087890625e-01) (30, -1.88986763358116149902e-01) (0, 1.38153779506683349609e+00) (1, 8.58045339584350585938e-01) (2, 8.21772038936614990234e-01) (3, 1.88302874565124511719e+00) (4, 1.43643212318420410156e+00) (5, 1.83303070068359375000e+00) (6, 2.24801516532897949219e+00) (7, 7.05405533313751220703e-01) (8, 9.98184442520141601562e-01) (9, 8.81359875202178955078e-01) (10, 1.39879226684570312500e+00) (11, -5.19615221023559570312e+00) (12, 3.57680201530456542969e+00) (13, 2.22109603881835937500e+00) (14, -7.53029060363769531250e+00) (15, 4.22173070907592773438e+00) (16, -9.20564234256744384766e-02) (17, -1.13251268863677978516e+00) (18, 5.36666393280029296875e-01) (19, 2.44679003953933715820e-01) (20, -8.08532178401947021484e-01) (21, 6.62133574485778808594e-01) (22, 1.70120036602020263672e+00) (23, -2.40285828709602355957e-01) (24, 8.44106853008270263672e-01) (25, 4.30526375770568847656e-01) (26, 2.64692544937133789062e+00) (27, -9.98964488506317138672e-01) (28, 1.36500263214111328125e+00) (29, -7.98863589763641357422e-01) (30, -6.96252107620239257812e-01) (31, 2.03543639183044433594e+00) (0, -3.93781363964080810547e-02) (1, -1.48895592428743839264e-03) (2, 1.47354137152433395386e-02) (3, 2.24678404629230499268e-02) (4, -7.32299983501434326172e-02) (5, -7.35981911420822143555e-02) (6, -6.30064234137535095215e-02) (7, -5.62449283897876739502e-02) (8, 3.46879959106445312500e-02) (9, 3.06083243340253829956e-02) (10, 5.96645101904869079590e-02) (11, -7.26508535444736480713e-03) (12, 3.73113760724663734436e-03) (13, -4.44218143820762634277e-03) (14, 8.34651570767164230347e-03) (15, -1.14126866683363914490e-02) (16, 1.08074568212032318115e-01) (17, 2.15724334120750427246e-02) (18, 1.48535100743174552917e-03) (19, 2.86655221134424209595e-03) (20, 1.38076674193143844604e-03) (21, -4.06581792049109935760e-04) (22, 9.14701304282061755657e-05) (23, 5.23060618434101343155e-04) (24, 8.58170446008443832397e-04) (25, -1.19660154450684785843e-03) (26, 7.29980238247662782669e-04) (27, 1.14066072273999452591e-03) (28, 2.76986183598637580872e-03) (29, 1.64241262245923280716e-03) (30, -1.63769780192524194717e-03) (31, 3.44284344464540481567e-05) (32, 2.46731971856206655502e-04) (0, 2.98636239022016525269e-02) (1, -2.41769865155220031738e-01) (2, -1.34691730141639709473e-01) (3, 2.53662943840026855469e-01) (4, -2.06776335835456848145e-01) (5, -2.08484068512916564941e-01) (6, -1.29228308796882629395e-01) (7, -2.20716968178749084473e-01) (8, -1.31811901926994323730e-01) (9, -1.44552931189537048340e-01) (10, -3.36499750614166259766e-01) (11, 1.32854089140892028809e-01) (12, 1.38204619288444519043e-01) (13, 1.18886612355709075928e-01) (14, 8.37131291627883911133e-02) (15, -1.80773138999938964844e-02) (16, 9.69659924507141113281e-01) (17, 1.85257792472839355469e-01) (18, 2.74121324764564633369e-04) (19, 2.61107459664344787598e-03) (20, -1.80813003680668771267e-04) (21, -1.65442877914756536484e-03) (22, -1.39176976517774164677e-04) (23, 1.00034417118877172470e-03) (24, -2.76987324468791484833e-03) (25, -8.68326518684625625610e-04) (26, 1.50011945515871047974e-03) (27, 1.33405570522882044315e-04) (28, 3.52018512785434722900e-04) (29, -1.33109139278531074524e-03) (30, -6.37898803688585758209e-04) (31, -2.86981393583118915558e-03) (32, -2.02699657529592514038e-03) (0, 1.18743360042572021484e-01) (1, 5.77626042068004608154e-02) (2, -4.16290938854217529297e-01) (3, -2.88653433322906494141e-01) (4, 4.49593439698219299316e-02) (5, 6.17177821695804595947e-02) (6, 1.07587687671184539795e-01) (7, 1.18262261152267456055e-01) (8, -4.67650666832923889160e-02) (9, 1.59812029451131820679e-02) (10, -1.14600136876106262207e-02) (11, 9.32610630989074707031e-02) (12, -8.31945613026618957520e-03) (13, 8.51154047995805740356e-03) (14, -2.05550827085971832275e-02) (15, -1.40792932361364364624e-02) (16, 1.68691888451576232910e-01) (17, 1.35759590193629264832e-02) (18, 3.60982469283044338226e-03) (19, -3.16346134059131145477e-03) (20, -8.48875322844833135605e-04) (21, -2.68727121874690055847e-03) (22, 2.23448849283158779144e-03) (23, -9.29889793042093515396e-04) (24, -9.72139835357666015625e-03) (25, -1.05362804606556892395e-03) (26, -4.31923865107819437981e-04) (27, 8.59440956264734268188e-03) (28, -4.28113574162125587463e-03) (29, -5.64046576619148254395e-03) (30, 5.44729316607117652893e-03) (31, 6.57209381461143493652e-03) (32, -1.08044827356934547424e-02) (0, 6.03147335350513458252e-02) (1, -4.71789669245481491089e-03) (2, 3.63311730325222015381e-03) (3, -6.70486269518733024597e-03) (4, 2.71272547543048858643e-02) (5, -6.01811707019805908203e-02) (6, -6.83937501162290573120e-03) (7, -9.90917310118675231934e-02) (8, 2.17680186033248901367e-01) (9, 6.19882624596357345581e-03) (10, 1.73129513859748840332e-02) (11, -2.12836395949125289917e-02) (12, 1.60684139700606465340e-04) (13, -1.17851383984088897705e-02) (14, 9.83616802841424942017e-03) (15, -6.04828819632530212402e-03) (16, -1.02936282753944396973e-01) (17, -1.25202741473913192749e-02) (18, 8.74827732332050800323e-04) (19, -1.08839757740497589111e-03) (20, 1.31361102830851450562e-05) (21, 3.46469721989706158638e-04) (22, 1.23253907077014446259e-04) (23, 3.19483660859987139702e-04) (24, 1.15897040814161300659e-04) (25, 1.91752929822541773319e-04) (26, -2.36249109730124473572e-03) (27, 1.21256313286721706390e-03) (28, 1.33408966939896345139e-03) (29, 2.20490968786180019379e-04) (30, -2.83851148560643196106e-03) (31, -7.42778414860367774963e-04) (32, 1.40345166437327861786e-03) (0, 1.38932392001152038574e-01) (1, 1.81348115205764770508e-01) (2, 2.21710037440061569214e-02) (3, 1.97303861379623413086e-01) (4, -1.58378686755895614624e-02) (5, 1.54224723577499389648e-01) (6, -1.44509434700012207031e+00) (7, 1.45845639705657958984e+00) (8, -9.72175538539886474609e-01) (9, -1.42593872547149658203e+00) (10, 1.21258699893951416016e+00) (11, 4.73310321569442749023e-01) (12, -3.39666575193405151367e-01) (13, -4.52210977673530578613e-02) (14, 1.93517189472913742065e-02) (15, 1.40203222632408142090e-01) (16, 3.13018441200256347656e-01) (17, 1.10656574368476867676e-01) (18, -7.09498748183250427246e-02) (19, -1.61112491041421890259e-02) (20, 1.79610196501016616821e-02) (21, -3.43010239303112030029e-02) (22, 7.05958083271980285645e-02) (23, 9.15254354476928710938e-02) (24, 5.54876551032066345215e-02) (25, 4.73052375018596649170e-02) (26, -4.61608618497848510742e-02) (27, -9.95393749326467514038e-03) (28, -5.79930022358894348145e-02) (29, -2.48578637838363647461e-02) (30, 2.38996744155883789062e-03) (31, 1.73712719697505235672e-03) (32, 8.73921997845172882080e-03) (0, 2.21623599529266357422e-01) (1, 4.99145507812500000000e-01) (2, -1.52924644947052001953e+00) (3, 1.64598107337951660156e-01) (4, -4.49918955564498901367e-01) (5, 1.79078733921051025391e+00) (6, 1.18319380283355712891e+00) (7, -1.16091382503509521484e+00) (8, 1.90021526813507080078e+00) (9, -3.20127487182617187500e-01) (10, -1.19338202476501464844e+00) (11, -3.57520073652267456055e-01) (12, 1.81277319788932800293e-01) (13, 3.29193174839019775391e-01) (14, 5.34287132322788238525e-02) (15, 1.73551529645919799805e-01) (16, -7.70542442798614501953e-01) (17, -3.36114540696144104004e-02) (18, -1.07838198542594909668e-01) (19, -7.36113488674163818359e-02) (20, -1.42414212226867675781e-01) (21, -1.68916136026382446289e-01) (22, 8.62958729267120361328e-02) (23, 1.60306930541992187500e-01) (24, -1.11825846135616302490e-01) (25, -9.25070568919181823730e-02) (26, 1.67397838085889816284e-02) (27, 2.31810342520475387573e-02) (28, -1.10011674463748931885e-01) (29, -2.42380902171134948730e-01) (30, 1.05006627738475799561e-01) (31, -1.02143585681915283203e-01) (32, -8.09922441840171813965e-02) (0, -1.73423385620117187500e+00) (1, 3.18017393350601196289e-01) (2, 3.55918675661087036133e-01) (3, 6.33763790130615234375e-01) (4, -1.52049040794372558594e+00) (5, 5.65746688842773437500e+00) (6, -1.28151714801788330078e+00) (7, 2.30035471916198730469e+00) (8, -1.49989295005798339844e+00) (9, 1.35958111286163330078e+00) (10, -3.21053385734558105469e+00) (11, 4.45557922124862670898e-01) (12, 5.43314039707183837891e-01) (13, 1.14578676223754882812e+00) (14, -1.46718335151672363281e+00) (15, 4.79092039167881011963e-02) (16, -8.05915534496307373047e-01) (17, 1.24381279945373535156e+00) (18, 1.55312448740005493164e-01) (19, -3.95602911710739135742e-01) (20, -2.33076512813568115234e-01) (21, 5.68218290805816650391e-01) (22, 5.88915765285491943359e-01) (23, -2.29726687073707580566e-01) (24, 6.92948102951049804688e-01) (25, -3.48930537700653076172e-01) (26, -8.15360993146896362305e-02) (27, 3.50504875183105468750e-01) (28, 2.77703613042831420898e-01) (29, -1.76155753433704376221e-02) (30, -3.47527444362640380859e-01) (31, -2.42633000016212463379e-01) (32, -2.36552670598030090332e-01) (0, 1.19736838340759277344e+00) (1, -2.47743296623229980469e+00) (2, 6.68103635311126708984e-01) (3, 8.14641058444976806641e-01) (4, -2.13591670989990234375e+00) (5, -1.71220350265502929688e+00) (6, 1.29335808753967285156e+00) (7, 6.19841456413269042969e-01) (8, -8.65672767162322998047e-01) (9, -3.36104840040206909180e-01) (10, 3.51308107376098632812e+00) (11, -1.78244388103485107422e+00) (12, 1.95432853698730468750e+00) (13, 7.62123405933380126953e-01) (14, -5.52003920078277587891e-01) (15, -6.37082815170288085938e-01) (16, 8.95779430866241455078e-02) (17, 1.02160513401031494141e-01) (18, 4.28628295660018920898e-01) (19, -6.94275081157684326172e-01) (20, 3.44895184040069580078e-01) (21, 6.77981078624725341797e-02) (22, -8.77348840236663818359e-01) (23, 3.13180014491081237793e-02) (24, -4.45567995309829711914e-01) (25, -3.37095886468887329102e-01) (26, -4.19817954301834106445e-01) (27, -5.57170569896697998047e-01) (28, -6.30560576915740966797e-01) (29, 1.08815081417560577393e-01) (30, -8.25856998562812805176e-03) (31, 1.10090814530849456787e-01) (32, -1.05311796069145202637e-01) (0, 5.60824096202850341797e-01) (1, -1.47174334526062011719e+00) (2, 1.88623619079589843750e+00) (3, 3.92250567674636840820e-01) (4, 1.52276054024696350098e-01) (5, 1.64124429225921630859e-01) (6, -1.53893142938613891602e-01) (7, -2.38055920600891113281e+00) (8, 4.40326124429702758789e-01) (9, 1.93686985969543457031e+00) (10, -8.60196769237518310547e-01) (11, 6.57617211341857910156e-01) (12, 1.60678699612617492676e-01) (13, 1.84635114669799804688e+00) (14, -1.95253801345825195312e+00) (15, -6.87423765659332275391e-01) (16, 4.71511185169219970703e-02) (17, -1.35186100006103515625e+00) (18, -6.63309812545776367188e-01) (19, 6.47122681140899658203e-01) (20, 6.52563393115997314453e-01) (21, -5.05956470966339111328e-01) (22, 1.69091627001762390137e-01) (23, -9.36449408531188964844e-01) (24, -2.15231731534004211426e-01) (25, 3.69508355855941772461e-01) (26, 1.27936482429504394531e-01) (27, 2.49739866703748703003e-02) (28, -5.30013553798198699951e-02) (29, -2.65957534313201904297e-01) (30, -3.44227313995361328125e-01) (31, 2.59909123182296752930e-01) (32, -4.49492447078227996826e-02) (0, -5.56995749473571777344e-01) (1, 4.09580278396606445312e+00) (2, 5.19443154335021972656e-02) (3, 5.37243008613586425781e-01) (4, -1.61610007286071777344e+00) (5, -1.39797925949096679688e-01) (6, -3.43545603752136230469e+00) (7, -4.66442525386810302734e-01) (8, 1.28935658931732177734e+00) (9, 2.62047410011291503906e-01) (10, 8.57307255268096923828e-01) (11, -2.99765616655349731445e-02) (12, -1.11198611557483673096e-01) (13, -3.03763699531555175781e+00) (14, 2.03524875640869140625e+00) (15, -9.05477464199066162109e-01) (16, 2.12374627590179443359e-01) (17, -9.42009747028350830078e-01) (18, 2.13291361927986145020e-01) (19, 2.82812714576721191406e-01) (20, -5.02438783645629882812e-01) (21, 1.18539899587631225586e-01) (22, -2.97139495611190795898e-01) (23, 1.03862762451171875000e-01) (24, 1.42160490155220031738e-01) (25, 3.91794085502624511719e-01) (26, 4.89462502300739288330e-02) (27, -3.43681961297988891602e-01) (28, 3.43461513519287109375e-01) (29, -1.24034494161605834961e-01) (30, 2.84781962633132934570e-01) (31, -2.43050940334796905518e-02) (32, -1.13819517195224761963e-01) (0, 1.16171583533287048340e-01) (1, 6.41581237316131591797e-01) (2, 8.08567821979522705078e-01) (3, -1.41813266277313232422e+00) (4, 2.88831353187561035156e+00) (5, -2.34904789924621582031e+00) (6, -1.48327672481536865234e+00) (7, 8.69137823581695556641e-01) (8, -2.55407392978668212891e-02) (9, -9.40069317817687988281e-01) (10, 1.12961220741271972656e+00) (11, 3.93533557653427124023e-01) (12, -6.70688092708587646484e-01) (13, 7.22950473427772521973e-02) (14, -1.04838109016418457031e+00) (15, 8.40755522251129150391e-01) (16, 2.08795368671417236328e-01) (17, 2.81658083200454711914e-01) (18, 2.20978185534477233887e-01) (19, 1.72143071889877319336e-01) (20, -6.11541196703910827637e-02) (21, 8.86100926436483860016e-04) (22, 1.55267998576164245605e-01) (23, 4.36727762222290039062e-01) (24, -2.31352880597114562988e-01) (25, -1.16020634770393371582e-01) (26, 4.89709109067916870117e-01) (27, 6.77598342299461364746e-02) (28, 1.60113990306854248047e-01) (29, 2.95467674732208251953e-01) (30, -1.51586011052131652832e-01) (31, 2.25840389728546142578e-01) (32, 5.25844730436801910400e-02) (0, 6.66975975036621093750e-01) (1, -1.37756252288818359375e+00) (2, -1.08129465579986572266e+00) (3, -1.27486860752105712891e+00) (4, 1.15096533298492431641e+00) (5, -1.74554741382598876953e+00) (6, 4.09516954421997070312e+00) (7, -1.97903681546449661255e-02) (8, -2.65880870819091796875e+00) (9, 2.67848348617553710938e+00) (10, -4.46575552225112915039e-01) (11, 5.68191528320312500000e-01) (12, -1.16605770587921142578e+00) (13, -2.94915378093719482422e-01) (14, 1.43381714820861816406e+00) (15, -5.69091618061065673828e-01) (16, 4.00157094001770019531e-01) (17, 7.24380975589156150818e-03) (18, -1.31660208106040954590e-01) (19, 1.34111419320106506348e-01) (20, 1.61840125918388366699e-01) (21, -8.04677009582519531250e-02) (22, -1.45337581634521484375e-01) (23, -4.88712415099143981934e-02) (24, 1.97986774146556854248e-02) (25, -3.86764705181121826172e-02) (26, -2.76057451963424682617e-01) (27, 2.17883452773094177246e-01) (28, -2.42265127599239349365e-02) (29, 2.01717972755432128906e-01) (30, 2.37466499209403991699e-01) (31, -3.14307302236557006836e-01) (32, 4.56969827413558959961e-01) (0, -3.67037236690521240234e-01) (1, 1.52347907423973083496e-01) (2, -8.89899879693984985352e-02) (3, 7.26594254374504089355e-02) (4, -1.60082608461380004883e-01) (5, 3.06377708911895751953e-02) (6, 2.89709061384201049805e-01) (7, 3.22035610675811767578e-01) (8, -1.32301256060600280762e-01) (9, -3.66509884595870971680e-01) (10, 2.56411015987396240234e-01) (11, -3.82221728563308715820e-01) (12, -1.98547676205635070801e-01) (13, 1.22404530644416809082e-01) (14, 1.96040987968444824219e-01) (15, 2.65307188034057617188e-01) (16, 4.29267957806587219238e-02) (17, -2.65380926430225372314e-02) (18, 1.85326654464006423950e-02) (19, -1.60398893058300018311e-02) (20, 8.59202723950147628784e-03) (21, 6.49806037545204162598e-02) (22, 4.76056598126888275146e-02) (23, 2.83939335495233535767e-02) (24, 1.14312237128615379333e-02) (25, 2.26698201149702072144e-02) (26, -1.26280616968870162964e-02) (27, -1.00955981761217117310e-02) (28, 8.66571534425020217896e-03) (29, -5.33160893246531486511e-03) (30, -5.05364441778510808945e-04) (31, 5.73053918778896331787e-02) (32, 6.27525374293327331543e-02) (0, 2.37125419080257415771e-02) (1, -2.36002132296562194824e-02) (2, -1.40912339091300964355e-01) (3, -1.51085659861564636230e-01) (4, 2.84426957368850708008e-01) (5, -8.01106020808219909668e-02) (6, 2.29674756526947021484e-01) (7, -2.43753954768180847168e-01) (8, -1.67553380131721496582e-01) (9, -5.76008521020412445068e-02) (10, -5.33756874501705169678e-02) (11, 7.01585486531257629395e-02) (12, 4.34297835454344749451e-03) (13, 2.49227229505777359009e-02) (14, 1.34015467483550310135e-03) (15, -9.32963041123002767563e-04) (16, 2.57305592298507690430e-01) (17, 4.29910272359848022461e-02) (18, 2.34264228492975234985e-03) (19, 8.78724735230207443237e-04) (20, 1.32870255038142204285e-03) (21, 3.30374366603791713715e-03) (22, 1.12147834443021565676e-04) (23, -9.10187792032957077026e-03) (24, -5.10901305824518203735e-03) (25, -1.59748666919767856598e-03) (26, 7.62834446504712104797e-03) (27, -3.43166477978229522705e-03) (28, -7.97691661864519119263e-03) (29, -1.01660075597465038300e-03) (30, 6.45751738920807838440e-03) (31, -2.56421230733394622803e-03) (32, -9.41508077085018157959e-03) (0, -1.17621801793575286865e-01) (1, -1.37495696544647216797e-01) (2, -1.44720986485481262207e-01) (3, -1.17081619799137115479e-01) (4, 7.57350400090217590332e-02) (5, 3.44097763299942016602e-02) (6, 4.70480397343635559082e-02) (7, 3.76570373773574829102e-02) (8, 7.06256181001663208008e-02) (9, 6.12719915807247161865e-02) (10, 8.08677822351455688477e-02) (11, 1.77147462964057922363e-02) (12, -3.64689715206623077393e-02) (13, 1.68657097965478897095e-02) (14, -2.12638657540082931519e-02) (15, -2.82311774790287017822e-02) (16, 9.84065979719161987305e-02) (17, 1.62450689822435379028e-02) (18, 2.47653783299028873444e-03) (19, -1.32746179588139057159e-03) (20, 4.74296789616346359253e-03) (21, 3.55450925417244434357e-03) (22, -1.00635585840791463852e-03) (23, -2.67526088282465934753e-03) (24, -4.84274933114647865295e-03) (25, 2.28423552471213042736e-04) (26, -1.54586834833025932312e-03) (27, 6.33074762299656867981e-03) (28, -1.67943129781633615494e-03) (29, -2.84526613540947437286e-04) (30, 1.61883397959172725677e-03) (31, 5.13601582497358322144e-03) (32, -1.98102556169033050537e-03) (0, 1.28504395484924316406e-01) (1, -1.04146890342235565186e-01) (2, 3.76203581690788269043e-02) (3, 8.13235193490982055664e-02) (4, 1.76659181714057922363e-01) (5, -9.73501279950141906738e-02) (6, -3.98332953453063964844e-01) (7, -2.58223235607147216797e-01) (8, 1.64922043681144714355e-01) (9, -1.00168973207473754883e-01) (10, -1.35989248752593994141e-01) (11, 5.82207590341567993164e-02) (12, 8.47202911972999572754e-02) (13, 4.62415348738431930542e-03) (14, 7.48146101832389831543e-02) (15, -1.54521428048610687256e-02) (16, 3.23182046413421630859e-01) (17, 6.47057890892028808594e-02) (18, -5.29053714126348495483e-03) (19, 3.30061215208843350410e-04) (20, -2.40291468799114227295e-03) (21, -1.77252234425395727158e-03) (22, -3.97669896483421325684e-03) (23, 2.33716308139264583588e-03) (24, -9.18618636205792427063e-04) (25, 1.93546526134014129639e-03) (26, 1.17060751654207706451e-03) (27, -3.33784124813973903656e-03) (28, 9.35925112571567296982e-04) (29, 4.95911715552210807800e-03) (30, -7.68910581246018409729e-03) (31, -8.36223457008600234985e-03) (32, 1.13878445699810981750e-03) 
