FANN_FLO_2.1
num_layers=3
learning_rate=0.700000
connection_rate=1.000000
network_type=0
learning_momentum=0.000000
training_algorithm=2
train_error_function=1
train_stop_function=1
cascade_output_change_fraction=0.010000
quickprop_decay=-0.000100
quickprop_mu=1.750000
rprop_increase_factor=1.200000
rprop_decrease_factor=0.500000
rprop_delta_min=0.000000
rprop_delta_max=50.000000
rprop_delta_zero=0.100000
cascade_output_stagnation_epochs=12
cascade_candidate_change_fraction=0.010000
cascade_candidate_stagnation_epochs=12
cascade_max_out_epochs=150
cascade_max_cand_epochs=150
cascade_num_candidate_groups=2
bit_fail_limit=3.49999994039535520000e-001
cascade_candidate_limit=1.00000000000000000000e+003
cascade_weight_multiplier=4.00000005960464480000e-001
cascade_activation_functions_count=10
cascade_activation_functions=3 5 7 8 10 11 14 15 16 17 
cascade_activation_steepnesses_count=4
cascade_activation_steepnesses=2.50000000000000000000e-001 5.00000000000000000000e-001 7.50000000000000000000e-001 1.00000000000000000000e+000 
layer_sizes=7 3 3 
scale_included=0
neurons (num_inputs, activation_function, activation_steepness)=(0, 0, 0.00000000000000000000e+000) (0, 0, 0.00000000000000000000e+000) (0, 0, 0.00000000000000000000e+000) (0, 0, 0.00000000000000000000e+000) (0, 0, 0.00000000000000000000e+000) (0, 0, 0.00000000000000000000e+000) (0, 0, 0.00000000000000000000e+000) (7, 5, 5.00000000000000000000e-001) (7, 5, 5.00000000000000000000e-001) (0, 5, 5.00000000000000000000e-001) (3, 3, 5.00000000000000000000e-001) (3, 3, 5.00000000000000000000e-001) (0, 3, 5.00000000000000000000e-001) 
connections (connected_to_neuron, weight)=(0, -3.74229252338409420000e-001) (1, 1.03976988792419430000e+000) (2, -1.29950320720672610000e+000) (3, 3.26929640769958500000e+000) (4, 2.35388660430908200000e+000) (5, 3.26466262340545650000e-002) (6, -1.71920740604400630000e+000) (0, -1.63838160037994380000e+000) (1, -4.41200780868530270000e+000) (2, -1.12792472839355470000e+001) (3, 1.61806976795196530000e+000) (4, 7.44560062885284420000e-001) (5, -8.44821572303771970000e-001) (6, 1.70374405384063720000e+000) (7, 5.84509754180908200000e+000) (8, 1.43463075160980220000e+000) (9, -8.29166769981384280000e-001) (7, 1.96280133724212650000e+000) (8, -2.43786287307739260000e+000) (9, -1.82319056987762450000e+000) 
