FANN_FLO_2.0
num_layers=3
learning_rate=0.700000
connection_rate=1.000000
shortcut_connections=0
learning_momentum=0.000000
training_algorithm=2
train_error_function=1
train_stop_function=0
cascade_output_change_fraction=0.010000
quickprop_decay=-0.000100
quickprop_mu=1.750000
rprop_increase_factor=1.200000
rprop_decrease_factor=0.500000
rprop_delta_min=0.000000
rprop_delta_max=50.000000
rprop_delta_zero=0.500000
cascade_output_stagnation_epochs=12
cascade_candidate_change_fraction=0.010000
cascade_candidate_stagnation_epochs=12
cascade_max_out_epochs=150
cascade_max_cand_epochs=150
cascade_num_candidate_groups=2
bit_fail_limit=3.49999994039535520000e-001
cascade_candidate_limit=1.00000000000000000000e+003
cascade_weight_multiplier=4.00000005960464480000e-001
cascade_activation_functions_count=6
cascade_activation_functions=3 5 7 8 10 11 
cascade_activation_steepnesses_count=4
cascade_activation_steepnesses=2.50000000000000000000e-001 5.00000000000000000000e-001 7.50000000000000000000e-001 1.00000000000000000000e+000 
layer_sizes=41 31 21 
neurons (num_inputs, activation_function, activation_steepness)=(0, 0, 0.00000000000000000000e+000) (0, 0, 0.00000000000000000000e+000) (0, 0, 0.00000000000000000000e+000) (0, 0, 0.00000000000000000000e+000) (0, 0, 0.00000000000000000000e+000) (0, 0, 0.00000000000000000000e+000) (0, 0, 0.00000000000000000000e+000) (0, 0, 0.00000000000000000000e+000) (0, 0, 0.00000000000000000000e+000) (0, 0, 0.00000000000000000000e+000) (0, 0, 0.00000000000000000000e+000) (0, 0, 0.00000000000000000000e+000) (0, 0, 0.00000000000000000000e+000) (0, 0, 0.00000000000000000000e+000) (0, 0, 0.00000000000000000000e+000) (0, 0, 0.00000000000000000000e+000) (0, 0, 0.00000000000000000000e+000) (0, 0, 0.00000000000000000000e+000) (0, 0, 0.00000000000000000000e+000) (0, 0, 0.00000000000000000000e+000) (0, 0, 0.00000000000000000000e+000) (0, 0, 0.00000000000000000000e+000) (0, 0, 0.00000000000000000000e+000) (0, 0, 0.00000000000000000000e+000) (0, 0, 0.00000000000000000000e+000) (0, 0, 0.00000000000000000000e+000) (0, 0, 0.00000000000000000000e+000) (0, 0, 0.00000000000000000000e+000) (0, 0, 0.00000000000000000000e+000) (0, 0, 0.00000000000000000000e+000) (0, 0, 0.00000000000000000000e+000) (0, 0, 0.00000000000000000000e+000) (0, 0, 0.00000000000000000000e+000) (0, 0, 0.00000000000000000000e+000) (0, 0, 0.00000000000000000000e+000) (0, 0, 0.00000000000000000000e+000) (0, 0, 0.00000000000000000000e+000) (0, 0, 0.00000000000000000000e+000) (0, 0, 0.00000000000000000000e+000) (0, 0, 0.00000000000000000000e+000) (0, 0, 0.00000000000000000000e+000) (41, 3, 5.00000000000000000000e-001) (41, 3, 5.00000000000000000000e-001) (41, 3, 5.00000000000000000000e-001) (41, 3, 5.00000000000000000000e-001) (41, 3, 5.00000000000000000000e-001) (41, 3, 5.00000000000000000000e-001) (41, 3, 5.00000000000000000000e-001) (41, 3, 5.00000000000000000000e-001) (41, 3, 5.00000000000000000000e-001) (41, 3, 5.00000000000000000000e-001) (41, 3, 5.00000000000000000000e-001) (41, 3, 5.00000000000000000000e-001) (41, 3, 5.00000000000000000000e-001) (41, 3, 5.00000000000000000000e-001) (41, 3, 5.00000000000000000000e-001) (41, 3, 5.00000000000000000000e-001) (41, 3, 5.00000000000000000000e-001) (41, 3, 5.00000000000000000000e-001) (41, 3, 5.00000000000000000000e-001) (41, 3, 5.00000000000000000000e-001) (41, 3, 5.00000000000000000000e-001) (41, 3, 5.00000000000000000000e-001) (41, 3, 5.00000000000000000000e-001) (41, 3, 5.00000000000000000000e-001) (41, 3, 5.00000000000000000000e-001) (41, 3, 5.00000000000000000000e-001) (41, 3, 5.00000000000000000000e-001) (41, 3, 5.00000000000000000000e-001) (41, 3, 5.00000000000000000000e-001) (41, 3, 5.00000000000000000000e-001) (0, 3, 0.00000000000000000000e+000) (31, 3, 5.00000000000000000000e-001) (31, 3, 5.00000000000000000000e-001) (31, 3, 5.00000000000000000000e-001) (31, 3, 5.00000000000000000000e-001) (31, 3, 5.00000000000000000000e-001) (31, 3, 5.00000000000000000000e-001) (31, 3, 5.00000000000000000000e-001) (31, 3, 5.00000000000000000000e-001) (31, 3, 5.00000000000000000000e-001) (31, 3, 5.00000000000000000000e-001) (31, 3, 5.00000000000000000000e-001) (31, 3, 5.00000000000000000000e-001) (31, 3, 5.00000000000000000000e-001) (31, 3, 5.00000000000000000000e-001) (31, 3, 5.00000000000000000000e-001) (31, 3, 5.00000000000000000000e-001) (31, 3, 5.00000000000000000000e-001) (31, 3, 5.00000000000000000000e-001) (31, 3, 5.00000000000000000000e-001) (31, 3, 5.00000000000000000000e-001) (0, 3, 0.00000000000000000000e+000) 
connections (connected_to_neuron, weight)=(0, -3.91673706471920010000e-002) (1, -4.82173785567283630000e-002) (2, -1.44143790006637570000e-001) (3, -4.73336409777402880000e-003) (4, -7.96778872609138490000e-002) (5, 3.79063412547111510000e-002) (6, -1.90018177032470700000e-001) (7, 3.69148934260010720000e-003) (8, -1.64071536064147950000e+000) (9, -1.63162365555763240000e-001) (10, -4.75521135330200200000e+000) (11, -6.62030458450317380000e-001) (12, 4.17205393314361570000e-001) (13, 6.33272647857666020000e-001) (14, 7.81632568359375000000e+002) (15, -9.05702486634254460000e-002) (16, -4.27233171463012700000e+000) (17, -3.79553375244140620000e+001) (18, -4.67101991176605220000e-001) (19, -4.55004158020019530000e+001) (20, -1.51994049549102780000e-001) (21, -3.79732437133789060000e+001) (22, -3.78120613098144530000e+001) (23, -4.16242742538452150000e+000) (24, -1.31788384914398190000e+000) (25, 4.31675170898437500000e+002) (26, 3.67004387080669400000e-002) (27, -7.33321428298950200000e-001) (28, 3.81813446044921870000e+002) (29, -3.24152326583862300000e+000) (30, 8.27359318733215330000e-001) (31, -7.86581542342901230000e-003) (32, -1.21788606047630310000e-001) (33, -5.14229059219360350000e+000) (34, -3.79112472534179690000e+001) (35, -3.79668998718261720000e+001) (36, -6.54800534248352050000e-002) (37, -2.00619578361511230000e-001) (38, -3.79717063903808590000e+001) (39, 9.66162309050560000000e-002) (40, -3.78604621887207030000e+001) (0, 8.94244760274887080000e-002) (1, -2.73984104394912720000e-001) (2, -7.31177851557731630000e-002) (3, -5.24879097938537600000e-002) (4, -4.25715446472167970000e+000) (5, -4.33104991912841800000e+000) (6, -3.79268341064453130000e+001) (7, -6.38019859790802000000e-001) (8, 2.52849638462066650000e-001) (9, -4.55498085021972660000e+001) (10, 3.30098062753677370000e-001) (11, -6.34345352649688720000e-001) (12, 4.43599611520767210000e-001) (13, -4.37510386109352110000e-002) (14, 1.38189620971679690000e+001) (15, -1.27552461624145510000e+000) (16, -7.28777348995208740000e-001) (17, -1.45858645439147950000e-001) (18, -5.97733199596405030000e-001) (19, -4.67090398073196410000e-001) (20, -8.20973888039588930000e-002) (21, -6.01932644844055180000e-001) (22, 2.98563659191131590000e-001) (23, -7.68152475357055660000e-001) (24, 3.90948414802551270000e+000) (25, -3.20460033416748050000e+000) (26, -5.95825202763080600000e-002) (27, -3.79817733764648440000e+001) (28, 3.31742858886718750000e+002) (29, 3.18619179725646970000e+000) (30, -2.52839535474777220000e-001) (31, -1.29434168338775630000e+000) (32, 3.74916744232177730000e+000) (33, -3.78536682128906250000e+001) (34, -8.53168547153472900000e-001) (35, -1.05815148353576660000e+000) (36, 2.90581226348876950000e-001) (37, 2.93461471796035770000e-001) (38, -1.25509217381477360000e-001) (39, -4.55769598484039310000e-001) (40, -7.32322454452514650000e+000) (0, -1.20872884988784790000e-001) (1, -1.81329727172851560000e-001) (2, -5.76445199549198150000e-002) (3, -2.15414315462112430000e-001) (4, -1.56454801559448240000e-001) (5, -1.74319788813591000000e-001) (6, -3.64993773400783540000e-002) (7, -1.10693462193012240000e-001) (8, 5.31378805637359620000e-001) (9, -1.78529337048530580000e-001) (10, -1.93247354030609130000e+000) (11, 1.81089729070663450000e-001) (12, -5.24519085884094240000e-002) (13, 5.87007164955139160000e-001) (14, -8.69914352893829350000e-001) (15, 6.52624428272247310000e-001) (16, 1.73723369836807250000e-001) (17, -1.71512842178344730000e-001) (18, -1.79192438721656800000e-001) (19, -2.76519715785980220000e-001) (20, -3.61434578895568850000e-001) (21, -2.36716911196708680000e-001) (22, -3.41346204280853270000e-001) (23, -1.21828727424144740000e-001) (24, 6.77020370960235600000e-001) (25, -7.71702080965042110000e-002) (26, 3.38684096932411190000e-002) (27, 2.11177587509155270000e+000) (28, 4.57163095474243160000e-001) (29, -1.70082592964172360000e+000) (30, -2.05492377281188960000e+000) (31, 1.02133888244628910000e+002) (32, -1.75194635987281800000e-001) (33, -3.07565361261367800000e-001) (34, -1.88668891787528990000e-001) (35, -4.09395366907119750000e-001) (36, -3.11864435672760010000e-001) (37, -3.81587177515029910000e-001) (38, -3.92614573240280150000e-001) (39, -4.42297220230102540000e-001) (40, -2.15223133563995360000e-001) (0, -8.23275446891784670000e-001) (1, -4.39554214477539060000e-001) (2, -6.39712810516357420000e-001) (3, -6.79416179656982420000e-001) (4, -8.32180500030517580000e-001) (5, -7.29256927967071530000e-001) (6, -3.58486175537109380000e-001) (7, -6.86630547046661380000e-001) (8, 7.20597684383392330000e-001) (9, 6.44027352333068850000e-001) (10, 2.19865798950195310000e+000) (11, 1.01329885423183440000e-001) (12, -3.07657606899738310000e-002) (13, 5.66307258605957030000e+000) (14, -9.21289205551147460000e-001) (15, 4.66616861522197720000e-002) (16, 8.42462360858917240000e-001) (17, 5.89989318847656250000e+001) (18, 1.02588391304016110000e+000) (19, 7.08087615966796880000e+001) (20, 1.99971660971641540000e-001) (21, 5.90254516601562500000e+001) (22, 1.75630440935492520000e-003) (23, -4.09257709980010990000e-001) (24, 1.60645079612731930000e+000) (25, -7.57735967636108400000e-001) (26, 6.05285651981830600000e-002) (27, 2.16984942555427550000e-001) (28, 8.43767002224922180000e-002) (29, -1.08511544764041900000e-001) (30, -7.44110107421875000000e-001) (31, 1.68640494346618650000e-001) (32, 6.20420634746551510000e-001) (33, 2.90119856595993040000e-001) (34, 8.38442966341972350000e-002) (35, -1.01518452167510990000e-001) (36, -6.50657713413238530000e-002) (37, -6.79041922092437740000e-001) (38, 5.58922588825225830000e-001) (39, -6.67610347270965580000e-001) (40, -2.71195530891418460000e-001) (0, -3.56759428977966310000e-001) (1, -2.86043852567672730000e-001) (2, -3.23543816804885860000e-001) (3, -3.06118279695510860000e-001) (4, -2.19350740313529970000e-001) (5, -1.58236160874366760000e-001) (6, -1.99818655848503110000e-001) (7, -5.09813010692596440000e-001) (8, -1.59812763333320620000e-001) (9, -8.31971287727355960000e-001) (10, 1.14135611057281490000e+000) (11, -1.43980234861373900000e-001) (12, -3.76560630798339840000e+001) (13, 1.21537375450134280000e+000) (14, -3.77747840881347660000e+001) (15, 7.56767639160156250000e+002) (16, 1.40442967414855960000e-001) (17, 4.09514465332031250000e+001) (18, -1.42048096656799320000e+000) (19, -4.64442893862724300000e-002) (20, -3.54489356279373170000e-001) (21, 4.93580932617187500000e+001) (22, 3.42593116760253910000e+001) (23, 7.06754028320312500000e+002) (24, -1.88311457633972170000e-001) (25, -3.09485864639282230000e+000) (26, 5.75012229382991790000e-002) (27, -1.75376728177070620000e-001) (28, -7.65626728534698490000e-001) (29, -1.20791448280215260000e-002) (30, 4.09237295389175420000e-001) (31, 2.87160720825195310000e+001) (32, -4.53913574218750000000e+001) (33, -2.24135056138038640000e-001) (34, -1.94967150688171390000e-001) (35, -1.04152870178222660000e+000) (36, -8.20297241210937500000e-001) (37, -6.65625035762786870000e-001) (38, -3.15845072269439700000e-001) (39, -5.26764988899230960000e-001) (40, 1.44887240603566170000e-002) (0, 4.08608764410018920000e-001) (1, -3.25282700359821320000e-002) (2, -1.94963794201612470000e-002) (3, -4.49419319629669190000e-002) (4, -4.74857445806264880000e-003) (5, -1.35491967201232910000e-001) (6, 7.66698420047760010000e-001) (7, 2.74471580982208250000e-001) (8, -7.15535208582878110000e-002) (9, 6.84246778488159180000e-001) (10, 1.28391389846801760000e+001) (11, 4.89203818142414090000e-002) (12, 4.69450712203979490000e-001) (13, 6.35771811008453370000e-001) (14, -4.55524368286132810000e+001) (15, -9.40052140504121780000e-003) (16, 3.03019396960735320000e-002) (17, 5.91658058166503910000e+001) (18, 5.90536079406738280000e+001) (19, 7.07735519409179690000e+001) (20, 3.73331069946289060000e-001) (21, 4.91926803588867190000e+001) (22, -2.18022594451904300000e+001) (23, -4.01944965124130250000e-002) (24, -2.34639197587966920000e-002) (25, 3.86076867580413820000e-001) (26, 6.83288574218750000000e-002) (27, 8.67822486907243730000e-003) (28, 1.21954536437988280000e+000) (29, 9.05703008174896240000e-003) (30, -1.36918234825134280000e+000) (31, 2.67633467912673950000e-001) (32, 1.57147204875946040000e+000) (33, -1.85926988720893860000e-001) (34, -2.27600440382957460000e-001) (35, -8.16306099295616150000e-002) (36, 7.97507390379905700000e-002) (37, -8.59978675842285160000e-001) (38, 3.74741435050964360000e-001) (39, 2.56882995367050170000e-001) (40, 6.58913701772689820000e-003) (0, -7.28525459766387940000e-001) (1, -3.72144281864166260000e-001) (2, -4.17285889387130740000e-001) (3, -3.91889154911041260000e-001) (4, -3.59949439764022830000e-001) (5, -4.14252430200576780000e-001) (6, -3.73639643192291260000e-001) (7, -4.35333967208862300000e-001) (8, -3.36042165756225590000e-001) (9, 7.44624853134155270000e-001) (10, 8.89989089965820310000e+000) (11, -6.75534784793853760000e-001) (12, 9.99244824051856990000e-002) (13, 7.81823608398437500000e+002) (14, -7.28807926177978520000e-001) (15, -1.84396207332611080000e-001) (16, -9.31532159447669980000e-002) (17, 4.91616973876953130000e+001) (18, -1.47818527221679690000e+001) (19, 2.56376534700393680000e-001) (20, 1.47087539672851560000e+002) (21, -1.46257791519165040000e+001) (22, 4.85014915466308590000e-002) (23, -5.97312545776367190000e+000) (24, 2.31929309666156770000e-002) (25, -3.72833800315856930000e+000) (26, 5.04455566406250000000e-002) (27, -1.28237545490264890000e-001) (28, 1.68345499038696290000e+000) (29, 9.64016246795654300000e+000) (30, -7.68187761306762700000e-001) (31, 2.82660999298095700000e+001) (32, -6.87894344329833980000e-001) (33, -3.36108863353729250000e-001) (34, -3.72052907943725590000e-001) (35, -7.18299925327301030000e-001) (36, -3.58611792325973510000e-001) (37, -4.53333435058593750000e+001) (38, 1.19750760495662690000e-001) (39, -5.39608418941497800000e-001) (40, -3.41876924037933350000e-001) (0, 1.09634876251220700000e-001) (1, -4.12026559934020040000e-003) (2, 7.33213797211647030000e-002) (3, 1.66192516684532170000e-001) (4, 2.58906204253435130000e-002) (5, 7.90966488420963290000e-003) (6, 5.60568049550056460000e-002) (7, 1.17552857846021650000e-002) (8, 1.82781480252742770000e-002) (9, 7.81704833984375000000e+002) (10, 4.32471930980682370000e-001) (11, 1.56222307682037350000e+000) (12, 7.39625915884971620000e-002) (13, -7.22527503967285160000e-002) (14, -4.55038032531738280000e+001) (15, 1.75293773412704470000e-001) (16, -2.77299404144287110000e-001) (17, -1.99720573425292970000e+001) (18, -2.54673576354980470000e+000) (19, -1.49991178512573240000e+000) (20, -8.98911237716674800000e-001) (21, -3.64528322219848630000e+000) (22, -1.99610710144042970000e+001) (23, -2.85506218671798710000e-001) (24, 6.76168054342269900000e-002) (25, 1.31949886679649350000e-001) (26, -1.06445318087935450000e-002) (27, 1.56018543243408200000e+000) (28, -3.98697435855865480000e-001) (29, -4.54653015136718750000e+001) (30, -5.13550281524658200000e-001) (31, 7.94226408004760740000e-001) (32, 6.05429828166961670000e-001) (33, 1.66422560811042790000e-001) (34, -1.77451699972152710000e-001) (35, -9.43681359291076660000e-001) (36, -1.99921041727066040000e-001) (37, -4.55368423461914060000e+001) (38, -9.66535925865173340000e-001) (39, 4.02904063463211060000e-001) (40, -3.39918285608291630000e-001) (0, -8.61172854900360110000e-001) (1, -9.89185422658920290000e-002) (2, -1.71605408191680910000e-001) (3, -1.05833917856216430000e-001) (4, -9.43353474140167240000e-002) (5, -4.00567911565303800000e-002) (6, 2.42879311554133890000e-003) (7, -1.02671690285205840000e-001) (8, -3.79082984924316410000e+001) (9, 9.54284381866455080000e+000) (10, 9.51212501525878910000e+000) (11, -4.54229583740234380000e+001) (12, -2.06378728151321410000e-001) (13, 1.14887228012084960000e+001) (14, -4.50293689966201780000e-001) (15, 1.14163562655448910000e-001) (16, -1.16774916648864750000e+000) (17, -1.30961105227470400000e-001) (18, -1.82964429259300230000e-001) (19, -8.85431766510009770000e-002) (20, 1.96262791752815250000e-001) (21, -2.07628741860389710000e-001) (22, -6.39278888702392580000e-002) (23, -1.00187152624130250000e-001) (24, -3.79949340820312500000e+001) (25, -3.29322195053100590000e+000) (26, 3.57055664062500000000e-002) (27, 7.87452533841133120000e-002) (28, -4.21495628356933590000e+000) (29, 2.19132542610168460000e-001) (30, -2.68590426445007320000e+000) (31, 4.00071948766708370000e-001) (32, -2.77029454708099370000e-001) (33, -1.39453023672103880000e-001) (34, -1.68569967150688170000e-001) (35, 1.24608121812343600000e-001) (36, -1.36176515370607380000e-002) (37, -1.23980414867401120000e+000) (38, -6.97460472583770750000e-002) (39, 2.81733581542968750000e+002) (40, -2.27276850491762160000e-002) (0, -1.92417776584625240000e+000) (1, -4.45626936852931980000e-002) (2, -1.11278571188449860000e-001) (3, 4.23659663647413250000e-003) (4, 3.96828502416610720000e-001) (5, 3.84548217058181760000e-001) (6, 3.85421007871627810000e-001) (7, -9.99077618122100830000e-001) (8, -5.29029726982116700000e-001) (9, 2.19374090433120730000e-001) (10, 1.02952495217323300000e-003) (11, -3.46046333312988280000e+001) (12, 4.83024597167968750000e-001) (13, 4.04218763113021850000e-001) (14, -9.02803719043731690000e-001) (15, 3.38944084942340850000e-002) (16, -5.07853567600250240000e-001) (17, -6.27910971641540530000e-001) (18, -1.43178313970565800000e-001) (19, -9.68447983264923100000e-001) (20, -5.53698316216468810000e-002) (21, -7.78495967388153080000e-001) (22, -4.55310668945312500000e+001) (23, -2.30646044015884400000e-001) (24, -1.31260722875595090000e-001) (25, 2.92081832885742190000e-001) (26, 2.70385742187500000000e-002) (27, -1.36583077907562260000e+000) (28, -7.59871602058410640000e-002) (29, 7.81693542480468750000e+002) (30, -3.78960647583007810000e+001) (31, 1.16754695773124690000e-001) (32, -4.53465957641601560000e+001) (33, 2.23580896854400630000e-001) (34, 3.06541562080383300000e-001) (35, 1.67624950408935550000e+001) (36, 5.37451982498168950000e-001) (37, -6.83040320873260500000e-002) (38, 1.58974921703338620000e+000) (39, 5.19822180271148680000e-001) (40, -2.14994087815284730000e-001) (0, 1.42710387706756590000e+000) (1, 8.59958231449127200000e-002) (2, 2.09679678082466130000e-001) (3, 3.39947044849395750000e-001) (4, 8.11708644032478330000e-002) (5, 3.33559215068817140000e-002) (6, -4.99893039464950560000e-001) (7, -2.86200903356075290000e-002) (8, 1.09062075614929200000e+000) (9, -6.78012847900390630000e-001) (10, 8.22465658187866210000e-001) (11, 2.34799957275390620000e+002) (12, 2.06708952784538270000e-001) (13, -7.45244026184082030000e-001) (14, 2.34862289428710940000e+002) (15, -3.79892234802246090000e+001) (16, -2.00009122490882870000e-001) (17, -7.85077691078186040000e-001) (18, -1.14499139785766600000e+000) (19, 1.87999010086059570000e+000) (20, -4.93107736110687260000e-001) (21, -5.21865844726562500000e-001) (22, 1.83387041091918950000e-001) (23, -1.33340537548065190000e+000) (24, 1.58253145217895510000e+000) (25, -1.17162265777587890000e+001) (26, -3.57482917606830600000e-002) (27, 6.11016798019409180000e+000) (28, -2.46505692601203920000e-001) (29, 6.08806705474853520000e+000) (30, 1.28539037704467770000e+000) (31, -3.79679107666015630000e+001) (32, 8.57023715972900390000e-001) (33, 8.16411003470420840000e-002) (34, -2.97419100999832150000e-001) (35, -7.17489004135131840000e-001) (36, -4.49375897645950320000e-001) (37, -1.92721247673034670000e-001) (38, 7.79766310006380080000e-003) (39, -7.54799187183380130000e-001) (40, -3.97446453571319580000e-001) (0, -5.20043909549713130000e-001) (1, -8.76249250723049040000e-005) (2, 3.18636884912848470000e-003) (3, -6.62228241562843320000e-002) (4, 4.86172959208488460000e-002) (5, -1.07028469443321230000e-001) (6, 5.63431829214096070000e-002) (7, -1.97838678956031800000e-001) (8, -2.84878462553024290000e-002) (9, -4.14437055587768550000e-002) (10, 7.81769531250000000000e+002) (11, -6.32047235965728760000e-001) (12, 1.28376826643943790000e-001) (13, 1.07900495529174800000e+001) (14, 2.26209029555320740000e-001) (15, -3.03441405296325680000e-001) (16, 2.18203421682119370000e-002) (17, -5.71126230061054230000e-002) (18, -3.40729296207427980000e-001) (19, -1.38950526714324950000e-001) (20, 4.36354666948318480000e-001) (21, -3.43882918357849120000e-001) (22, -1.44498243927955630000e-001) (23, -2.22265928983688350000e-001) (24, -1.42043931409716610000e-002) (25, 7.82772973179817200000e-002) (26, -5.66040053963661190000e-002) (27, -2.14391812682151790000e-001) (28, 3.86837601661682130000e-001) (29, 2.12332755327224730000e-001) (30, -1.25979080796241760000e-001) (31, -3.26176971197128300000e-001) (32, -3.77186431884765620000e+001) (33, 4.82508093118667600000e-001) (34, -5.79735226929187770000e-002) (35, 5.52054531872272490000e-002) (36, 7.87672698497772220000e-001) (37, 5.02773467451334000000e-003) (38, -1.44710466265678410000e-001) (39, -5.71285188198089600000e-001) (40, -9.67704057693481450000e-002) (0, -3.79369812011718750000e+001) (1, -1.08667261898517610000e-001) (2, -1.42845913767814640000e-001) (3, 1.61751154810190200000e-002) (4, -1.68039768934249880000e-001) (5, -1.16019502282142640000e-001) (6, -2.44020089507102970000e-001) (7, -1.01344668865203860000e+000) (8, -1.48436939343810080000e-002) (9, 1.41257002949714660000e-001) (10, -1.08859673142433170000e-001) (11, -2.85858660936355590000e-001) (12, 1.17650675773620610000e+000) (13, 7.60915219783782960000e-001) (14, 2.81771850585937500000e+002) (15, 5.42207539081573490000e-001) (16, 2.51961171627044680000e-001) (17, 4.05049771070480350000e-001) (18, 4.29639369249343870000e-002) (19, -1.06995248794555660000e+000) (20, 1.46470084786415100000e-001) (21, 5.52007928490638730000e-002) (22, 4.44939523935317990000e-001) (23, 3.68219733238220210000e-001) (24, 3.49502384662628170000e-001) (25, -3.28777861595153810000e+000) (26, -3.27758789062500000000e-002) (27, -2.99513369798660280000e-001) (28, 2.84617394208908080000e-001) (29, -2.47071683406829830000e-002) (30, -6.96823716163635250000e-001) (31, 2.34801620483398440000e+002) (32, -3.79739303588867190000e+001) (33, 7.53781259059906010000e-001) (34, -1.93286985158920290000e-001) (35, -2.46396899223327640000e-001) (36, -1.08505010604858400000e+000) (37, -1.08018442988395690000e-001) (38, 1.83524405956268310000e+000) (39, 8.02202969789505000000e-002) (40, 3.49178314208984380000e-002) (0, 2.08383444696664810000e-002) (1, -1.52021244168281560000e-001) (2, -1.94085866212844850000e-001) (3, -2.74017512798309330000e-001) (4, -2.52690851688385010000e-001) (5, -1.58068031072616580000e-001) (6, -2.98034757375717160000e-001) (7, -1.26580893993377690000e-001) (8, -5.85619211196899410000e-001) (9, 1.92451134324073790000e-001) (10, 6.38498008251190190000e-001) (11, -4.55012702941894530000e+001) (12, -1.54955253005027770000e-001) (13, -3.73353183269500730000e-001) (14, -5.97419023513793950000e+000) (15, -4.76659126579761510000e-002) (16, -6.01449549198150630000e-001) (17, 7.81828979492187500000e+002) (18, 9.29332971572875980000e-001) (19, -3.81134115159511570000e-002) (20, 1.93360894918441770000e-001) (21, 7.81655761718750000000e+002) (22, 7.81661743164062500000e+002) (23, -1.13516815006732940000e-001) (24, -3.15591931343078610000e-001) (25, -7.54212811589241030000e-002) (26, 4.53857444226741790000e-002) (27, -4.55568847656250000000e+001) (28, 1.87967360019683840000e-001) (29, -6.31271973252296450000e-002) (30, 2.77534395456314090000e-001) (31, -1.76669880747795100000e-001) (32, 1.81927251815795900000e+000) (33, -7.27008998394012450000e-001) (34, -4.37154829502105710000e-001) (35, -3.03823590278625490000e-001) (36, -7.75916734710335730000e-003) (37, -1.69783726334571840000e-001) (38, -5.73578834533691410000e-001) (39, -1.71424984931945800000e-001) (40, -1.53197064995765690000e-001) (0, 1.70387506484985350000e-001) (1, -2.01382428407669070000e-001) (2, -2.18167066574096680000e-001) (3, -3.11099201440811160000e-001) (4, -2.84720778465271000000e-001) (5, -2.28733241558074950000e-001) (6, -2.73294270038604740000e-001) (7, -2.55091249942779540000e-001) (8, -5.85481286048889160000e-001) (9, 9.90745425224304200000e-003) (10, -1.94758698344230650000e-002) (11, -6.39471769332885740000e-001) (12, 4.47895154356956480000e-002) (13, 1.22727803885936740000e-001) (14, -8.17694544792175290000e-001) (15, 7.15199410915374760000e-001) (16, -4.37819123268127440000e-001) (17, 2.81718963623046870000e+002) (18, 2.81729492187500000000e+002) (19, -3.87892752885818480000e-001) (20, -2.44156077504158020000e-001) (21, 2.81669769287109370000e+002) (22, 1.25833487510681150000e+000) (23, 4.85595673322677610000e-001) (24, -5.94782531261444090000e-001) (25, 4.19368356466293330000e-001) (26, -8.44421386718750000000e-002) (27, -4.16744977235794070000e-001) (28, -1.37378036975860600000e-001) (29, -9.09848034381866460000e-001) (30, -1.23952424526214600000e+000) (31, 1.44811412319540980000e-002) (32, 1.22063636779785160000e+000) (33, -4.54744338989257810000e+001) (34, -2.62658506631851200000e-001) (35, -2.73269206285476680000e-001) (36, -1.12892240285873410000e-001) (37, -5.83690345287323000000e-001) (38, -4.55812339782714840000e+001) (39, -1.99334025382995610000e-001) (40, -1.07960931956768040000e-001) (0, 1.49931266903877260000e-001) (1, -1.03136911988258360000e-001) (2, -1.94196879863739010000e-001) (3, -1.16084054112434390000e-001) (4, 3.94329614937305450000e-002) (5, 3.90545427799224850000e-002) (6, 1.19498878717422490000e-001) (7, -5.36308139562606810000e-002) (8, -2.29702368378639220000e-002) (9, -4.54769325256347660000e+001) (10, 2.21927925944328310000e-001) (11, 5.36974035203456880000e-002) (12, -1.10272102057933810000e-001) (13, 5.92097511291503910000e+001) (14, 3.31735961914062500000e+002) (15, -3.78062171936035160000e+001) (16, -1.85790449380874630000e-001) (17, -1.83224350214004520000e-001) (18, -1.36799812316894530000e-001) (19, -1.91655635833740230000e-001) (20, -2.20193222165107730000e-001) (21, -4.78051900863647460000e-002) (22, -1.81131005287170410000e-001) (23, -4.29109144210815430000e+000) (24, -1.54903098940849300000e-001) (25, 3.28777760267257690000e-001) (26, -6.79504424333572390000e-002) (27, 3.19663858413696290000e+000) (28, -5.17281055450439450000e-001) (29, -1.67775547504425050000e+000) (30, 3.31705749511718750000e+002) (31, -3.79624862670898440000e+001) (32, 1.10863655805587770000e-001) (33, -1.56178706674836580000e-004) (34, 1.94808438420295720000e-001) (35, 2.26968564093112950000e-002) (36, 1.19063150882720950000e+000) (37, 1.69758051633834840000e-002) (38, -1.59075558185577390000e+000) (39, -1.47692894935607910000e+000) (40, -2.25598923861980440000e-002) (0, -1.02449774742126460000e-001) (1, -1.65024504065513610000e-001) (2, -3.48179847002029420000e-001) (3, -3.28087061643600460000e-001) (4, -1.97370931506156920000e-001) (5, -1.65809661149978640000e-001) (6, -8.95304381847381590000e-002) (7, 1.70053611509501930000e-003) (8, -7.72984802722930910000e-001) (9, -3.79887924194335940000e+001) (10, 5.24303770065307620000e+000) (11, -9.23490107059478760000e-001) (12, -3.52155417203903200000e-001) (13, 5.90235328674316410000e+001) (14, -3.28402829170227050000e+000) (15, -3.79725685119628910000e+001) (16, -2.52500057220458980000e-001) (17, 1.61382526159286500000e-001) (18, -1.32378339767456050000e-001) (19, 2.12060585618019100000e-001) (20, -7.25789815187454220000e-002) (21, -6.54154956340789790000e-001) (22, 8.55020880699157710000e-002) (23, -3.04849892854690550000e-001) (24, -3.79778976440429690000e+001) (25, 1.06490337848663330000e+000) (26, 7.94189497828483580000e-002) (27, 3.31650665283203120000e+002) (28, -7.47205495834350590000e-001) (29, 2.86365199089050290000e+000) (30, -2.78340633958578110000e-002) (31, -4.55103416442871090000e+001) (32, -3.78393707275390620000e+001) (33, -2.12972983717918400000e-001) (34, 3.31706024169921870000e+002) (35, 3.31663421630859370000e+002) (36, 9.71930027008056640000e-001) (37, 1.14594399929046630000e-001) (38, -7.70812153816223140000e-001) (39, 1.32815137505531310000e-001) (40, -2.10584215819835660000e-002) (0, -3.20519745349884030000e-001) (1, -2.29770228266716000000e-001) (2, -3.79451811313629150000e-001) (3, -3.41066807508468630000e-001) (4, -9.05459299683570860000e-002) (5, -8.72683376073837280000e-002) (6, 6.27072453498840330000e-002) (7, -4.83504152297973630000e+000) (8, -1.96264162659645080000e-001) (9, -4.22282099723815920000e-001) (10, 2.22053489685058590000e+001) (11, -5.17732918262481690000e-001) (12, -1.86751484870910640000e-001) (13, 7.81736816406250000000e+002) (14, 1.53461471199989320000e-001) (15, -3.63985091447830200000e-001) (16, -2.02820122241973880000e-001) (17, -1.55763149261474610000e-001) (18, -1.72004595398902890000e-001) (19, -2.63267666101455690000e-001) (20, -1.44617324694991110000e-002) (21, -2.28437721729278560000e-001) (22, -1.79353222250938420000e-001) (23, -3.36816698312759400000e-001) (24, -1.89232915639877320000e-001) (25, 1.22711967468261720000e+002) (26, -9.82604995369911190000e-002) (27, 7.35853239893913270000e-002) (28, 4.81833606958389280000e-001) (29, -3.77420196533203130000e+001) (30, 1.47139862060546870000e+002) (31, -4.12080854177474980000e-001) (32, 4.75224614143371580000e-001) (33, -1.18086814880371090000e-001) (34, 7.32824346050620080000e-003) (35, 2.30131769180297850000e+000) (36, 2.01952099800109860000e+000) (37, 5.78362882137298580000e-001) (38, -2.74004131555557250000e-001) (39, -3.77410697937011720000e+000) (40, -2.90307909250259400000e-001) (0, -2.63652838766574860000e-002) (1, -3.78305282592773440000e+001) (2, -3.78156051635742190000e+001) (3, -3.79673881530761720000e+001) (4, -3.77988929748535160000e+001) (5, -3.79200859069824220000e+001) (6, -3.77805786132812500000e+001) (7, 7.07388073205947880000e-002) (8, -3.79233360290527340000e+001) (9, -1.79169580340385440000e-001) (10, 3.38107883930206300000e-001) (11, 4.81771148681640620000e+002) (12, -2.46409937739372250000e-001) (13, 2.83347988128662110000e+001) (14, -3.78580713272094730000e+000) (15, -3.78671607971191410000e+001) (16, -3.79358329772949220000e+001) (17, 5.31804016113281250000e+002) (18, 4.31684722900390620000e+002) (19, 6.86799335479736330000e+000) (20, -2.05089241266250610000e-001) (21, 5.31701782226562500000e+002) (22, 1.15006780624389650000e+000) (23, -3.78777999877929690000e+001) (24, -3.79058418273925780000e+001) (25, 1.05086520314216610000e-001) (26, 1.00158695131540300000e-002) (27, 5.31782958984375000000e+002) (28, -7.53859937191009520000e-001) (29, 4.41134311258792880000e-002) (30, -2.63324427604675290000e+000) (31, -3.79595489501953130000e+001) (32, -3.45855839550495150000e-002) (33, -3.78148002624511720000e+001) (34, -2.45207592844963070000e-001) (35, -9.63317203521728520000e+000) (36, -3.79622650146484380000e+001) (37, -6.37819230556488040000e-001) (38, -1.15271055698394780000e+000) (39, 2.74423956871032710000e-001) (40, -3.77794418334960940000e+001) (0, -8.36318254470825200000e-001) (1, -2.54599601030349730000e-001) (2, -3.64684432744979860000e-001) (3, -2.96764492988586430000e-001) (4, -3.64513516426086430000e-001) (5, -3.18645656108856200000e-001) (6, -1.87289699912071230000e-001) (7, -6.80929541587829590000e-001) (8, -1.20635256171226500000e-002) (9, 1.54467850923538210000e-001) (10, 3.36124926805496220000e-001) (11, -5.42015969753265380000e-001) (12, -8.27590227127075200000e-001) (13, 3.81664581298828120000e+002) (14, 3.31818389892578120000e+002) (15, -1.34780749678611760000e-001) (16, 1.47070133686065670000e+000) (17, 3.81749114990234370000e+002) (18, 1.20224916934967040000e+000) (19, -7.12420195341110230000e-002) (20, -9.47890207171440120000e-002) (21, 1.03411030769348140000e+000) (22, 3.81713775634765620000e+002) (23, 1.52263677120208740000e+000) (24, 1.12335419654846190000e+000) (25, -3.98370981216430660000e+000) (26, 4.09057624638080600000e-002) (27, -9.38160419464111330000e-002) (28, -4.55216102600097660000e+001) (29, -1.45945295691490170000e-001) (30, 4.25308138132095340000e-001) (31, -6.04519806802272800000e-002) (32, -3.79784088134765630000e+001) (33, -6.77218586206436160000e-002) (34, -2.18782916665077210000e-001) (35, -7.72365033626556400000e-001) (36, -4.55361061096191410000e+001) (37, -4.55755195617675780000e+001) (38, -2.01656118035316470000e-001) (39, -1.07002317905426030000e+000) (40, 3.88048700988292690000e-002) (0, -3.76239280700683590000e+001) (1, -1.37634068727493290000e-001) (2, -1.39855757355690000000e-001) (3, -4.63193841278553010000e-002) (4, -1.14983946084976200000e-001) (5, -6.25181347131729130000e-002) (6, -1.06335259974002840000e-001) (7, -4.54057350158691410000e+001) (8, 1.00228898227214810000e-001) (9, 7.81730285644531250000e+002) (10, 7.81732788085937500000e+002) (11, -4.56754624843597410000e-001) (12, -1.15651822090148930000e+000) (13, 4.56701293945312500000e+002) (14, -7.01851606369018550000e-001) (15, 3.10531973838806150000e-001) (16, 1.02523811161518100000e-001) (17, 7.10133590698242190000e+001) (18, 1.19380399584770200000e-001) (19, 1.22660865783691410000e+002) (20, 6.54334485530853270000e-001) (21, -4.02851738035678860000e-002) (22, 1.35363414883613590000e-001) (23, 4.26239594817161560000e-002) (24, 1.80574029684066770000e-001) (25, -8.45316469669342040000e-001) (26, 6.19506835937500000000e-002) (27, 2.73556447029113770000e+000) (28, 2.91879504919052120000e-001) (29, 1.76518188476562500000e+002) (30, -8.51564764976501460000e-001) (31, 7.86660134792327880000e-001) (32, -8.90706539154052730000e-001) (33, 3.90269815921783450000e-001) (34, -2.49372988939285280000e-001) (35, -3.80205363035202030000e-001) (36, 8.81399437785148620000e-002) (37, -6.39389678835868840000e-002) (38, 2.42874360084533690000e+000) (39, -3.76245040893554690000e+001) (40, -1.01878149434924130000e-002) (0, -6.57849407196044920000e+000) (1, 2.26361528038978580000e-001) (2, 1.45543560385704040000e-001) (3, 2.79161751270294190000e-001) (4, 2.24114522337913510000e-001) (5, 1.05425544083118440000e-001) (6, 2.42401361465454100000e-001) (7, -1.07685422897338870000e+000) (8, -4.48489449918270110000e-002) (9, -2.24102497100830080000e+000) (10, 1.40457510948181150000e+000) (11, 7.81725158691406250000e+002) (12, -8.01605892181396480000e+000) (13, -3.06342363357543950000e-001) (14, -4.54512557983398440000e+001) (15, 4.47466224431991580000e-001) (16, -4.51633557677268980000e-002) (17, -6.84221863746643070000e-001) (18, -3.79476966857910160000e+001) (19, -3.78005142211914060000e+001) (20, -4.55409317016601560000e+001) (21, -5.85375785827636720000e-001) (22, -4.54913063049316410000e+001) (23, -1.62517130374908450000e-001) (24, -3.34928631782531740000e-001) (25, 3.03559362888336180000e-001) (26, -5.85327148437500000000e-002) (27, -1.53303861618041990000e-001) (28, 9.89413261413574220000e-003) (29, 7.44905185699462890000e+000) (30, -2.80559342354536060000e-003) (31, 2.20271617174148560000e-001) (32, -6.48769021034240720000e-001) (33, -3.46952557563781740000e-001) (34, -2.51874375343322750000e+000) (35, 4.48792241513729100000e-002) (36, 4.49124611914157870000e-002) (37, 1.02479942142963410000e-001) (38, 5.98679065704345700000e-001) (39, -1.24603378772735600000e+000) (40, -7.04114913940429690000e-001) (0, -2.19140648841857910000e-002) (1, -1.15667390823364260000e+000) (2, -1.20416605472564700000e+000) (3, -1.21199083328247070000e+000) (4, -2.17476919293403630000e-001) (5, -1.73452273011207580000e-001) (6, -8.86827856302261350000e-002) (7, 1.04850098490715030000e-001) (8, -8.22959989309310910000e-002) (9, -2.80671000480651860000e+000) (10, -4.54218177795410160000e+001) (11, 2.11945104598999020000e+000) (12, 3.81656280517578120000e+002) (13, 1.76680801391601560000e+002) (14, -4.55534095764160160000e+001) (15, -3.79333534240722660000e+001) (16, -3.78452453613281250000e+001) (17, -4.60853636264801030000e-001) (18, -4.08287405967712400000e-001) (19, -3.85735899209976200000e-001) (20, 5.78289851546287540000e-003) (21, -4.21192973852157590000e-001) (22, -6.45298600196838380000e-001) (23, -3.78990631103515630000e+001) (24, -1.58703953027725220000e-001) (25, 8.50690994262695310000e+001) (26, -3.93371582031250000000e-002) (27, 9.57399463653564450000e+000) (28, 6.71524238586425780000e+000) (29, -2.49279096722602840000e-001) (30, -1.66871690750122070000e+000) (31, -3.77981414794921880000e+001) (32, 2.38998979330062870000e-001) (33, -7.23572313785552980000e-001) (34, 3.34497451782226560000e+000) (35, 3.67749154567718510000e-001) (36, 4.36008006334304810000e-001) (37, 8.00056681036949160000e-002) (38, -1.48887202143669130000e-001) (39, 2.21509158611297610000e-001) (40, -3.78826026916503910000e+001) (0, -3.77506446838378910000e+001) (1, 6.70382678508758540000e-002) (2, -9.57902986556291580000e-003) (3, 7.37888887524604800000e-002) (4, 8.02698209881782530000e-002) (5, 5.63074126839637760000e-002) (6, 1.73467576503753660000e-001) (7, 2.81918831169605260000e-002) (8, -8.86941328644752500000e-002) (9, -4.52456970214843750000e+001) (10, 8.41676533222198490000e-001) (11, -3.75358641147613530000e-001) (12, -9.70538675785064700000e-001) (13, 1.54510612487792970000e+001) (14, -7.94008135795593260000e-001) (15, -9.81170117855072020000e-001) (16, 4.15985584259033200000e-002) (17, -6.38066232204437260000e-002) (18, -1.95685163140296940000e-001) (19, 5.42673561722040180000e-003) (20, -3.49575616419315340000e-002) (21, -1.27523660659790040000e-001) (22, 2.70099639892578130000e-002) (23, 1.44528567790985110000e-001) (24, -7.38196820020675660000e-002) (25, -2.04309850931167600000e-001) (26, -5.29235862195491790000e-002) (27, 6.67397320270538330000e-001) (28, 3.50764989852905270000e-001) (29, -3.03935587406158450000e-001) (30, -5.42980790138244630000e-001) (31, -1.39265060424804690000e+000) (32, -3.76567192077636720000e+001) (33, 1.78357571363449100000e-001) (34, 1.06329512596130370000e+000) (35, 4.84600782394409180000e+000) (36, 3.78104031085968020000e-001) (37, 3.16582471132278440000e-001) (38, 4.06775146484375000000e+002) (39, -3.77614097595214840000e+001) (40, 8.89402702450752260000e-002) (0, -1.19240857660770420000e-001) (1, -2.89009213447570800000e-001) (2, -2.29658618569374080000e-001) (3, -3.56080740690231320000e-001) (4, -3.66969406604766850000e-001) (5, -3.58082681894302370000e-001) (6, -1.48491606116294860000e-001) (7, 4.51001115143299100000e-002) (8, -8.39435085654258730000e-002) (9, 4.79772758483886720000e+000) (10, 8.12616169452667240000e-001) (11, 7.08866729736328130000e+001) (12, -3.06811779737472530000e-001) (13, 4.56690521240234370000e+002) (14, -8.55580031871795650000e-001) (15, 2.14665383100509640000e-001) (16, -2.51562178134918210000e-001) (17, -4.29966952651739120000e-003) (18, -4.63777743279933930000e-002) (19, 1.06891341507434840000e-001) (20, -5.40141612291336060000e-002) (21, -1.25399976968765260000e-001) (22, -3.14980816841125490000e+000) (23, -1.30568191409111020000e-001) (24, -8.67786072194576260000e-003) (25, -3.08583474159240720000e+000) (26, 2.15026866644620900000e-002) (27, 7.08855438232421880000e+001) (28, 1.23214140534400940000e-001) (29, 1.50736129283905030000e+000) (30, -3.80596065521240230000e+000) (31, 2.40580037236213680000e-001) (32, -1.75718978047370910000e-001) (33, 1.03041946887969970000e-001) (34, 4.25021141767501830000e-001) (35, -1.05650693178176880000e-001) (36, -2.64196664094924930000e-001) (37, 5.74982091784477230000e-002) (38, 2.53551542758941650000e-001) (39, -5.82447508350014690000e-003) (40, -1.96714118123054500000e-001) (0, -2.84677863121032710000e-001) (1, -3.44219982624053960000e-001) (2, -3.48016381263732910000e-001) (3, -4.40814256668090820000e-001) (4, -3.39874953031539920000e-001) (5, -2.61536359786987300000e-001) (6, -2.49915257096290590000e-001) (7, -1.87151178717613220000e-001) (8, -6.52134194970130920000e-002) (9, 3.80377540588378910000e+001) (10, 7.36393499374389650000e+000) (11, -4.61112141609191890000e-001) (12, -6.80561065673828130000e-001) (13, 7.06798645019531250000e+002) (14, 7.81768066406250000000e+002) (15, -1.06091976165771480000e-001) (16, -7.85270333290100100000e-003) (17, 4.31756011962890620000e+002) (18, 1.07151135802268980000e-001) (19, -1.87493473291397090000e-001) (20, -3.77427451312541960000e-002) (21, 3.02954167127609250000e-002) (22, 4.81652130126953120000e+002) (23, -2.13924348354339600000e-001) (24, -2.19198256731033330000e-001) (25, 3.64912480115890500000e-001) (26, 3.54858413338661190000e-002) (27, 6.93873316049575810000e-002) (28, -9.37954127788543700000e-001) (29, -1.62832543253898620000e-001) (30, 1.93895959854125980000e+000) (31, -5.11929893493652340000e+000) (32, -5.65446734428405760000e-001) (33, 6.78682746365666390000e-003) (34, 7.78768360614776610000e-001) (35, 1.53959751129150390000e-001) (36, -7.95889869332313540000e-002) (37, -5.25513403117656710000e-002) (38, -6.24133169651031490000e-001) (39, -3.69498699903488160000e-001) (40, -2.86783069372177120000e-001) (0, 1.01876831054687500000e+000) (1, 5.14285415410995480000e-002) (2, 3.67900341749191280000e-001) (3, 2.87303417921066280000e-001) (4, 2.87392407655715940000e-001) (5, 2.27968573570251460000e-001) (6, -6.49026259779930110000e-002) (7, 9.03255820274353030000e-001) (8, -9.77977931499481200000e-001) (9, -1.90327525138854980000e+000) (10, -1.77485430240631100000e+000) (11, 2.56930500268936160000e-001) (12, -6.21615791320800780000e+000) (13, -5.86121439933776860000e-001) (14, 1.95633544921875000000e+002) (15, -3.11913669109344480000e-001) (16, -7.98296511173248290000e-001) (17, -3.79876785278320310000e+001) (18, -6.58095657825469970000e-001) (19, -1.46879211068153380000e-001) (20, -3.79296226501464840000e+001) (21, -3.79207839965820310000e+001) (22, -2.22271606326103210000e-001) (23, -1.87512010335922240000e-001) (24, -1.15292561054229740000e+000) (25, 3.90629363059997560000e+000) (26, -3.05908210575580600000e-002) (27, -7.84793615341186520000e-001) (28, -6.74691247940063480000e+000) (29, -3.61265540122985840000e+000) (30, 2.60529446601867680000e+000) (31, -2.17486187815666200000e-001) (32, -9.73234272003173830000e+000) (33, -5.92601299285888670000e-001) (34, -1.60890355706214900000e-001) (35, 3.79629173278808590000e+001) (36, -8.97673591971397400000e-002) (37, 1.39969396591186520000e+000) (38, -7.32012242078781130000e-002) (39, -1.03513725101947780000e-001) (40, 1.05960965156555180000e-002) (0, 1.27477979660034180000e+000) (1, 1.90324708819389340000e-001) (2, 1.53408437967300420000e-001) (3, 8.38281493633985520000e-003) (4, 2.17012301087379460000e-001) (5, 6.25139772891998290000e-002) (6, 1.52109920978546140000e-001) (7, 9.66533243656158450000e-001) (8, 2.63361096382141110000e-001) (9, -2.74720191955566410000e+000) (10, 4.81751495361328120000e+002) (11, -3.78830680847167970000e+001) (12, 1.81250107288360600000e+000) (13, 4.81655700683593750000e+002) (14, -4.55449562072753910000e+001) (15, 1.84075012803077700000e-001) (16, 1.71786397695541380000e-002) (17, -6.12658143043518070000e-001) (18, -9.05410110950469970000e-001) (19, -3.79196395874023440000e+001) (20, -1.75734087824821470000e-001) (21, -3.77450615167617800000e-001) (22, -4.55748367309570310000e+001) (23, -8.07113945484161380000e-002) (24, 2.11339324712753300000e-001) (25, 6.70373964309692380000e+000) (26, -7.12646469473838810000e-002) (27, -9.01845574378967290000e-001) (28, 3.56680229306221010000e-002) (29, -2.72813886404037480000e-001) (30, 3.18951249122619630000e+000) (31, 8.66118818521499630000e-002) (32, 6.45388513803482060000e-002) (33, -8.98971676826477050000e-001) (34, -1.56928968429565430000e+000) (35, -6.10232912003993990000e-002) (36, 2.79138446785509590000e-004) (37, -1.87168943881988530000e+000) (38, -1.91102415323257450000e-001) (39, -2.64956057071685790000e-003) (40, -3.93209094181656840000e-003) (0, 1.08571045100688930000e-001) (1, -1.43726393580436710000e-001) (2, -3.33793181926012040000e-003) (3, 5.85029013454914090000e-002) (4, 1.47771358489990230000e-001) (5, 1.96764305233955380000e-001) (6, -1.42721354961395260000e-001) (7, -5.01356780529022220000e-001) (8, -5.13397336006164550000e-001) (9, 3.39283287525177000000e-001) (10, 1.37532129287719730000e+001) (11, 1.35251522064208980000e+000) (12, 3.04633617401123050000e-001) (13, -3.43067198991775510000e-001) (14, 2.81766052246093750000e+002) (15, -4.70126509666442870000e-001) (16, -3.50482940673828130000e-001) (17, -2.92841970920562740000e-001) (18, -2.18745529651641850000e-001) (19, -1.13138899207115170000e-001) (20, -3.90965610742568970000e-001) (21, -2.24373340606689450000e-001) (22, -1.17367535829544070000e-001) (23, -4.13132637739181520000e-001) (24, -5.68353414535522460000e-001) (25, 1.15452229976654050000e+000) (26, -8.34167525172233580000e-002) (27, -1.72098267078399660000e+000) (28, -2.52322345972061160000e-001) (29, 2.34779144287109370000e+002) (30, 1.95642807006835940000e+002) (31, -4.48416322469711300000e-001) (32, 1.39320781454443930000e-002) (33, -2.39892527461051940000e-002) (34, -3.92242252826690670000e-001) (35, 1.36778223514556880000e+000) (36, 2.36616700887680050000e-001) (37, 2.89514958858489990000e-001) (38, 8.07949379086494450000e-002) (39, -2.29335904121398930000e-001) (40, -2.90929585695266720000e-001) (0, -1.55637264251708980000e-001) (1, 1.27083107829093930000e-001) (2, -6.64945915341377260000e-002) (3, -8.14115852117538450000e-002) (4, 3.77730764448642730000e-002) (5, -6.02127090096473690000e-002) (6, 5.68866841495037080000e-002) (7, -7.71321773529052730000e-001) (8, 6.94726288318634030000e-001) (9, -3.77647247314453130000e+001) (10, 9.24736380577087400000e-001) (11, -2.75439172983169560000e-001) (12, 9.43109244108200070000e-002) (13, 7.81699951171875000000e+002) (14, 2.54231689453125000000e+002) (15, 1.92182641476392750000e-002) (16, -2.09718436002731320000e-001) (17, -3.83592367172241210000e-001) (18, -3.12496006488800050000e-001) (19, -3.23814570903778080000e-001) (20, -3.97961139678955080000e-001) (21, -2.93449580669403080000e-001) (22, -3.18605124950408940000e-001) (23, -2.47442960739135740000e-001) (24, 5.62756776809692380000e-001) (25, -3.06792950630187990000e+000) (26, 1.10412603244185450000e-002) (27, -9.94225125759840010000e-003) (28, -8.65487731061875820000e-004) (29, 6.50216564536094670000e-002) (30, 1.47107574462890620000e+002) (31, -7.86710456013679500000e-002) (32, 2.90998637676239010000e-001) (33, -4.26855273544788360000e-002) (34, -9.48268830776214600000e-001) (35, -3.78001518249511720000e+001) (36, 1.45788922905921940000e-001) (37, -3.93338680267333980000e-001) (38, 1.69766828417778020000e-001) (39, 9.57381054759025570000e-002) (40, -2.17280671000480650000e-001) (41, -2.19988212585449220000e+001) (42, -3.52608227729797360000e+000) (43, 1.33019298315048220000e-001) (44, -2.96577513217926030000e-002) (45, 1.74468439072370530000e-002) (46, -1.44338428974151610000e-001) (47, -1.11207857728004460000e-001) (48, -1.52899522781372070000e+001) (49, -1.53137369155883790000e+001) (50, 1.61577618122100830000e+000) (51, -1.26995677947998050000e+001) (52, -6.97464123368263240000e-002) (53, 2.54686027765274050000e-001) (54, -1.19639420509338380000e+000) (55, -1.52764940261840820000e+001) (56, -4.28037834167480470000e+000) (57, 6.08286809921264650000e+000) (58, -9.98782292008399960000e-002) (59, -2.20780296325683590000e+001) (60, -1.84027442932128910000e+001) (61, -8.75367522239685060000e-002) (62, -2.07683984190225600000e-002) (63, -2.82101839780807500000e-001) (64, 2.39998951554298400000e-001) (65, -8.99419486522674560000e-002) (66, -1.37867391109466550000e-001) (67, 1.98111164569854740000e+000) (68, -3.45121413469314580000e-001) (69, -1.82649984955787660000e-001) (70, -1.79415807127952580000e-001) (71, -4.71784546971321110000e-002) (41, -1.28314352035522460000e+001) (42, -1.29053182601928710000e+001) (43, -8.97124856710433960000e-002) (44, -3.80279161036014560000e-002) (45, -7.82026425004005430000e-002) (46, -1.31150305271148680000e-001) (47, -4.63056787848472600000e-002) (48, 2.19971370697021480000e+000) (49, -2.71541289985179900000e-002) (50, -1.53537235260009770000e+001) (51, -1.53266601562500000000e+001) (52, -2.73083686828613280000e-001) (53, 2.14318722486495970000e-001) (54, 2.52485036849975590000e-001) (55, 2.22951501607894900000e-001) (56, -9.00700759887695310000e+000) (57, -1.28696069717407230000e+001) (58, -3.39666187763214110000e-001) (59, 4.42623943090438840000e-002) (60, 2.69400984048843380000e-001) (61, 1.17683596909046170000e-001) (62, -1.83736057281494140000e+001) (63, -1.07511672973632810000e+001) (64, -1.08045730590820310000e+001) (65, 3.72308604419231410000e-002) (66, 2.02493414282798770000e-001) (67, -7.45514154434204100000e+000) (68, -1.84608364105224610000e+001) (69, -2.66978323459625240000e-001) (70, -8.94917106628417970000e+000) (71, -1.10845483839511870000e-001) (41, -1.04025137424468990000e+000) (42, -1.55360472202301030000e+000) (43, 2.27975085377693180000e-001) (44, 9.46753025054931640000e-002) (45, 9.14282202720642090000e-002) (46, 4.99548427760601040000e-002) (47, 1.84177234768867490000e-001) (48, 1.34780734777450560000e-001) (49, 1.46367776393890380000e+000) (50, -1.10761240124702450000e-001) (51, -3.35204064846038820000e-001) (52, 1.53735399246215820000e-001) (53, 1.37301489710807800000e-001) (54, -1.34602677822113040000e+000) (55, -9.70010235905647280000e-002) (56, 2.15907454490661620000e+000) (57, 1.45335412025451660000e+000) (58, 2.44384795427322390000e-001) (59, 1.73928451538085940000e+000) (60, 2.12485241889953610000e+000) (61, 1.78225326538085940000e+000) (62, -1.09875965118408200000e+000) (63, 2.14657115936279300000e+000) (64, 1.70467412471771240000e+000) (65, 2.72774875164031980000e-001) (66, 2.61448025703430180000e+000) (67, -4.78822827339172360000e-001) (68, 1.76971924304962160000e+000) (69, -6.81656738281250000000e+002) (70, 2.35305383801460270000e-001) (71, 9.07958764582872390000e-003) (41, 6.43671080470085140000e-002) (42, 9.49132800102233890000e-001) (43, -2.69481599330902100000e-001) (44, -3.92385542392730710000e-001) (45, -8.95926284790039060000e+000) (46, -2.87176102399826050000e-001) (47, -1.84489369392395020000e-001) (48, -8.96097183227539060000e+000) (49, 2.34033322334289550000e+000) (50, 2.21056056022644040000e+000) (51, -7.32434928417205810000e-001) (52, -2.49877367168664930000e-002) (53, -4.54145222902297970000e-002) (54, -1.49012815952301030000e+000) (55, -1.28922414779663090000e+001) (56, -7.90131330490112300000e-001) (57, 3.83052968978881840000e+000) (58, -3.45141202211380000000e-001) (59, -8.92245292663574220000e+000) (60, -1.53124132156372070000e+001) (61, -8.92775058746337890000e+000) (62, -7.47994327545166020000e+000) (63, 1.05525064468383790000e+000) (64, -1.24436385929584500000e-001) (65, -9.00951921939849850000e-002) (66, -9.66895997524261470000e-001) (67, -5.44477045536041260000e-001) (68, -1.51563525199890140000e-001) (69, -2.78288185596466060000e-001) (70, -5.08608639240264890000e-001) (71, -4.18985992670059200000e-001) (41, 6.39160454273223880000e-001) (42, -8.94749546051025390000e+000) (43, -2.43633770942687990000e+000) (44, -7.44460105895996090000e-001) (45, -6.58596009016036990000e-002) (46, -6.80605173110961910000e-001) (47, -8.99763584136962890000e+000) (48, 3.61248664557933810000e-002) (49, -2.36752014607191090000e-002) (50, -7.35220909118652340000e+000) (51, 7.11443796753883360000e-002) (52, -9.00148773193359370000e+000) (53, -1.06725893020629880000e+001) (54, 3.73152208328247070000e+000) (55, 4.06920820474624630000e-001) (56, 3.40253002941608430000e-002) (57, -1.11576557159423830000e+000) (58, -7.12998747825622560000e-001) (59, 4.56426441669464110000e-001) (60, -1.60385406017303470000e+000) (61, -8.99682998657226560000e+000) (62, 2.20245170593261720000e+000) (63, -9.52738430351018910000e-003) (64, -9.01253509521484370000e+000) (65, -1.68554529547691350000e-001) (66, -1.39588809013366700000e+000) (67, 7.38591626286506650000e-002) (68, 5.33411428332328800000e-002) (69, 4.44952636957168580000e-001) (70, -5.47177791595458980000e-001) (71, -7.34096348285675050000e-001) (41, -1.71919965744018550000e+000) (42, -1.06645450592041020000e+001) (43, 3.16565066576004030000e-001) (44, -4.69693154096603390000e-001) (45, 2.80257135629653930000e-001) (46, -8.57387259602546690000e-002) (47, 6.41344562172889710000e-002) (48, -3.16854976117610930000e-002) (49, 1.42688703536987300000e+000) (50, -4.06550504267215730000e-002) (51, -6.45057797431945800000e-001) (52, -1.90890222787857060000e-001) (53, 5.00208759307861330000e+000) (54, -3.54196946136653420000e-003) (55, 1.50215297937393190000e-001) (56, -1.07069702148437500000e+001) (57, -1.06433839797973630000e+001) (58, -3.71341013908386230000e+000) (59, -1.27045354843139650000e+001) (60, -2.80858039855957030000e-001) (61, -1.07446041107177730000e+001) (62, -7.29310095310211180000e-001) (63, -1.07254943847656250000e+001) (64, -2.58996534347534180000e+000) (65, -9.72822904586791990000e-002) (66, -6.67569696903228760000e-001) (67, 1.16404712200164790000e+000) (68, 2.56406635046005250000e-001) (69, -4.75860297679901120000e-001) (70, -1.75027117133140560000e-001) (71, -1.06161057949066160000e-001) (41, 1.64542999267578130000e+001) (42, -3.80177192687988280000e+001) (43, -5.71627807617187500000e+000) (44, -2.11753457784652710000e-001) (45, -3.80999755859375000000e+001) (46, -1.67898107320070270000e-002) (47, -1.60253420472145080000e-001) (48, 4.91010725498199460000e-001) (49, -1.91407650709152220000e-002) (50, 3.37391674518585210000e-001) (51, -3.80280418395996090000e+001) (52, -9.99736726284027100000e-001) (53, -3.80293464660644530000e+001) (54, 4.96738731861114500000e-001) (55, 6.38467550277709960000e-001) (56, -2.54271841049194340000e+000) (57, 1.68883249163627620000e-001) (58, -1.44782448187470440000e-002) (59, 3.69727373123168950000e+000) (60, -3.79621429443359380000e+001) (61, 1.39732509851455690000e-001) (62, -3.67049455642700200000e+000) (63, 1.69961825013160710000e-001) (64, 8.31115692853927610000e-002) (65, -1.16503797471523280000e-001) (66, -3.17725449800491330000e-001) (67, 8.22876095771789550000e-002) (68, -8.93054580688476560000e+000) (69, 1.27511825412511830000e-002) (70, -1.54077520370483400000e+001) (71, -5.91787517070770260000e-001) (41, -2.22233867645263670000e+000) (42, -8.72776061296463010000e-002) (43, -6.81707031250000000000e+002) (44, 3.04098278284072880000e-002) (45, -2.34445005655288700000e-001) (46, 6.18185363709926610000e-002) (47, 2.27008208632469180000e-001) (48, 1.13330453634262080000e-001) (49, 1.60615190863609310000e-001) (50, 5.16226708889007570000e-001) (51, 4.52496036887168880000e-002) (52, 3.47647637128829960000e-001) (53, -3.52766871452331540000e-001) (54, 7.66202881932258610000e-002) (55, -6.32568359375000000000e+000) (56, 2.13628935813903810000e+000) (57, 3.73984098434448240000e-001) (58, 6.76717981696128850000e-002) (59, -8.55317264795303340000e-002) (60, -5.61355471611022950000e-001) (61, 3.07867646217346190000e-001) (62, -6.66661560535430910000e-002) (63, -1.19663760066032410000e-001) (64, 2.47803151607513430000e-001) (65, -8.90902895480394360000e-003) (66, 1.66605368256568910000e-001) (67, 3.60854454338550570000e-002) (68, 2.65077638626098630000e+000) (69, 2.62727785110473630000e+000) (70, 2.44418513029813770000e-002) (71, 8.48104655742645260000e-002) (41, -3.79832305908203120000e+001) (42, -2.63158392906188960000e+000) (43, 4.09251332283020020000e-001) (44, 1.65753737092018130000e-001) (45, 4.04197365045547490000e-001) (46, 2.22337413579225540000e-002) (47, 2.50664681196212770000e-001) (48, 5.78249037265777590000e-001) (49, -2.61568403244018550000e+000) (50, 4.95316684246063230000e-001) (51, -1.63764998316764830000e-001) (52, 6.62808492779731750000e-002) (53, 5.18082797527313230000e-001) (54, -1.04153132438659670000e+000) (55, -3.79950523376464840000e+001) (56, -1.78837597370147710000e+000) (57, -3.80629119873046870000e+001) (58, -3.70932221412658690000e-002) (59, -2.21156673431396480000e+001) (60, 4.88003700971603390000e-001) (61, 5.52913665771484380000e-001) (62, 6.06102180480957030000e+000) (63, -1.54478187561035160000e+001) (64, 5.34146010875701900000e-001) (65, -6.67285500094294550000e-003) (66, -4.37202066183090210000e-001) (67, -1.90400838851928710000e-001) (68, 4.42158937454223630000e-001) (69, -6.61149144172668460000e-001) (70, 1.52865424752235410000e-001) (71, 1.97946861386299130000e-001) (41, 3.41942340135574340000e-001) (42, 2.98064440488815310000e-001) (43, -2.40192294120788570000e+000) (44, -1.04017150402069090000e+000) (45, -2.12090492248535160000e-001) (46, -9.00071811676025390000e+000) (47, -8.96108245849609370000e+000) (48, -1.07150459289550780000e+001) (49, -1.27694387435913090000e+001) (50, -1.07544679641723630000e+001) (51, 3.83490633964538570000e+000) (52, -2.94854603707790370000e-002) (53, 4.16041642427444460000e-001) (54, -1.54244871810078620000e-002) (55, -1.27910542488098140000e+000) (56, 5.54564110934734340000e-002) (57, -8.95314121246337890000e+000) (58, -2.13240206241607670000e-001) (59, -2.13123154640197750000e+000) (60, 4.36120539903640750000e-001) (61, -1.19495332241058350000e+000) (62, -1.07605047225952150000e+001) (63, -1.07472295761108400000e+001) (64, -2.43306010961532590000e-001) (65, -2.83497309684753420000e+000) (66, 3.92892122268676760000e-001) (67, 8.07333469390869140000e-001) (68, -8.93963432312011720000e+000) (69, 3.28963488340377810000e-001) (70, -1.24750636518001560000e-001) (71, -1.32911369204521180000e-001) (41, 6.00230026245117190000e+000) (42, -8.90547847747802730000e+000) (43, -4.18367862701416020000e-001) (44, -4.17336285114288330000e-001) (45, 1.32467478513717650000e-001) (46, -3.37167233228683470000e-001) (47, -1.28710994720458980000e+001) (48, -1.53979768753051760000e+001) (49, -9.87421131134033200000e+000) (50, -4.68032091856002810000e-001) (51, -2.20633010864257810000e+001) (52, -1.61754593253135680000e-001) (53, -2.21555862426757810000e+001) (54, -5.77393054962158200000e-001) (55, -1.39320001006126400000e-001) (56, 1.04571688175201420000e+000) (57, 1.10166776180267330000e+000) (58, 4.07166965305805210000e-002) (59, -1.28636856079101560000e+001) (60, -1.18108892440795900000e+001) (61, -1.28797054290771480000e+001) (62, -2.71287888288497920000e-001) (63, 2.41874858736991880000e-001) (64, -7.97533690929412840000e-002) (65, -3.33848667144775390000e+000) (66, 4.71514239907264710000e-002) (67, 3.21106982231140140000e+000) (68, 7.70193278789520260000e-001) (69, 5.02316914498806000000e-002) (70, 1.23131044209003450000e-001) (71, -3.58944684267044070000e-001) (41, 4.38347429037094120000e-001) (42, 3.79643827676773070000e-001) (43, 3.99405151605606080000e-001) (44, -2.47984826564788820000e-002) (45, -5.66011480987071990000e-002) (46, -4.53124195337295530000e-002) (47, -1.38690754771232600000e-001) (48, 3.50678384304046630000e-001) (49, 6.09886264801025390000e+000) (50, -1.74528610706329350000e+000) (51, -2.20544681549072270000e+001) (52, -4.13219481706619260000e-002) (53, 1.18517838418483730000e-001) (54, 4.40222382545471190000e-001) (55, 3.05323153734207150000e-001) (56, -2.19918098449707030000e+001) (57, -1.53651409149169920000e+001) (58, -1.63635328412055970000e-001) (59, -1.28707017898559570000e+001) (60, -4.56517639160156250000e+001) (61, -6.21432781219482420000e+000) (62, -4.36581707000732420000e+000) (63, 8.41670572757720950000e-001) (64, -3.11069583892822270000e+000) (65, -1.33658379316329960000e-001) (66, -2.19956970214843750000e+001) (67, -4.56797218322753910000e+001) (68, 5.85399091243743900000e-001) (69, -1.05832624435424800000e+000) (70, -3.01661752164363860000e-002) (71, -2.71962195634841920000e-001) (41, 3.85854512453079220000e-001) (42, 1.37890732288360600000e+000) (43, 2.67028689384460450000e-001) (44, -5.90768419206142430000e-002) (45, -1.28398876190185550000e+001) (46, -9.29121766239404680000e-003) (47, 1.19840890169143680000e-001) (48, -9.58677530288696290000e-002) (49, -1.84145069122314450000e+001) (50, -1.52849853038787840000e+000) (51, 7.31152915954589840000e+000) (52, -1.27558678388595580000e-001) (53, -2.20496406555175780000e+001) (54, 1.05180740356445310000e-001) (55, -1.58227518200874330000e-001) (56, 6.46533295512199400000e-002) (57, -1.28066596984863280000e+001) (58, 2.69015636295080180000e-002) (59, -1.53625469207763670000e+001) (60, -1.83478565216064450000e+001) (61, -1.54174852371215820000e+001) (62, -1.28093881607055660000e+001) (63, 7.21839427947998050000e+000) (64, -1.79562866687774660000e+000) (65, -1.56828194856643680000e-001) (66, -1.00428855419158940000e+000) (67, -1.52301921844482420000e+001) (68, 9.02498185634613040000e-001) (69, -1.22040651738643650000e-001) (70, -5.25006391108036040000e-002) (71, 8.46026539802551270000e-002) (41, 7.42313802242279050000e-001) (42, 1.56383538246154790000e+000) (43, 1.03644698858261110000e-001) (44, -1.42152979969978330000e-001) (45, 3.65822613239288330000e-001) (46, -1.84846550226211550000e-001) (47, -5.89050166308879850000e-003) (48, -3.80477256774902340000e+001) (49, -1.67892684936523440000e+001) (50, 1.56110489368438720000e+000) (51, -6.29721450805664060000e+000) (52, 1.57194301486015320000e-001) (53, 1.94126561284065250000e-001) (54, -9.79595839977264400000e-001) (55, -3.80469017028808590000e+001) (56, -3.79281692504882810000e+001) (57, -3.17906208038330080000e+001) (58, -2.93554384261369710000e-002) (59, -3.80430450439453130000e+001) (60, -3.17894077301025390000e+001) (61, -6.77538067102432250000e-002) (62, -4.85207766294479370000e-001) (63, -5.13542604446411130000e+000) (64, 2.53093361854553220000e-001) (65, -1.35186865925788880000e-001) (66, -2.78267478942871090000e+000) (67, -2.02142028808593750000e+001) (68, -2.53883063793182370000e-001) (69, -1.17059826850891110000e+000) (70, 2.67882477492094040000e-002) (71, -2.03308891505002980000e-002) (41, -1.28856620788574220000e+001) (42, -2.20565986633300780000e+001) (43, -5.31612597405910490000e-002) (44, -1.81107953190803530000e-001) (45, -1.28644704818725590000e+001) (46, -1.10056892037391660000e-001) (47, -1.28236017227172850000e+001) (48, -1.58566534519195560000e-001) (49, 6.67098343372344970000e-001) (50, -2.82919734716415410000e-001) (51, 6.87623620033264160000e-001) (52, -5.13944089412689210000e-001) (53, -1.83560218811035160000e+001) (54, -6.67770743370056150000e-001) (55, -1.27280931472778320000e+001) (56, 3.18167656660079960000e-001) (57, 2.93667078018188480000e-001) (58, -3.16167622804641720000e-002) (59, 7.48310863971710210000e-001) (60, -3.80675926208496090000e+001) (61, 1.09867183491587640000e-002) (62, 7.61675119400024410000e-001) (63, 1.33804500102996830000e-001) (64, -7.74809941649436950000e-002) (65, -5.19087128341197970000e-002) (66, -5.09130895137786870000e-001) (67, 7.18372583389282230000e-001) (68, -1.53866262435913090000e+001) (69, 3.52272510528564450000e-001) (70, -6.69874787330627440000e-001) (71, -1.98264881968498230000e-001) (41, -1.07708072662353520000e+001) (42, -1.16313683986663820000e+000) (43, -4.89804595708847050000e-001) (44, 1.63695275783538820000e-001) (45, 2.80226737260818480000e-001) (46, 2.58281469345092770000e-001) (47, 2.36104458570480350000e-001) (48, -1.07592592239379880000e+001) (49, 4.02838960289955140000e-002) (50, -7.98645734786987300000e-001) (51, -1.07241888046264650000e+001) (52, 1.23602613806724550000e-001) (53, 3.28546315431594850000e-001) (54, 5.72580039501190190000e-001) (55, 6.29013121128082280000e-001) (56, 7.07290917634963990000e-002) (57, 2.04645723104476930000e-001) (58, 1.94714386016130450000e-002) (59, 5.47252535820007320000e-001) (60, 6.47573888301849370000e-001) (61, 1.71341717243194580000e-001) (62, -1.84287757873535160000e+001) (63, -1.07131719589233400000e+001) (64, 1.10901176929473880000e-001) (65, -1.76066887378692630000e+000) (66, 4.73558664321899410000e-001) (67, -7.35866498947143550000e+000) (68, -1.53782396316528320000e+001) (69, 7.98410400748252870000e-002) (70, -3.09411287307739260000e-001) (71, 2.72304385900497440000e-001) (41, -1.06567811965942380000e+001) (42, -1.28852653503417970000e+001) (43, 6.40000522136688230000e-001) (44, 1.23932249844074250000e-001) (45, -1.86656638979911800000e-001) (46, 8.11893492937088010000e-002) (47, -6.32895708084106450000e-001) (48, 3.38098466396331790000e-001) (49, -1.07319097518920900000e+001) (50, -8.97066497802734370000e+000) (51, 7.96174466609954830000e-001) (52, 1.59610230475664140000e-002) (53, -7.83650755882263180000e-001) (54, -1.53970575332641600000e+001) (55, -1.07725830078125000000e+001) (56, 5.94572126865386960000e-001) (57, 3.42737466096878050000e-001) (58, -1.12866990268230440000e-001) (59, 6.58988595008850100000e-001) (60, -1.84311047196388240000e-001) (61, 2.50157803297042850000e-001) (62, 6.19352340698242190000e-001) (63, 7.54482392221689220000e-003) (64, -2.12847903370857240000e-001) (65, 2.12554216384887700000e-001) (66, 1.03037074208259580000e-001) (67, -1.74901351332664490000e-001) (68, -4.94181275367736820000e-001) (69, -4.03799921274185180000e-001) (70, -1.57191231846809390000e-001) (71, -5.44275455176830290000e-002) (41, -8.94496917724609370000e+000) (42, -8.82334995269775390000e+000) (43, -9.85069051384925840000e-002) (44, -3.31921994686126710000e-001) (45, -8.91609287261962890000e+000) (46, -2.76526451110839840000e-001) (47, -2.24257241934537890000e-002) (48, -6.29775762557983400000e+000) (49, -3.63718681037425990000e-002) (50, 2.19559574127197270000e+000) (51, 6.21665000915527340000e-001) (52, -2.17633634805679320000e-001) (53, -2.49419137835502620000e-001) (54, -1.07476692199707030000e+001) (55, -1.07607116699218750000e+001) (56, -1.45223036408424380000e-001) (57, 9.85168665647506710000e-003) (58, -7.49873590469360350000e+000) (59, 3.84413182735443120000e-001) (60, -1.31512904167175290000e+000) (61, -9.65238884091377260000e-002) (62, 5.21274328231811520000e-001) (63, 1.40254691243171690000e-001) (64, -2.59835124015808110000e-001) (65, -1.33849740028381350000e-001) (66, -1.02734804153442380000e+000) (67, -1.06216497421264650000e+001) (68, -8.96044731140136720000e+000) (69, 4.14562135934829710000e-001) (70, -2.02381849288940430000e-001) (71, -1.80921018123626710000e-001) (41, -1.06657905578613280000e+001) (42, 4.24233007431030270000e+000) (43, 9.13456007838249210000e-002) (44, 2.10464730858802800000e-001) (45, 9.83561351895332340000e-002) (46, 2.00159847736358640000e-001) (47, 9.98064950108528140000e-002) (48, -7.45109844207763670000e+000) (49, -1.06897888183593750000e+001) (50, -1.53969535827636720000e+001) (51, 3.37678223848342900000e-001) (52, -8.98420810699462890000e+000) (53, -1.23880791664123540000e+000) (54, 5.97708046436309810000e-001) (55, 6.05045735836029050000e-001) (56, 1.03473275899887080000e-001) (57, -8.90895843505859380000e+000) (58, 3.31241413950920100000e-002) (59, 5.86349427700042720000e-001) (60, 6.48719608783721920000e-001) (61, 2.71993488073349000000e-001) (62, -1.84846897125244140000e+001) (63, -1.06481266021728520000e+001) (64, -8.99800872802734370000e+000) (65, -9.80478942394256590000e-001) (66, 2.45676770806312560000e-001) (67, -1.07578191757202150000e+001) (68, -5.15518963336944580000e-001) (69, -2.39553645253181460000e-001) (70, 4.96829673647880550000e-002) (71, 8.25178995728492740000e-002) (41, 1.74174785614013670000e-001) (42, 1.17657768726348880000e+000) (43, 1.71278432011604310000e-001) (44, -1.53630316257476810000e-001) (45, 4.89087879657745360000e-001) (46, -2.75414176285266880000e-002) (47, -2.21979934722185130000e-002) (48, -1.86042988300323490000e+000) (49, -7.49822950363159180000e+000) (50, -9.00293350219726560000e+000) (51, 9.67098057270050050000e-001) (52, -7.48054170608520510000e+000) (53, 6.11952662467956540000e-001) (54, -1.79951417446136470000e+000) (55, -4.24809217453002930000e-001) (56, -8.99391269683837890000e+000) (57, -8.98399448394775390000e+000) (58, -2.66142487525939940000e-001) (59, 1.73674300312995910000e-001) (60, -1.06451358795166020000e+001) (61, 4.83303852379322050000e-002) (62, 1.17713308334350590000e+000) (63, -3.71853709220886230000e-001) (64, 1.33654205128550530000e-002) (65, 7.46577456593513490000e-002) (66, -1.74302387237548830000e+000) (67, -5.53017735481262210000e-001) (68, -7.38588237762451170000e+000) (69, -3.52411121129989620000e-001) (70, -2.82597571611404420000e-001) (71, -2.32042163610458370000e-001) 
