FANN_FLO_2.1
num_layers=8
learning_rate=0.700000
connection_rate=1.000000
network_type=1
learning_momentum=0.000000
training_algorithm=2
train_error_function=0
train_stop_function=0
cascade_output_change_fraction=0.010000
quickprop_decay=-0.000100
quickprop_mu=1.750000
rprop_increase_factor=1.200000
rprop_decrease_factor=0.500000
rprop_delta_min=0.000000
rprop_delta_max=50.000000
rprop_delta_zero=0.100000
cascade_output_stagnation_epochs=12
cascade_candidate_change_fraction=0.010000
cascade_candidate_stagnation_epochs=12
cascade_max_out_epochs=150
cascade_max_cand_epochs=150
cascade_num_candidate_groups=2
bit_fail_limit=3.49999994039535520000e-001
cascade_candidate_limit=1.00000000000000000000e+003
cascade_weight_multiplier=4.00000005960464480000e-001
cascade_activation_functions_count=10
cascade_activation_functions=3 5 7 8 10 11 14 15 16 17 
cascade_activation_steepnesses_count=4
cascade_activation_steepnesses=2.50000000000000000000e-001 5.00000000000000000000e-001 7.50000000000000000000e-001 1.00000000000000000000e+000 
layer_sizes=26 1 1 1 1 1 1 1 
scale_included=0
neurons (num_inputs, activation_function, activation_steepness)=(0, 0, 0.00000000000000000000e+000) (0, 0, 0.00000000000000000000e+000) (0, 0, 0.00000000000000000000e+000) (0, 0, 0.00000000000000000000e+000) (0, 0, 0.00000000000000000000e+000) (0, 0, 0.00000000000000000000e+000) (0, 0, 0.00000000000000000000e+000) (0, 0, 0.00000000000000000000e+000) (0, 0, 0.00000000000000000000e+000) (0, 0, 0.00000000000000000000e+000) (0, 0, 0.00000000000000000000e+000) (0, 0, 0.00000000000000000000e+000) (0, 0, 0.00000000000000000000e+000) (0, 0, 0.00000000000000000000e+000) (0, 0, 0.00000000000000000000e+000) (0, 0, 0.00000000000000000000e+000) (0, 0, 0.00000000000000000000e+000) (0, 0, 0.00000000000000000000e+000) (0, 0, 0.00000000000000000000e+000) (0, 0, 0.00000000000000000000e+000) (0, 0, 0.00000000000000000000e+000) (0, 0, 0.00000000000000000000e+000) (0, 0, 0.00000000000000000000e+000) (0, 0, 0.00000000000000000000e+000) (0, 0, 0.00000000000000000000e+000) (0, 0, 0.00000000000000000000e+000) (26, 7, 2.50000000000000000000e-001) (27, 7, 7.50000000000000000000e-001) (28, 7, 2.50000000000000000000e-001) (29, 7, 2.50000000000000000000e-001) (30, 15, 1.00000000000000000000e+000) (31, 10, 1.00000000000000000000e+000) (32, 3, 5.00000000000000000000e-001) 
connections (connected_to_neuron, weight)=(0, 5.21164834499359130000e-001) (1, 1.73997712135314940000e+000) (2, 4.88628774881362920000e-001) (3, 1.92418038845062260000e+000) (4, 1.47775280761718750000e+003) (5, 1.55090892314910890000e+000) (6, -5.01871299743652340000e+000) (7, -1.26702594757080080000e+000) (8, 1.50000000000000000000e+003) (9, 3.78192830085754390000e+000) (10, 1.50000000000000000000e+003) (11, 9.70140993595123290000e-001) (12, 1.67107510566711430000e+000) (13, 1.50000000000000000000e+003) (14, 1.61209907531738280000e+001) (15, 1.02240002155303960000e+000) (16, 1.50000000000000000000e+003) (17, -3.35766196250915530000e+000) (18, 1.89525082707405090000e-001) (19, -4.53323960304260250000e-001) (20, 3.48577356338500980000e+000) (21, 1.50000000000000000000e+003) (22, 2.27721452713012700000e+000) (23, -3.99872016906738280000e+000) (24, -1.54774522781372070000e+000) (25, 6.53153285384178160000e-002) (0, 1.35078227519989010000e+000) (1, 1.57479524612426760000e+000) (2, -6.21197283267974850000e-001) (3, 1.21599560546875000000e+003) (4, 3.79635024070739750000e+000) (5, -4.31110799312591550000e-001) (6, 1.24838359653949740000e-001) (7, 1.23411498963832860000e-001) (8, 2.55142166137695310000e+002) (9, 9.97658133506774900000e-001) (10, -7.45989441871643070000e-001) (11, 7.42647338867187500000e+002) (12, 1.46576869487762450000e+000) (13, 9.75966552734375000000e+002) (14, 2.66088223457336430000e+000) (15, 1.33479595184326170000e+000) (16, -7.97355294227600100000e-001) (17, 1.61636412143707280000e+000) (18, 7.40355074405670170000e-001) (19, 9.75107055664062500000e+002) (20, -6.94284439086914060000e-001) (21, 1.45519653320312500000e+003) (22, 1.32106029987335210000e+000) (23, 1.31142735481262210000e+000) (24, -6.34169220924377440000e-001) (25, -1.90312111377716060000e+000) (26, -2.39459753036499020000e+000) (0, 8.32951724529266360000e-001) (1, -3.52329373359680180000e+000) (2, -2.09123859405517580000e+001) (3, 1.50000000000000000000e+003) (4, 1.17265677452087400000e+000) (5, 1.44979178905487060000e+000) (6, 4.30923128128051760000e+000) (7, -7.17908859252929690000e+000) (8, 1.50000000000000000000e+003) (9, 5.35611689090728760000e-001) (10, 1.50000000000000000000e+003) (11, 1.67459144592285160000e+001) (12, 9.36176681518554690000e+000) (13, -4.47180986404418950000e+000) (14, 1.50000000000000000000e+003) (15, 2.26273989677429200000e+000) (16, 1.94335043430328370000e+000) (17, 1.50000000000000000000e+003) (18, 1.93819713592529300000e+000) (19, 1.89034891128540040000e+000) (20, 1.50000000000000000000e+003) (21, 1.50000000000000000000e+003) (22, 9.33411836624145510000e-001) (23, 1.50000000000000000000e+003) (24, 1.50000000000000000000e+003) (25, -1.64038467407226560000e+000) (26, 2.92339668273925780000e+001) (27, 1.50000000000000000000e+003) (0, -2.79039430618286130000e+000) (1, 8.20642560720443730000e-002) (2, 1.50000000000000000000e+003) (3, -2.78666764497756960000e-001) (4, 8.22009944915771480000e+000) (5, 1.50000000000000000000e+003) (6, 1.00295269489288330000e+000) (7, 4.98318815231323240000e+000) (8, 1.50000000000000000000e+003) (9, 6.72965049743652340000e-001) (10, 1.50000000000000000000e+003) (11, 1.50000000000000000000e+003) (12, 9.44462013244628910000e+000) (13, 1.50000000000000000000e+003) (14, -2.35229759216308590000e+001) (15, -1.11561918258666990000e+000) (16, 2.11704730987548830000e+000) (17, 1.07856237888336180000e+000) (18, 7.60989546775817870000e-001) (19, 1.50000000000000000000e+003) (20, 1.50000000000000000000e+003) (21, 2.86951929330825810000e-001) (22, 1.14870433807373050000e+001) (23, 1.50000000000000000000e+003) (24, 1.34862864017486570000e+000) (25, -3.78340303897857670000e-001) (26, 1.50788593292236330000e+001) (27, 1.50000000000000000000e+003) (28, 1.50000000000000000000e+003) (0, -3.14081645011901860000e+000) (1, 4.40724194049835210000e-001) (2, 1.76952683925628660000e+000) (3, 1.34802174568176270000e+000) (4, -1.08977891504764560000e-002) (5, 2.23122477531433110000e+000) (6, -8.28632593154907230000e-001) (7, 6.57675027847290040000e+000) (8, 1.81424903869628910000e+000) (9, -9.19751971960067750000e-002) (10, 5.31693315505981450000e+000) (11, 1.38901257514953610000e+000) (12, 2.09463620185852050000e+000) (13, 4.74677801132202150000e-001) (14, 1.20544826984405520000e+000) (15, 1.08658003807067870000e+000) (16, -4.68109361827373500000e-002) (17, 5.87065601348876950000e+000) (18, 9.07917201519012450000e-001) (19, 2.51134610176086430000e+000) (20, 2.84862518310546870000e+000) (21, 4.75465250015258790000e+000) (22, 1.16267156600952150000e+000) (23, 2.63032650947570800000e+000) (24, 1.76547896862030030000e+000) (25, 1.35967493057250980000e+000) (26, 4.08696699142456050000e+000) (27, 2.68740344047546390000e+000) (28, 3.92934837341308590000e+001) (29, 3.22079162597656250000e+001) (0, 8.44942188262939450000e+000) (1, -1.00602989196777340000e+002) (2, -1.14956054687500000000e+003) (3, 3.55019035339355470000e+001) (4, -4.09349918365478520000e+000) (5, -1.50000000000000000000e+003) (6, -2.07287731170654300000e+001) (7, 9.33105349540710450000e-001) (8, -1.50000000000000000000e+003) (9, -1.21126579284667970000e+002) (10, -1.50000000000000000000e+003) (11, -4.14756679534912110000e+000) (12, 4.99425172805786130000e+000) (13, 1.13396697998046870000e+002) (14, -1.04397392272949220000e+001) (15, -1.16407821655273440000e+002) (16, 9.80793285369873050000e+000) (17, -1.50000000000000000000e+003) (18, 1.38619959354400630000e+000) (19, -1.50000000000000000000e+003) (20, -1.50000000000000000000e+003) (21, -1.50000000000000000000e+003) (22, -2.34713172912597660000e+001) (23, -1.50000000000000000000e+003) (24, 9.93261146545410160000e+000) (25, -1.09994878768920900000e+001) (26, -6.98147827148437500000e+002) (27, -1.50000000000000000000e+003) (28, -1.50000000000000000000e+003) (29, -1.50000000000000000000e+003) (30, 1.02410542964935300000e+000) (0, -1.77047939300537110000e+001) (1, 9.23367309570312500000e+000) (2, -2.36138935089111330000e+001) (3, 4.56464767456054690000e+000) (4, -1.96990070343017580000e+001) (5, 7.96611452102661130000e+000) (6, -1.78378498554229740000e+000) (7, 7.19336318969726560000e+000) (8, -3.65606516599655150000e-001) (9, -3.83288478851318360000e+000) (10, -2.66253776550292970000e+001) (11, 9.83404099941253660000e-001) (12, -8.32957935333251950000e+000) (13, 5.49175977706909180000e+000) (14, 6.84750976562500000000e+001) (15, -9.04431152343750000000e+000) (16, 7.27005338668823240000e+000) (17, -2.74304866790771480000e+001) (18, -7.70795297622680660000e+000) (19, 1.95415687561035160000e+001) (20, 2.66656608581542970000e+001) (21, -1.08258132934570310000e+001) (22, -9.06150150299072270000e+000) (23, -1.83838405609130860000e+001) (24, 3.52224636077880860000e+000) (25, -8.72134566307067870000e-002) (26, 1.32859649658203130000e+002) (27, -4.72659515380859370000e+002) (28, 1.50000000000000000000e+003) (29, 1.19152648925781250000e+003) (30, 1.07966156005859380000e+001) (31, -2.65017299652099610000e+001) 
