FANN_FLO_2.0
num_layers=19
learning_rate=0.700000
connection_rate=1.000000
shortcut_connections=1
learning_momentum=0.000000
training_algorithm=2
train_error_function=0
train_stop_function=0
cascade_output_change_fraction=0.010000
quickprop_decay=-0.000100
quickprop_mu=1.750000
rprop_increase_factor=1.200000
rprop_decrease_factor=0.500000
rprop_delta_min=0.000000
rprop_delta_max=50.000000
rprop_delta_zero=0.500000
cascade_output_stagnation_epochs=12
cascade_candidate_change_fraction=0.010000
cascade_candidate_stagnation_epochs=12
cascade_max_out_epochs=150
cascade_max_cand_epochs=150
cascade_num_candidate_groups=2
bit_fail_limit=3.49999994039535520000e-001
cascade_candidate_limit=1.00000000000000000000e+003
cascade_weight_multiplier=4.00000005960464480000e-001
cascade_activation_functions_count=6
cascade_activation_functions=3 5 7 8 10 11 
cascade_activation_steepnesses_count=4
cascade_activation_steepnesses=2.50000000000000000000e-001 5.00000000000000000000e-001 7.50000000000000000000e-001 1.00000000000000000000e+000 
layer_sizes=4 1 1 1 1 1 1 1 1 1 1 1 1 1 1 1 1 1 3 
neurons (num_inputs, activation_function, activation_steepness)=(0, 0, 0.00000000000000000000e+000) (0, 0, 0.00000000000000000000e+000) (0, 0, 0.00000000000000000000e+000) (0, 0, 0.00000000000000000000e+000) (4, 8, 7.50000000000000000000e-001) (5, 8, 7.50000000000000000000e-001) (6, 7, 5.00000000000000000000e-001) (7, 11, 1.00000000000000000000e+000) (8, 11, 2.50000000000000000000e-001) (9, 5, 2.50000000000000000000e-001) (10, 11, 2.50000000000000000000e-001) (11, 11, 2.50000000000000000000e-001) (12, 5, 2.50000000000000000000e-001) (13, 11, 5.00000000000000000000e-001) (14, 7, 2.50000000000000000000e-001) (15, 11, 1.00000000000000000000e+000) (16, 11, 2.50000000000000000000e-001) (17, 11, 5.00000000000000000000e-001) (18, 11, 7.50000000000000000000e-001) (19, 5, 1.00000000000000000000e+000) (20, 11, 2.50000000000000000000e-001) (21, 13, 5.00000000000000000000e-001) (21, 13, 5.00000000000000000000e-001) (21, 13, 5.00000000000000000000e-001) 
connections (connected_to_neuron, weight)=(0, -8.23771715164184570000e-001) (1, -9.02206480503082280000e-001) (2, -8.67153882980346680000e-001) (3, -7.02038109302520750000e-002) (0, -8.80417287349700930000e-001) (1, 9.93546750396490100000e-003) (2, -1.21906232833862300000e+000) (3, 5.75287282466888430000e-001) (4, 1.00852155685424800000e+000) (0, 2.71056437492370610000e+000) (1, -2.46346449851989750000e+000) (2, 1.51240289211273190000e+000) (3, -2.67200779914855960000e+000) (4, 3.32976436614990230000e+000) (5, -5.62638998031616210000e+000) (0, 5.46324579045176510000e-003) (1, -7.11543427314609290000e-004) (2, -5.09453564882278440000e-003) (3, 7.47590616811066870000e-004) (4, -1.01150181144475940000e-002) (5, 4.44244034588336940000e-003) (6, -2.67392009496688840000e-001) (0, -3.37712583132088180000e-003) (1, -6.23227795585989950000e-003) (2, 1.09548605978488920000e-002) (3, 1.46519411355257030000e-002) (4, 3.44559885561466220000e-002) (5, -2.04755924642086030000e-003) (6, 1.56431838870048520000e-001) (7, -5.26254214346408840000e-002) (0, -1.37294838204979900000e-002) (1, 8.84336419403553010000e-003) (2, 4.30835830047726630000e-003) (3, -2.65644732862710950000e-002) (4, -5.37256598472595210000e-002) (5, 9.76808462291955950000e-003) (6, -5.70578388869762420000e-002) (7, 1.34719431400299070000e-001) (8, -1.14620126783847810000e-001) (0, -3.13937547616660590000e-003) (1, 3.10282944701612000000e-003) (2, -3.56988492421805860000e-003) (3, -7.74255953729152680000e-003) (4, -2.61985454708337780000e-002) (5, 1.71877853572368620000e-002) (6, -1.58580407500267030000e-001) (7, 2.05991715192794800000e-001) (8, -1.11776888370513920000e-001) (9, 1.42847150564193730000e-001) (0, 5.09957876056432720000e-003) (1, -6.23356830328702930000e-003) (2, 5.02407609019428490000e-004) (3, -8.71499627828598020000e-003) (4, -2.28647310286760330000e-002) (5, 1.06812771409749980000e-002) (6, -1.92776307463645940000e-001) (7, 2.50006288290023800000e-001) (8, -1.32029220461845400000e-001) (9, 4.54844713211059570000e-001) (10, 4.44099366664886470000e-001) (0, 1.69877279549837110000e-002) (1, -9.18928347527980800000e-003) (2, -7.26092653349041940000e-003) (3, 2.24103592336177830000e-002) (4, 3.66134457290172580000e-002) (5, -1.21506955474615100000e-002) (6, -3.70076715946197510000e-001) (7, 8.40111915022134780000e-003) (8, -3.12588438391685490000e-002) (9, 5.58636523783206940000e-002) (10, -1.74433141946792600000e-001) (11, -1.27684324979782100000e-001) (0, 2.92539526708424090000e-003) (1, 1.11462706699967380000e-002) (2, -1.05787953361868860000e-002) (3, -3.78251150250434880000e-002) (4, -7.17111825942993160000e-002) (5, 3.01659740507602690000e-002) (6, 1.03599272668361660000e-001) (7, -8.08755226898938420000e-004) (8, -2.31034025549888610000e-001) (9, 8.67688953876495360000e-002) (10, 1.28774382174015050000e-002) (11, 3.62151525914669040000e-002) (12, -6.92989304661750790000e-002) (0, 1.96368825435638430000e+000) (1, 8.58483314514160160000e+000) (2, 8.33578968048095700000e+000) (3, 3.21109700202941890000e+000) (4, 3.23287916183471680000e+000) (5, 1.11624813079833980000e+000) (6, 3.16056609153747560000e+000) (7, -1.91465222835540770000e+000) (8, 3.27924895286560060000e+000) (9, -1.91567385196685790000e+000) (10, -1.85846650600433350000e+000) (11, -1.84198081493377690000e+000) (12, 3.12176012992858890000e+000) (13, -1.75197148323059080000e+000) (0, -8.12592334114015100000e-005) (1, 6.29167631268501280000e-003) (2, -5.08576864376664160000e-003) (3, 1.53417447581887250000e-002) (4, 2.99530308693647380000e-002) (5, -1.13458307459950450000e-002) (6, 8.47379560582339760000e-004) (7, -1.10979098826646800000e-002) (8, 3.24907600879669190000e-002) (9, 9.02170315384864810000e-002) (10, 1.53923034667968750000e-001) (11, 3.84733788669109340000e-002) (12, -5.53915798664093020000e-002) (13, 1.28918262198567390000e-002) (14, 1.34681969881057740000e-001) (0, -2.45190300047397610000e-002) (1, 2.53656785935163500000e-002) (2, -1.93921290338039400000e-002) (3, -2.64699105173349380000e-002) (4, -3.05557735264301300000e-002) (5, 4.24676351249217990000e-002) (6, 2.41090998053550720000e-001) (7, -1.61234941333532330000e-002) (8, 2.47069448232650760000e-002) (9, 1.60070553421974180000e-001) (10, -1.03454872965812680000e-001) (11, 1.70652777887880800000e-003) (12, -1.30530387163162230000e-001) (13, 4.63261604309082030000e-002) (14, -4.29949685931205750000e-002) (15, -4.86781932413578030000e-002) (0, 8.29099502880126240000e-004) (1, -1.79563660640269520000e-003) (2, -3.81903548259288070000e-004) (3, 8.51592794060707090000e-003) (4, 2.50407606363296510000e-002) (5, -1.01444562897086140000e-002) (6, 3.78123559057712550000e-002) (7, -2.47647818177938460000e-002) (8, -1.20289348065853120000e-001) (9, 1.48745968937873840000e-001) (10, 3.73506918549537660000e-002) (11, 5.51302395761013030000e-002) (12, -1.22632253915071490000e-002) (13, 6.96129305288195610000e-003) (14, -5.22495843470096590000e-002) (15, 5.77465668320655820000e-002) (16, 7.47163593769073490000e-002) (0, -1.25326972920447590000e-003) (1, -7.74359039496630430000e-004) (2, -7.30707892216742040000e-004) (3, -1.66909431573003530000e-003) (4, -9.63418744504451750000e-003) (5, 1.52947090100497010000e-003) (6, -4.01105582714080810000e-001) (7, 1.83696791529655460000e-001) (8, -1.05245262384414670000e-002) (9, 6.90086707472801210000e-002) (10, -8.35040770471096040000e-003) (11, 1.35585725307464600000e-001) (12, 8.58917012810707090000e-002) (13, -8.83573815226554870000e-002) (14, 7.24513530731201170000e-002) (15, 1.38351824134588240000e-002) (16, -1.23477600514888760000e-001) (17, 8.67606699466705320000e-002) (0, 5.91529358644038440000e-004) (1, -1.05076911859214310000e-003) (2, 1.98357319459319110000e-003) (3, 7.92412145528942350000e-004) (4, 1.17902201600372790000e-003) (5, -2.81424913555383680000e-003) (6, -1.05887785553932190000e-001) (7, 3.32702361047267910000e-002) (8, 1.19475591927766800000e-002) (9, 2.47799251228570940000e-002) (10, -1.04788532480597500000e-002) (11, 2.00388971716165540000e-002) (12, 2.21307631582021710000e-002) (13, 1.61063428968191150000e-002) (14, -1.37266337871551510000e-001) (15, 2.52888426184654240000e-002) (16, 5.77519163489341740000e-002) (17, -3.55049483478069310000e-002) (18, -2.78550565242767330000e-001) (0, 1.08884926885366440000e-003) (1, -2.77385371737182140000e-003) (2, 9.55856963992118840000e-003) (3, 1.53191750869154930000e-002) (4, 2.90448609739542010000e-002) (5, -2.44626011699438100000e-002) (6, -9.14932563900947570000e-002) (7, 1.42118811607360840000e+000) (8, -1.75264865159988400000e-001) (9, -2.04858882352709770000e-003) (10, 1.96486905217170720000e-001) (11, 2.68099099397659300000e-001) (12, 6.83277845382690430000e-001) (13, -1.56092932447791100000e-002) (14, -5.06644248962402340000e-001) (15, 1.49991977959871290000e-002) (16, -1.31747916340827940000e-001) (17, 4.02646362781524660000e-002) (18, 3.79607486724853520000e+000) (19, 8.31771433353424070000e-001) (0, 5.31988477706909180000e+000) (1, 1.53414583206176760000e+000) (2, -1.54950904846191410000e+000) (3, 1.55334556102752690000e+000) (4, -7.34852731227874760000e-001) (5, 2.17136889696121220000e-001) (6, 2.85559147596359250000e-001) (7, 6.59729480743408200000e-001) (8, 6.90224841237068180000e-002) (9, 6.35804235935211180000e-001) (10, 4.93221968412399290000e-001) (11, 4.70653325319290160000e-001) (12, 9.30017456412315370000e-002) (13, 4.35450762510299680000e-001) (14, 1.62972256541252140000e-001) (15, 1.15734301507472990000e-001) (16, 2.22309872508049010000e-001) (17, 6.78597539663314820000e-002) (18, 1.28842726349830630000e-001) (19, 9.89150851964950560000e-002) (20, 5.09483702480793000000e-002) (0, -1.32068884372711180000e+000) (1, 5.33743143081665040000e+000) (2, 1.28168284893035890000e+000) (3, 1.53710353374481200000e+000) (4, -8.11935901641845700000e-001) (5, 1.77044216543436050000e-002) (6, 2.60415881872177120000e-001) (7, 5.59712767601013180000e-001) (8, 8.97112935781478880000e-002) (9, 6.87234878540039060000e-001) (10, 4.79837864637374880000e-001) (11, 4.32413130998611450000e-001) (12, 3.05923484265804290000e-002) (13, 3.82498353719711300000e-001) (14, 4.57357019186019900000e-002) (15, 8.82087200880050660000e-002) (16, 2.06262215971946720000e-001) (17, 1.05915032327175140000e-001) (18, 1.04372955858707430000e-001) (19, 1.50156527757644650000e-001) (20, 5.79359829425811770000e-002) (0, 1.54348599910736080000e+000) (1, -1.67471277713775630000e+000) (2, 5.63251733779907230000e+000) (3, 1.59425425529479980000e+000) (4, -6.53012990951538090000e-001) (5, 4.59097325801849370000e-001) (6, 1.86658531427383420000e-001) (7, 6.77811980247497560000e-001) (8, 1.56636521220207210000e-001) (9, 5.89347958564758300000e-001) (10, 4.91282612085342410000e-001) (11, 4.82119053602218630000e-001) (12, 1.60980492830276490000e-001) (13, 3.79024922847747800000e-001) (14, 1.55077278614044190000e-001) (15, 9.22672450542449950000e-002) (16, 1.92999631166458130000e-001) (17, 5.20498193800449370000e-002) (18, 1.52627974748611450000e-001) (19, 9.40742120146751400000e-002) (20, 3.56654711067676540000e-002) 
