FANN_FLO_2.0
num_layers=141
learning_rate=0.700000
connection_rate=1.000000
shortcut_connections=1
learning_momentum=0.000000
training_algorithm=2
train_error_function=0
train_stop_function=0
cascade_output_change_fraction=0.010000
quickprop_decay=-0.000100
quickprop_mu=1.750000
rprop_increase_factor=1.200000
rprop_decrease_factor=0.500000
rprop_delta_min=0.000000
rprop_delta_max=50.000000
rprop_delta_zero=0.500000
cascade_output_stagnation_epochs=12
cascade_candidate_change_fraction=0.010000
cascade_candidate_stagnation_epochs=12
cascade_max_out_epochs=150
cascade_max_cand_epochs=150
cascade_num_candidate_groups=2
bit_fail_limit=3.49999994039535520000e-001
cascade_candidate_limit=1.00000000000000000000e+003
cascade_weight_multiplier=4.00000005960464480000e-001
cascade_activation_functions_count=6
cascade_activation_functions=3 5 7 8 10 11 
cascade_activation_steepnesses_count=4
cascade_activation_steepnesses=2.50000000000000000000e-001 5.00000000000000000000e-001 7.50000000000000000000e-001 1.00000000000000000000e+000 
layer_sizes=10 1 1 1 1 1 1 1 1 1 1 1 1 1 1 1 1 1 1 1 1 1 1 1 1 1 1 1 1 1 1 1 1 1 1 1 1 1 1 1 1 1 1 1 1 1 1 1 1 1 1 1 1 1 1 1 1 1 1 1 1 1 1 1 1 1 1 1 1 1 1 1 1 1 1 1 1 1 1 1 1 1 1 1 1 1 1 1 1 1 1 1 1 1 1 1 1 1 1 1 1 1 1 1 1 1 1 1 1 1 1 1 1 1 1 1 1 1 1 1 1 1 1 1 1 1 1 1 1 1 1 1 1 1 1 1 1 1 1 1 9 
neurons (num_inputs, activation_function, activation_steepness)=(0, 0, 0.00000000000000000000e+000) (0, 0, 0.00000000000000000000e+000) (0, 0, 0.00000000000000000000e+000) (0, 0, 0.00000000000000000000e+000) (0, 0, 0.00000000000000000000e+000) (0, 0, 0.00000000000000000000e+000) (0, 0, 0.00000000000000000000e+000) (0, 0, 0.00000000000000000000e+000) (0, 0, 0.00000000000000000000e+000) (0, 0, 0.00000000000000000000e+000) (10, 8, 7.50000000000000000000e-001) (11, 8, 7.50000000000000000000e-001) (12, 8, 1.00000000000000000000e+000) (13, 8, 7.50000000000000000000e-001) (14, 8, 7.50000000000000000000e-001) (15, 8, 2.50000000000000000000e-001) (16, 8, 5.00000000000000000000e-001) (17, 8, 2.50000000000000000000e-001) (18, 7, 1.00000000000000000000e+000) (19, 7, 1.00000000000000000000e+000) (20, 7, 5.00000000000000000000e-001) (21, 8, 2.50000000000000000000e-001) (22, 8, 2.50000000000000000000e-001) (23, 3, 1.00000000000000000000e+000) (24, 8, 2.50000000000000000000e-001) (25, 8, 5.00000000000000000000e-001) (26, 7, 1.00000000000000000000e+000) (27, 8, 7.50000000000000000000e-001) (28, 3, 1.00000000000000000000e+000) (29, 7, 7.50000000000000000000e-001) (30, 7, 1.00000000000000000000e+000) (31, 8, 5.00000000000000000000e-001) (32, 3, 7.50000000000000000000e-001) (33, 8, 1.00000000000000000000e+000) (34, 8, 2.50000000000000000000e-001) (35, 8, 7.50000000000000000000e-001) (36, 8, 5.00000000000000000000e-001) (37, 7, 5.00000000000000000000e-001) (38, 7, 5.00000000000000000000e-001) (39, 8, 2.50000000000000000000e-001) (40, 3, 1.00000000000000000000e+000) (41, 3, 7.50000000000000000000e-001) (42, 8, 1.00000000000000000000e+000) (43, 8, 7.50000000000000000000e-001) (44, 8, 1.00000000000000000000e+000) (45, 7, 1.00000000000000000000e+000) (46, 8, 1.00000000000000000000e+000) (47, 8, 1.00000000000000000000e+000) (48, 8, 1.00000000000000000000e+000) (49, 8, 1.00000000000000000000e+000) (50, 8, 5.00000000000000000000e-001) (51, 8, 5.00000000000000000000e-001) (52, 8, 1.00000000000000000000e+000) (53, 7, 1.00000000000000000000e+000) (54, 8, 7.50000000000000000000e-001) (55, 8, 7.50000000000000000000e-001) (56, 8, 5.00000000000000000000e-001) (57, 7, 1.00000000000000000000e+000) (58, 8, 1.00000000000000000000e+000) (59, 3, 1.00000000000000000000e+000) (60, 8, 7.50000000000000000000e-001) (61, 8, 7.50000000000000000000e-001) (62, 8, 7.50000000000000000000e-001) (63, 8, 1.00000000000000000000e+000) (64, 7, 2.50000000000000000000e-001) (65, 3, 7.50000000000000000000e-001) (66, 8, 2.50000000000000000000e-001) (67, 8, 1.00000000000000000000e+000) (68, 8, 7.50000000000000000000e-001) (69, 7, 7.50000000000000000000e-001) (70, 7, 5.00000000000000000000e-001) (71, 7, 5.00000000000000000000e-001) (72, 8, 1.00000000000000000000e+000) (73, 8, 5.00000000000000000000e-001) (74, 8, 5.00000000000000000000e-001) (75, 3, 1.00000000000000000000e+000) (76, 3, 1.00000000000000000000e+000) (77, 3, 5.00000000000000000000e-001) (78, 8, 5.00000000000000000000e-001) (79, 7, 1.00000000000000000000e+000) (80, 3, 7.50000000000000000000e-001) (81, 3, 1.00000000000000000000e+000) (82, 7, 7.50000000000000000000e-001) (83, 3, 7.50000000000000000000e-001) (84, 8, 7.50000000000000000000e-001) (85, 8, 1.00000000000000000000e+000) (86, 8, 5.00000000000000000000e-001) (87, 3, 1.00000000000000000000e+000) (88, 7, 5.00000000000000000000e-001) (89, 8, 7.50000000000000000000e-001) (90, 8, 1.00000000000000000000e+000) (91, 8, 1.00000000000000000000e+000) (92, 8, 1.00000000000000000000e+000) (93, 7, 1.00000000000000000000e+000) (94, 7, 5.00000000000000000000e-001) (95, 3, 1.00000000000000000000e+000) (96, 3, 1.00000000000000000000e+000) (97, 7, 7.50000000000000000000e-001) (98, 3, 7.50000000000000000000e-001) (99, 3, 2.50000000000000000000e-001) (100, 7, 5.00000000000000000000e-001) (101, 8, 7.50000000000000000000e-001) (102, 5, 7.50000000000000000000e-001) (103, 5, 2.50000000000000000000e-001) (104, 3, 1.00000000000000000000e+000) (105, 3, 2.50000000000000000000e-001) (106, 3, 7.50000000000000000000e-001) (107, 3, 7.50000000000000000000e-001) (108, 3, 1.00000000000000000000e+000) (109, 8, 7.50000000000000000000e-001) (110, 3, 2.50000000000000000000e-001) (111, 3, 1.00000000000000000000e+000) (112, 5, 2.50000000000000000000e-001) (113, 7, 7.50000000000000000000e-001) (114, 5, 2.50000000000000000000e-001) (115, 3, 2.50000000000000000000e-001) (116, 7, 5.00000000000000000000e-001) (117, 5, 2.50000000000000000000e-001) (118, 3, 5.00000000000000000000e-001) (119, 3, 2.50000000000000000000e-001) (120, 3, 2.50000000000000000000e-001) (121, 5, 2.50000000000000000000e-001) (122, 3, 2.50000000000000000000e-001) (123, 7, 5.00000000000000000000e-001) (124, 3, 2.50000000000000000000e-001) (125, 5, 2.50000000000000000000e-001) (126, 5, 2.50000000000000000000e-001) (127, 5, 2.50000000000000000000e-001) (128, 10, 1.00000000000000000000e+000) (129, 3, 5.00000000000000000000e-001) (130, 11, 2.50000000000000000000e-001) (131, 10, 1.00000000000000000000e+000) (132, 5, 2.50000000000000000000e-001) (133, 5, 5.00000000000000000000e-001) (134, 11, 1.00000000000000000000e+000) (135, 11, 5.00000000000000000000e-001) (136, 11, 5.00000000000000000000e-001) (137, 3, 7.50000000000000000000e-001) (138, 11, 5.00000000000000000000e-001) (139, 7, 1.00000000000000000000e+000) (140, 5, 5.00000000000000000000e-001) (141, 11, 5.00000000000000000000e-001) (142, 11, 5.00000000000000000000e-001) (143, 5, 2.50000000000000000000e-001) (144, 5, 2.50000000000000000000e-001) (145, 5, 7.50000000000000000000e-001) (146, 5, 2.50000000000000000000e-001) (147, 5, 2.50000000000000000000e-001) (148, 11, 7.50000000000000000000e-001) (149, 5, 5.00000000000000000000e-001) (149, 5, 5.00000000000000000000e-001) (149, 5, 5.00000000000000000000e-001) (149, 5, 5.00000000000000000000e-001) (149, 5, 5.00000000000000000000e-001) (149, 5, 5.00000000000000000000e-001) (149, 5, 5.00000000000000000000e-001) (149, 5, 5.00000000000000000000e-001) (149, 5, 5.00000000000000000000e-001) 
connections (connected_to_neuron, weight)=(0, -3.09539347887039180000e-001) (1, 7.22614079713821410000e-002) (2, 1.77037477493286130000e-001) (3, -2.54482746124267580000e-001) (4, 1.02373433113098140000e+000) (5, -1.26995727419853210000e-001) (6, 2.49723386764526370000e+000) (7, 1.12561628222465520000e-001) (8, -6.90408796072006230000e-002) (9, 7.29579105973243710000e-002) (0, -5.91756403446197510000e-002) (1, 7.33082056045532230000e-001) (2, -3.16562891006469730000e-001) (3, -4.22940135002136230000e-001) (4, 3.66447791457176210000e-002) (5, -1.03330582380294800000e-001) (6, 1.89977698028087620000e-002) (7, -3.54819750785827640000e+000) (8, 2.32830211520195010000e-001) (9, 3.63036766648292540000e-002) (10, 1.75220832228660580000e-001) (0, -4.72266785800457000000e-003) (1, -8.60997736454010010000e-002) (2, -1.29186064004898070000e-001) (3, 1.53205335140228270000e+000) (4, 1.77100636065006260000e-002) (5, -2.25012078881263730000e-002) (6, 3.85691709816455840000e-002) (7, -5.21366931498050690000e-002) (8, -2.02835798263549800000e-001) (9, 4.22309398651123050000e-001) (10, 3.05451214313507080000e-001) (11, 3.73616874217987060000e-001) (0, -1.62924557924270630000e-001) (1, -8.62882733345031740000e-002) (2, -2.55846351385116580000e-001) (3, -8.17494243383407590000e-002) (4, -3.15120041370391850000e-001) (5, -2.10469588637351990000e-003) (6, -1.51575073599815370000e-001) (7, 9.15023833513259890000e-002) (8, 1.83703017234802250000e+000) (9, 6.56931638717651370000e-001) (10, 3.65613073110580440000e-001) (11, 3.36771160364151000000e-001) (12, 3.40519040822982790000e-001) (0, 2.16073608398437500000e+000) (1, 3.97565923631191250000e-002) (2, 1.74318745732307430000e-001) (3, 3.91962319612503050000e-001) (4, 2.85290986299514770000e-001) (5, 3.83080333471298220000e-001) (6, -2.97149389982223510000e-001) (7, 2.03846558928489690000e-001) (8, 2.21713960170745850000e-001) (9, -1.62073045969009400000e-001) (10, -7.49696731567382810000e-001) (11, 3.51876139640808110000e-001) (12, -1.69226840138435360000e-001) (13, -3.19345891475677490000e-001) (0, 1.00201644003391270000e-001) (1, 8.75800311565399170000e-001) (2, 2.35541248321533200000e+000) (3, 5.27206182479858400000e+000) (4, 4.51779931783676150000e-001) (5, -2.77047753334045410000e+000) (6, -1.88633248209953310000e-001) (7, -1.31894958019256590000e+000) (8, 1.36049687862396240000e+000) (9, 1.63416773080825810000e-001) (10, 1.60027432441711430000e+000) (11, 9.56465303897857670000e-001) (12, 4.69384700059890750000e-001) (13, 1.44328510761260990000e+000) (14, -2.41323661804199220000e+000) (0, -5.53669989109039310000e-001) (1, -3.24454903602600100000e-002) (2, -2.86294341087341310000e-001) (3, 5.74192821979522710000e-001) (4, 2.25045025348663330000e-001) (5, -3.96885216236114500000e-001) (6, 1.29284307360649110000e-001) (7, 4.53101515769958500000e-001) (8, 1.33082762360572810000e-001) (9, -1.40472546219825740000e-001) (10, 2.98939132690429690000e+000) (11, -9.95677709579467770000e-001) (12, -1.47611886262893680000e-001) (13, 5.66860973834991460000e-001) (14, -5.89695751667022710000e-001) (15, 4.51223909854888920000e-001) (0, -7.67708480358123780000e-001) (1, 1.08275435864925380000e-001) (2, -2.10631155967712400000e+000) (3, 2.62410354614257810000e+000) (4, 2.16835618019104000000e+000) (5, 2.17991089820861820000e+000) (6, -3.88476204872131350000e+000) (7, 1.45040261745452880000e+000) (8, -3.27643483877182010000e-001) (9, 4.87093739211559300000e-002) (10, -9.68704879283905030000e-001) (11, -2.83334589004516600000e+000) (12, 1.34126746654510500000e+000) (13, 1.95393574237823490000e+000) (14, 2.46236205101013180000e+000) (15, -1.34702837467193600000e+000) (16, 2.36179065704345700000e+000) (0, 2.54346227645874020000e+000) (1, 5.72434246540069580000e-001) (2, -2.18619775772094730000e+000) (3, 5.49695074558258060000e-001) (4, -2.47477555274963380000e+000) (5, 1.10801470279693600000e+000) (6, 4.73053544759750370000e-001) (7, 1.58163830637931820000e-002) (8, -3.71058136224746700000e-001) (9, 2.84678530693054200000e+000) (10, -9.71943616867065430000e-001) (11, -1.06240689754486080000e+000) (12, 7.12439596652984620000e-001) (13, 2.13153028488159180000e+000) (14, -4.40044820308685300000e-001) (15, 4.25210148096084590000e-001) (16, -1.09104764461517330000e+000) (17, -4.54777777194976810000e-001) (0, -1.06801934540271760000e-001) (1, -2.34336233139038090000e+000) (2, 2.29394602775573730000e+000) (3, 1.33463931083679200000e+000) (4, -1.14381301403045650000e+000) (5, -1.17587529122829440000e-001) (6, -1.02893519401550290000e+000) (7, 6.32433116436004640000e-001) (8, -1.45471060276031490000e+000) (9, 6.79182350635528560000e-001) (10, -1.43028843402862550000e+000) (11, 1.16552567481994630000e+000) (12, -2.14676201343536380000e-001) (13, -1.65640771389007570000e+000) (14, 1.28515255451202390000e+000) (15, 2.75352692604064940000e+000) (16, 1.50229379534721370000e-001) (17, 9.60523247718811040000e-001) (18, 1.13671910762786870000e+000) (0, -1.47111487388610840000e+000) (1, -1.21450269222259520000e+000) (2, -6.64821326732635500000e-001) (3, 3.79724574089050290000e+000) (4, -2.55093169212341310000e+000) (5, -5.06926476955413820000e-001) (6, 6.50364828109741210000e+000) (7, 8.81770849227905270000e-001) (8, 8.23404610157012940000e-001) (9, 1.21647703647613530000e+000) (10, 7.03781366348266600000e-001) (11, -1.19303405284881590000e+000) (12, -2.84324020147323610000e-001) (13, -2.03577232360839840000e+000) (14, 1.73334014415740970000e+000) (15, 3.23891490697860720000e-001) (16, -4.63021159172058110000e-001) (17, 5.59139966964721680000e+000) (18, 5.69586563110351560000e+000) (19, 5.86649596691131590000e-001) (0, 6.65884613990783690000e-001) (1, -1.25363707542419430000e+000) (2, 2.95621490478515620000e+000) (3, -8.85162293910980220000e-001) (4, 4.33058053255081180000e-001) (5, 7.28405937552452090000e-002) (6, 3.42425644397735600000e-001) (7, -4.76992905139923100000e-001) (8, -7.27161765098571780000e-001) (9, -3.77610296010971070000e-001) (10, 4.46649646759033200000e+000) (11, -1.53083837032318120000e+000) (12, -6.80484890937805180000e-001) (13, -3.45072150230407710000e-001) (14, 1.78038144111633300000e+000) (15, -1.58447444438934330000e+000) (16, 4.53712284564971920000e-001) (17, 3.67430388927459720000e-001) (18, 5.57056236267089840000e+000) (19, -3.45312333106994630000e+000) (20, -1.23341619968414310000e-001) (0, -5.76211810111999510000e-001) (1, -9.06618773937225340000e-001) (2, 6.94972798228263850000e-002) (3, 6.44009828567504880000e-001) (4, -4.74290490150451660000e-001) (5, 1.97048151493072510000e+000) (6, -3.65238833427429200000e+000) (7, 1.55146110057830810000e+000) (8, -2.50365771353244780000e-002) (9, 9.83687996864318850000e-001) (10, -1.04131364822387700000e+000) (11, -1.23101437091827390000e+000) (12, -2.25316452980041500000e+000) (13, 3.14844369888305660000e+000) (14, -2.43116474151611330000e+000) (15, 2.10550737380981450000e+000) (16, -3.13323408365249630000e-001) (17, 8.93436610698699950000e-001) (18, 1.87208354473114010000e+000) (19, 5.09603834152221680000e+000) (20, 1.10635131597518920000e-001) (21, 1.63456177711486820000e+000) (0, 2.66704976558685300000e-001) (1, 7.14835003018379210000e-002) (2, 3.25167089700698850000e-001) (3, 5.26411890983581540000e-001) (4, -1.19691647589206700000e-001) (5, 3.46423804759979250000e-001) (6, -1.99679762125015260000e-001) (7, 1.65820926427841190000e-001) (8, 6.17200195789337160000e-001) (9, -3.24021339416503910000e+000) (10, 1.14525508880615230000e+000) (11, -2.22345013171434400000e-002) (12, 3.92130374908447270000e-001) (13, 1.66405332088470460000e+000) (14, -6.96602940559387210000e-001) (15, -3.40775430202484130000e-001) (16, 8.63015294075012210000e-001) (17, 4.49626624584198000000e-001) (18, -4.73168554687500000000e+003) (19, -1.27722144126892090000e+000) (20, 1.59988239407539370000e-001) (21, 1.20186352729797360000e+000) (22, -9.86281931400299070000e-002) (0, 4.32004642486572270000e+000) (1, 1.30032503604888920000e+000) (2, -3.03737163543701170000e-001) (3, 2.40170407295227050000e+000) (4, 7.36994683742523190000e-001) (5, 3.74108374118804930000e-001) (6, -6.30524396896362300000e-001) (7, -4.23312902450561520000e-001) (8, -2.04845237731933590000e+000) (9, -5.76473832130432130000e-001) (10, 7.33194589614868160000e-001) (11, -5.11534333229064940000e-001) (12, -2.25237727165222170000e+000) (13, 1.21939170360565190000e+000) (14, 1.39004409313201900000e+000) (15, -2.37478446960449220000e+000) (16, -3.17924952507019040000e+000) (17, -9.07851278781890870000e-001) (18, -9.83156919479370120000e-001) (19, 1.77798402309417720000e+000) (20, 2.02117249369621280000e-001) (21, 1.88561439514160160000e+000) (22, 2.93254160881042480000e+000) (23, -1.14603841304779050000e+000) (0, -1.93323969841003420000e-001) (1, 3.10139328241348270000e-001) (2, -3.21701496839523320000e-001) (3, 2.10742712020874020000e-001) (4, 2.64839112758636470000e-001) (5, 4.80765759944915770000e-001) (6, 7.53342807292938230000e-001) (7, -1.03559470176696780000e+000) (8, -9.23639655113220210000e-001) (9, -4.15928095579147340000e-001) (10, -1.41251456737518310000e+000) (11, -5.17877982929348950000e-003) (12, 2.76506334543228150000e-001) (13, -1.38080263137817380000e+000) (14, -6.65693432092666630000e-002) (15, 3.29007267951965330000e-001) (16, 2.75385349988937380000e-001) (17, 8.59774369746446610000e-003) (18, 2.33405756950378420000e+000) (19, -1.94085454940795900000e+000) (20, 1.09919834136962890000e+000) (21, 1.82394850254058840000e+000) (22, 9.74987804889678960000e-001) (23, 3.32179832458496090000e+000) (24, -8.78728568553924560000e-001) (0, -5.78184008598327640000e-001) (1, -3.04942774772644040000e+000) (2, 5.78489422798156740000e-001) (3, 1.21761620044708250000e+000) (4, -1.15760016441345210000e+000) (5, 1.18439989164471630000e-002) (6, -5.32957971096038820000e-001) (7, 1.17577767372131350000e+000) (8, 9.52218353748321530000e-001) (9, -4.25719290971755980000e-001) (10, -2.38959836959838870000e+000) (11, -5.82733988761901860000e-001) (12, -5.80058932304382320000e-001) (13, -1.01316356658935550000e+000) (14, 2.26998996734619140000e+000) (15, -4.99909669160842900000e-001) (16, 3.27288508415222170000e+000) (17, 5.05041122436523440000e-001) (18, -1.32984459400177000000e+000) (19, -3.45898330211639400000e-001) (20, -1.57555234432220460000e+000) (21, 1.58135223388671870000e+000) (22, 2.73654508590698240000e+000) (23, 2.78847646713256840000e+000) (24, -7.22856402397155760000e-001) (25, -4.45478916168212890000e-001) (0, 6.22500061988830570000e-001) (1, -2.67381280660629270000e-001) (2, -3.65142524242401120000e-001) (3, 9.77695763111114500000e-001) (4, -2.87314429879188540000e-002) (5, -3.28392088413238530000e-001) (6, 3.32441836595535280000e-001) (7, -9.42804336547851560000e-001) (8, 3.19799214601516720000e-001) (9, 4.94734430685639380000e-003) (10, -3.40390443801879880000e-001) (11, 2.02732399106025700000e-001) (12, -2.76534020900726320000e-001) (13, 3.30947160720825200000e-001) (14, 8.33921909332275390000e-001) (15, -1.63305148482322690000e-001) (16, -3.30002874135971070000e-001) (17, -1.17358952760696410000e-001) (18, 2.75896266102790830000e-002) (19, -1.68860471248626710000e+000) (20, -6.24980568885803220000e-001) (21, 1.18844676017761230000e+000) (22, -8.37177112698554990000e-002) (23, -1.65673947334289550000e+000) (24, -4.71774339675903320000e-001) (25, -1.15924060344696040000e+000) (26, 9.67255890369415280000e-001) (0, -1.37116909027099610000e-001) (1, -3.23092043399810790000e-002) (2, 3.01646679639816280000e-001) (3, 1.30381584167480470000e-001) (4, -1.76086381077766420000e-001) (5, 9.49681103229522710000e-001) (6, 1.12885780632495880000e-001) (7, -3.28621923923492430000e-001) (8, 4.29010808467864990000e-001) (9, -2.91398715972900390000e+000) (10, -1.65657743811607360000e-001) (11, 6.98360681533813480000e-001) (12, 5.02954125404357910000e-001) (13, 8.07315945625305180000e-001) (14, -8.88367772102355960000e-001) (15, -1.73847824335098270000e-001) (16, 1.08814978599548340000e+000) (17, 5.91822028160095210000e-001) (18, -4.67590999603271480000e+000) (19, -3.12328028678894040000e+000) (20, 5.70219278335571290000e-001) (21, 1.52380675077438350000e-001) (22, 2.81447786837816240000e-002) (23, -8.06090831756591800000e+000) (24, 9.41834628582000730000e-001) (25, 3.34785789251327510000e-001) (26, -4.86818552017211910000e+000) (27, 1.67468023300170900000e+000) (0, 1.63991785049438480000e+000) (1, -2.22853326797485350000e+000) (2, 1.29720345139503480000e-001) (3, 4.51519399881362920000e-001) (4, -6.69389963150024410000e-001) (5, 1.11135137081146240000e+000) (6, 2.61041474342346190000e+000) (7, -1.55976092815399170000e+000) (8, -1.82707905769348140000e+000) (9, 7.88897812366485600000e-001) (10, 3.79584550857543950000e-001) (11, 1.58831164240837100000e-001) (12, 1.36302679777145390000e-001) (13, -7.02701747417449950000e-001) (14, 8.69260907173156740000e-001) (15, 7.58890926837921140000e-001) (16, 3.17216014862060550000e+000) (17, 2.09694790840148930000e+000) (18, -1.57594922930002210000e-002) (19, 6.58433675765991210000e-001) (20, -6.81974470615386960000e-001) (21, -2.72177338600158690000e-001) (22, 3.01228690147399900000e+000) (23, 4.98472690582275390000e+000) (24, -1.87101054191589360000e+000) (25, 1.78381419181823730000e+000) (26, 4.60908746719360350000e+000) (27, -1.91075110435485840000e+000) (28, -7.52941906452178960000e-001) (0, -8.90624642372131350000e-001) (1, -8.42769384384155270000e-001) (2, 8.53250384330749510000e-001) (3, 4.08065438270568850000e-001) (4, -5.06000891327857970000e-002) (5, 3.04104655981063840000e-001) (6, 5.24379312992095950000e-001) (7, 4.71366256475448610000e-001) (8, 1.83538961410522460000e+000) (9, -3.32895696163177490000e-001) (10, -9.81000423431396480000e-001) (11, -1.06454217433929440000e+000) (12, 4.84581589698791500000e-001) (13, 3.66775751113891600000e+000) (14, 5.72078287601470950000e-001) (15, 1.30699500441551210000e-001) (16, 3.44183683395385740000e-001) (17, 2.45591402053833010000e-001) (18, 6.92768335342407230000e-001) (19, 1.55485615134239200000e-001) (20, 2.30369642376899720000e-001) (21, 2.26955151557922360000e+000) (22, 1.03718571364879610000e-001) (23, 4.09110307693481450000e+000) (24, 2.54264879226684570000e+000) (25, 3.27200502157211300000e-001) (26, -6.79354131221771240000e-001) (27, 1.67657211422920230000e-001) (28, 4.04036188125610350000e+000) (29, -5.16461420059204100000e+000) (0, 8.62104237079620360000e-001) (1, -1.42043456435203550000e-002) (2, 3.00567001104354860000e-001) (3, -1.42186835408210750000e-001) (4, 8.90203356742858890000e-001) (5, -9.03918266296386720000e-001) (6, -4.04517561197280880000e-001) (7, 7.89900243282318120000e-001) (8, -4.11823671311140060000e-003) (9, 8.58214274048805240000e-002) (10, -9.47450697422027590000e-002) (11, 2.06534285098314290000e-003) (12, 1.68190157413482670000e+000) (13, -7.02794730663299560000e-001) (14, 6.10571265220642090000e-001) (15, 4.55624461174011230000e-001) (16, -1.70811235904693600000e+000) (17, 1.17903292179107670000e-001) (18, -7.37152159214019780000e-001) (19, -8.63782584667205810000e-001) (20, 2.21200704574584960000e+000) (21, -2.94813364744186400000e-001) (22, 5.63159286975860600000e-001) (23, -1.31569302082061770000e+000) (24, 1.71901130676269530000e+000) (25, -2.50769853591918950000e-001) (26, -2.27871060371398930000e+000) (27, -1.51487088203430180000e+000) (28, -2.44030499458312990000e+000) (29, -2.81891345977783200000e+000) (30, -6.18785858154296880000e-001) (0, -6.71119987964630130000e-001) (1, 6.49206936359405520000e-001) (2, -7.44587033987045290000e-002) (3, 4.95106190443038940000e-001) (4, 9.60552334785461430000e-001) (5, -5.22456645965576170000e-001) (6, -4.85728949308395390000e-001) (7, -2.23562922328710560000e-002) (8, 4.63908106088638310000e-001) (9, -2.37760996818542480000e+000) (10, -6.82224690914154050000e-001) (11, 7.55697190761566160000e-002) (12, -3.21555197238922120000e-001) (13, 1.30679532885551450000e-001) (14, 1.70694053173065190000e+000) (15, -1.40377259254455570000e+000) (16, 1.79928973317146300000e-001) (17, 6.25732183456420900000e-001) (18, -5.04550743103027340000e+000) (19, 7.08549737930297850000e-001) (20, -7.08764028549194340000e+000) (21, 5.90786814689636230000e-001) (22, -8.87987196445465090000e-001) (23, -1.20621328353881840000e+001) (24, -6.00240767002105710000e-001) (25, -5.32082259654998780000e-001) (26, -6.60791683197021480000e+000) (27, 6.46537363529205320000e-001) (28, -5.59230995178222660000e+000) (29, -2.26695594787597660000e+001) (30, -7.45601892471313480000e-001) (31, 1.76444697380065920000e+000) (0, 4.00805652141571040000e-001) (1, -1.23025335371494290000e-001) (2, -7.41080939769744870000e-002) (3, -2.23831757903099060000e-001) (4, 1.29672944545745850000e-001) (5, 6.22070170938968660000e-002) (6, -1.91510543227195740000e-001) (7, 5.93094587326049800000e-001) (8, 9.90324653685092930000e-003) (9, -6.17297217249870300000e-002) (10, -2.19011217355728150000e-001) (11, 7.58542537689208980000e-001) (12, 6.71695888042449950000e-001) (13, 1.73109427094459530000e-001) (14, 2.13122963905334470000e-001) (15, -9.79673936963081360000e-002) (16, 4.39971894025802610000e-001) (17, 2.21692621707916260000e-001) (18, -1.54422089457511900000e-001) (19, 2.48947188258171080000e-001) (20, -2.16782510280609130000e-001) (21, -1.70018479228019710000e-001) (22, 2.17069700360298160000e-001) (23, -1.18446397781372070000e+000) (24, 1.14428820088505740000e-002) (25, 4.24305707216262820000e-001) (26, 7.60993778705596920000e-001) (27, 3.39659690856933590000e-001) (28, 1.91019952297210690000e+000) (29, -6.59331083297729490000e-001) (30, 2.09356307983398440000e+000) (31, -4.44650709629058840000e-001) (32, 1.64607822895050050000e-001) (0, 5.73371350765228270000e-001) (1, -1.81577837467193600000e+000) (2, 1.41136571764945980000e-001) (3, 1.07528650760650630000e+000) (4, 2.86655277013778690000e-001) (5, 1.41075110435485840000e+000) (6, -1.46553173661231990000e-001) (7, 5.17471492290496830000e-001) (8, -4.92493718862533570000e-001) (9, -6.02072715759277340000e-001) (10, -9.38750624656677250000e-001) (11, -2.48354458808898930000e+000) (12, -1.37323334813117980000e-001) (13, 1.05756413936614990000e+000) (14, -4.82305914163589480000e-001) (15, 1.42905965447425840000e-001) (16, -1.50415338575840000000e-002) (17, 1.28649443387985230000e-001) (18, 6.35541081428527830000e-001) (19, 3.64579379558563230000e-001) (20, 3.43767929077148440000e+000) (21, -2.76979327201843260000e+000) (22, -1.08745384216308590000e+000) (23, -6.68000411987304690000e+000) (24, 5.15089273452758790000e+000) (25, -4.03332322835922240000e-001) (26, 6.05018019676208500000e-001) (27, 1.35914087295532230000e-002) (28, -2.15360617637634280000e+000) (29, 8.23595151305198670000e-002) (30, 1.80599057674407960000e+000) (31, 8.56890618801116940000e-001) (32, -1.38499093055725100000e+000) (33, -2.07794642448425290000e+000) (0, 2.10855770856142040000e-002) (1, 1.23535764217376710000e+000) (2, 1.95809215307235720000e-001) (3, 3.43978017568588260000e-001) (4, 4.82252150774002080000e-001) (5, -5.01646893098950390000e-003) (6, -3.52016240358352660000e-001) (7, 5.83331167697906490000e-001) (8, -5.11386930942535400000e-001) (9, 3.46344739198684690000e-001) (10, -5.04800736904144290000e-001) (11, -3.01380157470703130000e-001) (12, -3.52415174245834350000e-001) (13, 6.71495079994201660000e-001) (14, -2.89324492216110230000e-001) (15, 2.68923342227935790000e-001) (16, -3.30755740404129030000e-001) (17, 8.19770246744155880000e-002) (18, 1.21458552777767180000e-001) (19, 2.72861391305923460000e-001) (20, -8.04378867149353030000e-001) (21, -6.52508437633514400000e-002) (22, 7.80712008476257320000e-001) (23, 3.38619053363800050000e-001) (24, -6.06942139565944670000e-002) (25, 8.74071195721626280000e-003) (26, 1.06304597854614260000e+000) (27, -4.27843958139419560000e-001) (28, 2.94874024391174320000e+000) (29, 1.22131776809692380000e+000) (30, -3.29977869987487790000e-001) (31, 9.74641680717468260000e-001) (32, -1.83273124694824220000e+000) (33, 1.25252032279968260000e+000) (34, -3.66034172475337980000e-002) (0, 6.59946739673614500000e-001) (1, 1.13630399573594330000e-003) (2, 2.70087271928787230000e-001) (3, 3.95706385374069210000e-001) (4, -3.40764939785003660000e-001) (5, -1.96111887693405150000e-001) (6, -2.89011839777231220000e-002) (7, 3.97660017013549800000e-001) (8, 3.81938755512237550000e-001) (9, -3.52921187877655030000e-001) (10, 9.64459955692291260000e-001) (11, -1.26440867781639100000e-001) (12, 7.21826195716857910000e-001) (13, 4.73291158676147460000e-001) (14, 8.71067821979522710000e-001) (15, 6.23393774032592770000e-001) (16, -3.54000747203826900000e-001) (17, 3.78737575374543670000e-003) (18, -8.54875445365905760000e-001) (19, -6.75240516662597660000e-001) (20, -3.54543119668960570000e-001) (21, -1.22732472419738770000e+000) (22, -1.56149411201477050000e+000) (23, -3.24704480171203610000e+000) (24, -1.76683500409126280000e-001) (25, 3.01932930946350100000e-001) (26, -7.97700285911560060000e-001) (27, -3.33033502101898190000e-001) (28, -1.24318361282348630000e+000) (29, 2.48127840459346770000e-002) (30, 4.26267147064208980000e+000) (31, 1.74770390987396240000e+000) (32, -1.03384304046630860000e+000) (33, 3.17077279090881350000e-001) (34, -2.26075872778892520000e-001) (35, -1.76970422267913820000e+000) (0, -3.08035790920257570000e-001) (1, 5.24829387664794920000e-001) (2, -3.76327663660049440000e-001) (3, -2.18419075012207030000e+000) (4, 2.24343180656433110000e+000) (5, 5.69540932774543760000e-002) (6, 1.40397775173187260000e+000) (7, 2.78189688920974730000e-001) (8, 1.00272201001644130000e-001) (9, -4.48849439620971680000e-001) (10, -3.05993556976318360000e-001) (11, -2.38473391532897950000e+000) (12, 2.07581901550292970000e+000) (13, -8.10334622859954830000e-001) (14, 2.41614007949829100000e+000) (15, 4.57838267087936400000e-001) (16, 9.41577672958374020000e-001) (17, -7.42292344570159910000e-001) (18, -5.64531612396240230000e+000) (19, -1.36685097217559810000e+000) (20, 4.49712753295898440000e+000) (21, 1.01381206512451170000e+000) (22, 1.70939825475215910000e-002) (23, 1.85359466075897220000e+000) (24, 9.58063781261444090000e-001) (25, 7.90541529655456540000e-001) (26, 5.08124291896820070000e-001) (27, 1.98709547519683840000e+000) (28, 1.32250344753265380000e+000) (29, -2.33395910263061520000e+000) (30, 1.74970912933349610000e+000) (31, 4.60447883605957030000e+000) (32, 1.04621639251708980000e+001) (33, 6.95193469524383540000e-001) (34, 2.55796492099761960000e-001) (35, 3.89310449361801150000e-001) (36, -1.94073796272277830000e+000) (0, 1.91754555702209470000e+000) (1, -6.58498620986938480000e+000) (2, 5.83210408687591550000e-001) (3, 1.48906481266021730000e+000) (4, -1.71959745883941650000e+000) (5, 6.22947037220001220000e-001) (6, 2.00695674866437910000e-002) (7, 8.01581323146820070000e-001) (8, -9.95754718780517580000e-001) (9, -1.31620442867279050000e+000) (10, 8.29223334789276120000e-001) (11, -1.85894533991813660000e-001) (12, -4.56678867340087890000e+000) (13, -1.71326667070388790000e-001) (14, -2.04352164268493650000e+000) (15, 4.04722348321229220000e-004) (16, 6.03620946407318120000e-001) (17, 1.25789475440979000000e+000) (18, 2.03509643673896790000e-001) (19, 2.63899111747741700000e+000) (20, 4.05843079090118410000e-001) (21, 2.42349767684936520000e+000) (22, -3.97962898015975950000e-001) (23, -1.17536425590515140000e+000) (24, 5.82703471183776860000e-001) (25, 1.12237036228179930000e+000) (26, -2.39889192581176760000e+000) (27, -1.00517046451568600000e+000) (28, 8.95866870880126950000e+000) (29, 3.55973625183105470000e+000) (30, -2.57918739318847660000e+000) (31, -6.98003709316253660000e-001) (32, -8.94488048553466800000e+000) (33, 9.82451617717742920000e-001) (34, -4.43042039871215820000e-001) (35, 4.91189765930175780000e+000) (36, 4.06921058893203740000e-001) (37, -1.55933797359466550000e-001) (0, -1.07103422284126280000e-001) (1, 6.76229223608970640000e-003) (2, -2.70064324140548710000e-002) (3, 3.98375958204269410000e-001) (4, 1.73317417502403260000e-001) (5, 6.64881110191345210000e-001) (6, 1.38712835311889650000e+000) (7, -1.49716162681579590000e+000) (8, -8.08872103691101070000e-001) (9, -1.11572921276092530000e+000) (10, -1.60158157348632810000e+000) (11, -2.06068515777587890000e+000) (12, 8.63530516624450680000e-001) (13, -8.80163908004760740000e-001) (14, 2.78828430175781250000e+000) (15, -6.56131803989410400000e-002) (16, 4.35473203659057620000e-001) (17, -2.50352174043655400000e-001) (18, 1.93555414676666260000e+000) (19, 2.27522826194763180000e+000) (20, 3.02089422941207890000e-001) (21, 7.25332975387573240000e-001) (22, -1.89082622528076170000e-001) (23, -1.87680377960205080000e+001) (24, -2.41376185417175290000e+000) (25, -2.48229335993528370000e-002) (26, 3.93317556381225590000e+000) (27, 6.71787798404693600000e-001) (28, 5.30561065673828120000e+000) (29, 5.67818820476531980000e-001) (30, 1.42668771743774410000e+000) (31, 1.23403239250183110000e+000) (32, 5.94897389411926270000e-001) (33, 1.93599390983581540000e+000) (34, 2.08001708984375000000e+000) (35, -2.13321208953857420000e+000) (36, 1.17700719833374020000e+000) (37, 2.03915667533874510000e+000) (38, -1.92812871932983400000e+000) (0, 1.57166704535484310000e-001) (1, 2.90206223726272580000e-001) (2, -2.90719717741012570000e-001) (3, -7.01204165816307070000e-002) (4, 4.91988599300384520000e-001) (5, -1.35191291570663450000e-001) (6, 4.22976821660995480000e-001) (7, 4.48295325040817260000e-002) (8, 6.89102768898010250000e-001) (9, -2.13979411125183110000e+000) (10, -1.38222668319940570000e-002) (11, -2.05510128289461140000e-002) (12, -3.41641217470169070000e-001) (13, 9.76337194442749020000e-001) (14, -1.84661418199539180000e-001) (15, -3.30634415149688720000e-001) (16, 4.90497201681137080000e-001) (17, 4.02673184871673580000e-001) (18, -1.74838817119598390000e+000) (19, -8.00865459442138670000e+000) (20, -1.16229343414306640000e+001) (21, -1.97197664529085160000e-002) (22, -5.13897955417633060000e-001) (23, -2.11875534057617190000e+000) (24, -3.11856716871261600000e-001) (25, -1.76623567938804630000e-001) (26, -1.47676825523376460000e+000) (27, 4.21827137470245360000e-001) (28, -2.82466387748718260000e+000) (29, -7.10026025772094730000e-001) (30, -1.60173964500427250000e+000) (31, 5.49727082252502440000e-001) (32, -2.14954113960266110000e+000) (33, 5.38035631179809570000e-001) (34, -3.13407480716705320000e-002) (35, -4.85794931650161740000e-001) (36, -1.45449656993150710000e-002) (37, 6.08498692512512210000e-001) (38, -4.48512786865234370000e+002) (39, -2.58972048759460450000e-001) (0, -1.59149363636970520000e-001) (1, 5.85465967655181880000e-001) (2, -6.41492187976837160000e-001) (3, -4.90452796220779420000e-002) (4, 2.04300880432128910000e-001) (5, 4.04989533126354220000e-002) (6, 2.24921655654907230000e+000) (7, -4.70903784036636350000e-001) (8, 7.14760243892669680000e-001) (9, -3.56013393402099610000e+000) (10, -4.93411198258399960000e-002) (11, 1.63589167594909670000e+000) (12, -1.12990029156208040000e-001) (13, -4.23286676406860350000e-001) (14, -1.41447419300675390000e-002) (15, -2.36779943108558650000e-001) (16, 6.75345659255981450000e-001) (17, 9.22230601310729980000e-001) (18, 1.34643959999084470000e+000) (19, -7.31818199157714840000e+000) (20, -2.06964826583862300000e+000) (21, -8.53118121623992920000e-001) (22, 7.64405667781829830000e-001) (23, -7.38120126724243160000e+000) (24, 5.30207693576812740000e-001) (25, 1.07213008403778080000e+000) (26, -4.70309066772460940000e+000) (27, 5.14825999736785890000e-001) (28, -1.34718847274780270000e+001) (29, 2.33787941932678220000e+000) (30, -2.22874259948730470000e+000) (31, -4.43831801414489750000e-001) (32, -3.22658271789550780000e+001) (33, 8.74351203441619870000e-001) (34, -1.84880003333091740000e-001) (35, -7.18623220920562740000e-001) (36, 1.67667865753173830000e-001) (37, -1.11206805706024170000e+000) (38, -2.42983078956604000000e+000) (39, 6.23071677982807160000e-002) (40, -8.94605922698974610000e+000) (0, 2.41359509527683260000e-002) (1, 2.37577721476554870000e-001) (2, -3.45775604248046880000e-001) (3, 3.10022175312042240000e-001) (4, -4.45763394236564640000e-002) (5, -2.02334955334663390000e-001) (6, 2.81169205904006960000e-001) (7, -2.63478964567184450000e-001) (8, 9.88694131374359130000e-002) (9, 2.11573615670204160000e-001) (10, 6.90175414085388180000e-001) (11, 9.48322266340255740000e-002) (12, 4.41830217838287350000e-001) (13, 1.78076952695846560000e-001) (14, -2.56228446960449220000e-001) (15, 2.00539067387580870000e-001) (16, 2.47250735759735110000e-001) (17, -2.92632550001144410000e-001) (18, 3.40738058090209960000e-001) (19, -6.70139044523239140000e-002) (20, -7.71469295024871830000e-001) (21, 3.46146263182163240000e-002) (22, -7.05436468124389650000e-002) (23, 1.66152930259704590000e+000) (24, -1.74027785658836360000e-001) (25, 6.12783491611480710000e-001) (26, -1.62885382771492000000e-001) (27, 8.08077454566955570000e-002) (28, 2.80738532543182370000e-001) (29, 4.01979565620422360000e-001) (30, -5.85622906684875490000e-001) (31, -1.67801216244697570000e-001) (32, -6.34167909622192380000e-001) (33, -1.66057813912630080000e-002) (34, -3.59937511384487150000e-002) (35, -1.39261662960052490000e-001) (36, -8.70629847049713130000e-001) (37, -4.48428057134151460000e-002) (38, -1.60801804065704350000e+000) (39, 2.26954430341720580000e-001) (40, -2.62028723955154420000e-001) (41, -2.43277192115783690000e+000) (0, 3.98419871926307680000e-002) (1, -6.87481880187988280000e-001) (2, 2.90183454751968380000e-001) (3, -4.06402498483657840000e-001) (4, 5.92130720615386960000e-001) (5, -7.86583200097084050000e-002) (6, -1.35404527187347410000e-001) (7, -4.52711507678031920000e-002) (8, 2.61786252260208130000e-001) (9, 8.34366798400878910000e-001) (10, 1.29719823598861690000e-001) (11, 3.53337287902832030000e-001) (12, -3.71482849121093750000e-001) (13, -2.87809759378433230000e-001) (14, -2.33943313360214230000e-001) (15, 4.87436912953853610000e-002) (16, -3.76166582107543950000e-001) (17, 4.00467306375503540000e-001) (18, -1.13922119140625000000e+000) (19, -2.47383773326873780000e-001) (20, -2.03527355194091800000e+000) (21, 8.96119892597198490000e-001) (22, -2.57462918758392330000e-001) (23, 1.39419817924499510000e+000) (24, -1.67622119188308720000e-001) (25, 3.85735422372817990000e-001) (26, 6.08602344989776610000e-001) (27, -1.03563499450683590000e+000) (28, -2.58058333396911620000e+000) (29, -4.65406715869903560000e-001) (30, 1.76422148942947390000e-001) (31, 9.55289542675018310000e-001) (32, 1.80576398968696590000e-001) (33, -2.42627918720245360000e-001) (34, 2.65976697206497190000e-001) (35, 1.18062235414981840000e-001) (36, 5.47118663787841800000e-001) (37, -5.66178381443023680000e-001) (38, -1.03354239463806150000e+000) (39, 2.31752902269363400000e-001) (40, -3.17645728588104250000e-001) (41, 1.02879238128662110000e+000) (42, -3.26980173587799070000e-001) (0, 4.95983213186264040000e-001) (1, 4.61819589138031010000e-001) (2, -5.94942122697830200000e-002) (3, -3.38340878486633300000e-001) (4, 5.67069975659251210000e-003) (5, -1.62909910082817080000e-001) (6, 2.97348350286483760000e-001) (7, 3.13532471656799320000e-001) (8, 2.61294156312942500000e-001) (9, -4.00989018380641940000e-002) (10, -4.52721863985061650000e-002) (11, 2.30867594480514530000e-001) (12, -2.82891303300857540000e-001) (13, -5.19042432308197020000e-001) (14, 5.11035740375518800000e-001) (15, -1.73080116510391240000e-001) (16, 2.45885439217090610000e-002) (17, 4.48526851832866670000e-002) (18, -5.80337703227996830000e-001) (19, 6.23975872993469240000e-001) (20, -1.47638827562332150000e-001) (21, -5.01152396202087400000e-001) (22, 4.07069623470306400000e-001) (23, 3.64601755142211910000e+000) (24, 6.29216507077217100000e-002) (25, 7.49748229980468750000e-001) (26, 4.53231215476989750000e-001) (27, -1.23162306845188140000e-001) (28, -4.42205786705017090000e-001) (29, -2.57464855909347530000e-001) (30, 1.33063778281211850000e-001) (31, 2.66019374132156370000e-001) (32, 1.21838819980621340000e+000) (33, -2.49757140874862670000e-001) (34, -7.99213796854019170000e-002) (35, -1.57138402573764320000e-003) (36, -2.21508443355560300000e-001) (37, -3.73724311590194700000e-001) (38, 7.57164061069488530000e-002) (39, -5.36527857184410100000e-003) (40, -1.30017697811126710000e-001) (41, 6.68204873800277710000e-002) (42, 9.79952812194824220000e-002) (43, -9.21375691890716550000e-001) (0, -1.42895305156707760000e+000) (1, -1.00656604766845700000e+000) (2, 4.78424906730651860000e-001) (3, 1.09180319309234620000e+000) (4, -3.85442644357681270000e-001) (5, -1.24463021755218510000e-001) (6, 5.56382358074188230000e-001) (7, -6.51355385780334470000e-001) (8, 1.27105724811553960000e+000) (9, -6.43990576267242430000e-001) (10, 5.85780024528503420000e-001) (11, 6.88037514686584470000e-001) (12, -1.36199569702148440000e+000) (13, 5.53979799151420590000e-002) (14, -5.42552828788757320000e-001) (15, 2.06850811839103700000e-001) (16, -9.02977883815765380000e-001) (17, -7.63117969036102290000e-001) (18, -1.71138882637023930000e+000) (19, -1.52748847007751460000e+000) (20, -1.87351226806640630000e-001) (21, 9.47243392467498780000e-001) (22, 6.42865478992462160000e-001) (23, -9.71244096755981450000e-001) (24, -3.21036547422409060000e-001) (25, 8.70234549045562740000e-001) (26, -7.49521911144256590000e-001) (27, 1.99206784367561340000e-001) (28, 3.10726404190063480000e+000) (29, -1.08840692043304440000e+000) (30, -1.22443652153015140000e+000) (31, -2.48438179492950440000e-001) (32, 8.87511000037193300000e-002) (33, 6.99249386787414550000e-001) (34, 1.93190634250640870000e-001) (35, 1.41843330860137940000e+000) (36, 2.38235044479370120000e+000) (37, -1.14943540096282960000e+000) (38, 8.77156779170036320000e-002) (39, 1.47374582290649410000e+000) (40, 3.73834514617919920000e+000) (41, -2.54289478063583370000e-001) (42, 1.27299571037292480000e+000) (43, -5.54478943347930910000e-001) (44, -9.68694612383842470000e-002) (0, -4.61325168609619140000e-001) (1, 2.74429976940155030000e-001) (2, 3.59420664608478550000e-002) (3, -4.55922931432724000000e-001) (4, -1.56728252768516540000e-001) (5, 3.34593772888183590000e-001) (6, -1.69004976749420170000e-001) (7, 4.23967808485031130000e-001) (8, 2.04518929123878480000e-001) (9, -2.57310032844543460000e-001) (10, 3.23423415422439580000e-001) (11, 1.16677902638912200000e-001) (12, -2.58302986621856690000e-001) (13, -7.47012272477149960000e-002) (14, -6.47156536579132080000e-002) (15, 1.71633884310722350000e-001) (16, 3.51977258920669560000e-001) (17, 5.31404435634613040000e-001) (18, -1.00292846560478210000e-001) (19, 9.44276094436645510000e-001) (20, 1.91054773330688480000e+000) (21, -9.58533361554145810000e-002) (22, -4.42414265125989910000e-003) (23, 5.31834316253662110000e+000) (24, 6.94433674216270450000e-002) (25, -4.13668781518936160000e-001) (26, -1.07314324378967290000e+000) (27, 1.01659916341304780000e-001) (28, -8.58956873416900630000e-002) (29, -1.22914230450987820000e-002) (30, -3.05477499961853030000e-001) (31, 6.59983903169631960000e-002) (32, 5.23031651973724370000e-001) (33, 1.40164852142333980000e-001) (34, -3.11140775680541990000e-001) (35, 9.47538018226623540000e-002) (36, -2.75484532117843630000e-001) (37, -4.15293306112289430000e-001) (38, 2.69493937492370610000e-001) (39, -5.39952851831912990000e-002) (40, 6.28442913293838500000e-002) (41, 2.19829297065734860000e+000) (42, 1.55673354864120480000e-001) (43, 1.13003119826316830000e-001) (44, 3.07998418807983400000e-001) (45, 1.54236829280853270000e+000) (0, 3.88301223516464230000e-001) (1, -4.03674811124801640000e-001) (2, 4.24149572849273680000e-001) (3, 5.54057657718658450000e-002) (4, 6.15684278309345250000e-002) (5, 4.02748942375183110000e-001) (6, 2.65875846147537230000e-001) (7, -3.32202732563018800000e-001) (8, -3.92629444599151610000e-001) (9, -1.64864316582679750000e-001) (10, -9.15415734052658080000e-002) (11, -7.66787454485893250000e-002) (12, -1.56640350818634030000e-001) (13, 7.02865719795227050000e-002) (14, 2.49452203512191770000e-001) (15, 3.43995362520217900000e-001) (16, -1.37490808963775630000e-001) (17, 4.35247153043746950000e-001) (18, 5.09119272232055660000e-001) (19, -1.93745449185371400000e-001) (20, -3.00655812025070190000e-001) (21, 4.74457889795303340000e-002) (22, 5.25099217891693120000e-001) (23, -1.73966214060783390000e-001) (24, 4.33768630027771000000e-001) (25, 9.90248098969459530000e-002) (26, -9.38746035099029540000e-001) (27, -5.56842982769012450000e-002) (28, -1.19841706752777100000e+000) (29, -2.41135507822036740000e-001) (30, -5.99197447299957280000e-001) (31, 9.67465266585350040000e-002) (32, 2.78594827651977540000e+000) (33, -2.41341918706893920000e-001) (34, 5.05907416343688960000e-001) (35, -3.01806449890136720000e-001) (36, -6.70520722866058350000e-001) (37, 8.61207783222198490000e-001) (38, -9.17790606617927550000e-002) (39, 4.11460101604461670000e-001) (40, 2.83256816864013670000e+000) (41, -1.21044762432575230000e-001) (42, 5.61174750328063960000e-003) (43, -3.16525667905807500000e-001) (44, -2.16191619634628300000e-001) (45, -1.58669364452362060000e+000) (46, 1.43564879894256590000e-001) (0, 2.29593232274055480000e-001) (1, -3.27898800373077390000e-001) (2, 3.10421615839004520000e-001) (3, 5.25580942630767820000e-002) (4, -1.72956898808479310000e-001) (5, -3.32003593444824220000e-001) (6, 1.35298192501068120000e-001) (7, 3.71603310108184810000e-001) (8, 1.93291753530502320000e-001) (9, -1.47856250405311580000e-001) (10, -6.06993958353996280000e-002) (11, 1.90791830420494080000e-001) (12, -1.95349887013435360000e-001) (13, -3.15876007080078130000e-001) (14, 2.11297780275344850000e-001) (15, -7.98639934509992600000e-003) (16, 2.05108299851417540000e-002) (17, 6.60450100898742680000e-001) (18, 9.96169805526733400000e-001) (19, -3.27414661645889280000e-001) (20, 5.80120623111724850000e-001) (21, -3.04459154605865480000e-001) (22, 1.21896542608737950000e-001) (23, 8.83326113224029540000e-001) (24, 1.72585509717464450000e-002) (25, 2.35536936670541760000e-002) (26, -1.20968115329742430000e+000) (27, -2.42107719182968140000e-001) (28, 2.09768247604370120000e+000) (29, -1.34841024875640870000e-001) (30, 9.97586727142333980000e-001) (31, -4.44295942783355710000e-001) (32, 5.41512966156005860000e-001) (33, 4.38687443733215330000e-001) (34, -2.60980665683746340000e-001) (35, 4.47464473545551300000e-002) (36, -2.48811960220336910000e-001) (37, -1.61642968654632570000e-001) (38, 1.14278264343738560000e-001) (39, 1.77135601639747620000e-001) (40, -1.49567627906799320000e+000) (41, 2.82809495925903320000e-001) (42, -2.34246075153350830000e-001) (43, 3.11806440353393550000e-001) (44, 6.09171748161315920000e-001) (45, -4.94796186685562130000e-001) (46, 1.10360980033874510000e-001) (47, -2.65560150146484380000e-001) (0, 5.28720021247863770000e-002) (1, -4.79898825287818910000e-002) (2, 8.82082358002662660000e-002) (3, 8.36219787597656250000e-002) (4, 4.93762493133544920000e-001) (5, 3.59967127442359920000e-002) (6, 1.77244916558265690000e-001) (7, 7.33078345656394960000e-002) (8, 1.85916826128959660000e-001) (9, 3.10281962156295780000e-001) (10, 1.06881678104400630000e-001) (11, -1.99030071496963500000e-001) (12, -1.95365771651268010000e-001) (13, -7.04800104722380640000e-003) (14, 2.43103101849555970000e-001) (15, 4.07769531011581420000e-002) (16, 9.15849395096302030000e-003) (17, 4.58738237619400020000e-001) (18, -1.64112016558647160000e-001) (19, 3.95470023155212400000e-001) (20, 6.32499039173126220000e-001) (21, 4.70651984214782710000e-001) (22, 6.03900671005249020000e-001) (23, 2.25844550877809520000e-002) (24, 5.15005588531494140000e-001) (25, 1.60370722413063050000e-001) (26, 1.37353673577308650000e-001) (27, 3.50972086191177370000e-001) (28, -5.56421160697937010000e-001) (29, 1.56824104487895970000e-002) (30, -1.31663882732391360000e+000) (31, 5.25250248610973360000e-002) (32, -8.91086459159851070000e-002) (33, 5.38843125104904170000e-002) (34, 2.26124539971351620000e-001) (35, 9.84284803271293640000e-002) (36, 1.05903290212154390000e-001) (37, -6.97871148586273190000e-001) (38, -8.50157439708709720000e-001) (39, 5.20302176475524900000e-001) (40, 3.03071188926696780000e+000) (41, 1.75129997730255130000e+000) (42, -4.50624495744705200000e-001) (43, -6.69632673263549800000e-001) (44, 3.96289795637130740000e-001) (45, 8.71856093406677250000e-001) (46, 6.98329359292984010000e-002) (47, 1.55037567019462590000e-001) (48, 2.19895184040069580000e-001) (0, -5.04872985184192660000e-002) (1, 4.10500407218933110000e-001) (2, -3.16288888454437260000e-001) (3, -1.22265443205833440000e-001) (4, 3.12407553195953370000e-001) (5, -1.10442325472831730000e-001) (6, 2.98721194267272950000e-001) (7, 6.26490533351898190000e-001) (8, 1.35835856199264530000e-001) (9, -6.85338675975799560000e-002) (10, 2.43901610374450680000e-001) (11, 7.20778226852416990000e-001) (12, -4.05902951955795290000e-001) (13, -8.98831337690353390000e-002) (14, -2.45983123779296880000e-001) (15, 2.30043902993202210000e-001) (16, -6.70986294746398930000e-001) (17, -6.02988451719284060000e-002) (18, 7.92492628097534180000e-001) (19, 5.07961034774780270000e-001) (20, -3.52114617824554440000e-001) (21, 6.56955182552337650000e-001) (22, 1.42949268221855160000e-001) (23, 1.83329391479492190000e+001) (24, 7.00125873088836670000e-001) (25, -1.04261869564652440000e-002) (26, -7.95076668262481690000e-001) (27, 1.07361936569213870000e+000) (28, -2.54490947723388670000e+000) (29, -8.15674141049385070000e-002) (30, -9.51715469360351560000e-001) (31, 8.71868014335632320000e-001) (32, -1.30207622051239010000e+000) (33, -3.90089184045791630000e-001) (34, 3.98187726736068730000e-001) (35, 2.96419560909271240000e-002) (36, 8.61454069614410400000e-001) (37, 6.09324812889099120000e-001) (38, 5.83531074225902560000e-002) (39, 1.26657979562878610000e-002) (40, 1.31167268753051760000e+001) (41, 3.82839488983154300000e+000) (42, 1.34792521595954900000e-001) (43, 5.20429611206054690000e-001) (44, 7.51425102353096010000e-002) (45, -7.94107496738433840000e-001) (46, 6.97583079338073730000e-001) (47, 1.32030713558197020000e+000) (48, 9.71801757812500000000e-001) (49, 1.73146381974220280000e-001) (0, -1.00465863943099980000e-002) (1, 9.65989902615547180000e-002) (2, 3.50846946239471440000e-001) (3, -5.44076189398765560000e-002) (4, 1.95581361651420590000e-001) (5, 1.07342466711997990000e-001) (6, -3.25266122817993160000e-001) (7, 7.16555267572402950000e-002) (8, 6.88465595245361330000e-001) (9, -2.97795653343200680000e-001) (10, -9.14329737424850460000e-002) (11, 1.28693962097167970000e+000) (12, 1.28343462944030760000e-001) (13, 1.94808736443519590000e-001) (14, 8.80592875182628630000e-003) (15, -7.74300158023834230000e-001) (16, 1.22233927249908450000e-001) (17, -1.39773311093449590000e-002) (18, 3.20303440093994140000e-002) (19, -1.12310624122619630000e+000) (20, -1.26925134658813480000e+000) (21, -3.63449007272720340000e-001) (22, -8.29523876309394840000e-002) (23, 2.73239880800247190000e-001) (24, 3.53821247816085820000e-001) (25, -5.77455639839172360000e-001) (26, 6.75889074802398680000e-001) (27, 4.72442418336868290000e-001) (28, 2.30866342782974240000e-001) (29, 1.50029337406158450000e+000) (30, 5.84642708301544190000e-001) (31, -4.72244292497634890000e-001) (32, 2.84381556510925290000e+000) (33, 2.02430471777915950000e-001) (34, -4.80567403137683870000e-002) (35, 1.54207065701484680000e-001) (36, -1.27360844612121580000e+000) (37, -1.14839434623718260000e+000) (38, 3.67455065250396730000e-001) (39, 7.78177142143249510000e-001) (40, 4.80988550186157230000e+000) (41, 1.39646637439727780000e+000) (42, -5.00751972198486330000e-001) (43, -1.06399180367589000000e-003) (44, 3.82303208112716670000e-001) (45, 1.59365728497505190000e-001) (46, 6.86483740806579590000e-001) (47, -4.67819511890411380000e-001) (48, 2.48366236686706540000e-001) (49, 7.33937323093414310000e-001) (50, 6.83065354824066160000e-001) (0, 1.61967784166336060000e-001) (1, -1.94532778114080430000e-002) (2, 3.55968207120895390000e-001) (3, -2.02425375580787660000e-001) (4, 8.42783451080322270000e-002) (5, -7.72788971662521360000e-002) (6, 3.28264206647872920000e-001) (7, -1.12745016813278200000e-001) (8, -3.27093601226806640000e-001) (9, 1.61528334021568300000e-001) (10, 4.68199044466018680000e-001) (11, 1.75754815340042110000e-001) (12, -3.56806188821792600000e-001) (13, -2.42000490427017210000e-001) (14, 1.49482443928718570000e-001) (15, 1.09320528805255890000e-001) (16, 2.96533461660146710000e-002) (17, 3.10772001743316650000e-001) (18, 1.11561805009841920000e-001) (19, -1.39722004532814030000e-001) (20, -1.02427458763122560000e+000) (21, 1.52075245976448060000e-001) (22, -2.59578436613082890000e-001) (23, -1.78907358646392820000e+000) (24, 3.95330935716629030000e-001) (25, -2.25696954876184460000e-002) (26, 2.42948949337005620000e-001) (27, -1.43176510930061340000e-001) (28, -2.12629389762878420000e+000) (29, 3.47212523221969600000e-001) (30, 3.06352555751800540000e-001) (31, -2.51919448375701900000e-001) (32, 8.21478784084320070000e-001) (33, -6.23657775577157740000e-004) (34, -3.50986957550048830000e-001) (35, 1.71208381652832030000e-001) (36, 3.18979322910308840000e-001) (37, 4.43194895982742310000e-001) (38, -7.73291468620300290000e-001) (39, 2.21218839287757870000e-001) (40, -1.34035491943359370000e+000) (41, -4.59677964448928830000e-001) (42, 3.84081184864044190000e-001) (43, 1.59232184290885930000e-001) (44, -1.06172718107700350000e-001) (45, 6.00656211376190190000e-001) (46, -9.18553173542022710000e-002) (47, 2.10639670491218570000e-001) (48, 1.52037292718887330000e-001) (49, -8.07407684624195100000e-003) (50, 1.55428081750869750000e-001) (51, -1.52544945478439330000e-001) (0, 4.41067069768905640000e-001) (1, 3.28657120466232300000e-001) (2, 9.06458795070648190000e-001) (3, -3.68679128587245940000e-002) (4, -5.10774850845336910000e-001) (5, 1.16706562042236330000e+000) (6, -6.09902262687683110000e-001) (7, -1.14584779739379880000e+000) (8, -1.66359320282936100000e-001) (9, -2.63766765594482420000e-001) (10, 1.16395503282547000000e-001) (11, 3.30392509698867800000e-001) (12, -5.71882247924804690000e-001) (13, -1.66532862931489940000e-002) (14, -2.96077102422714230000e-001) (15, -3.00011575222015380000e-001) (16, 1.73846065998077390000e-001) (17, 6.20822727680206300000e-001) (18, -7.10708737373352050000e-001) (19, -2.04869651794433590000e+000) (20, -4.87895071506500240000e-001) (21, -3.50365877151489260000e-001) (22, -1.16192877292633060000e+000) (23, 3.85566711425781250000e-001) (24, 7.80727684497833250000e-001) (25, -1.97691535949707030000e+000) (26, 2.58550941944122310000e-001) (27, 9.49482917785644530000e-001) (28, 2.03233480453491210000e+000) (29, 1.75020508468151090000e-002) (30, -3.92022997140884400000e-001) (31, -1.25751888751983640000e+000) (32, -2.99922299385070800000e+000) (33, 5.52444636821746830000e-001) (34, -1.14740662276744840000e-001) (35, 1.72797098755836490000e-001) (36, 5.19544899463653560000e-001) (37, 3.15741002559661870000e-001) (38, 1.84701263904571530000e-001) (39, 9.28633749485015870000e-001) (40, 1.15024030208587650000e+000) (41, 7.15347602963447570000e-002) (42, 2.16894793510437010000e+000) (43, -6.27400100231170650000e-001) (44, -9.38888072967529300000e-001) (45, 1.49371898174285890000e+000) (46, -1.01612472534179690000e+000) (47, 1.47837689146399500000e-002) (48, -3.06491374969482420000e-001) (49, 1.57782256603240970000e+000) (50, -2.41984248161315920000e+000) (51, 1.52658987045288090000e+000) (52, 9.07450973987579350000e-001) (0, 6.89831934869289400000e-003) (1, -6.15562617778778080000e-001) (2, 2.12835967540740970000e-001) (3, -4.66847270727157590000e-002) (4, 3.10644119977951050000e-001) (5, 2.18506321310997010000e-001) (6, 9.80071946978569030000e-002) (7, 6.31203688681125640000e-003) (8, 1.25315874814987180000e-001) (9, 5.65419435501098630000e-001) (10, 4.49476033449172970000e-001) (11, -3.11751253902912140000e-002) (12, -2.46521309018135070000e-001) (13, -3.42013418674468990000e-001) (14, 8.39636400341987610000e-002) (15, 2.52167910337448120000e-001) (16, 3.34403932094573970000e-001) (17, -4.10165898501873020000e-002) (18, -1.17206966876983640000e+000) (19, -9.67225193977355960000e-001) (20, 1.15367794036865230000e+000) (21, 3.52161556482315060000e-001) (22, 2.23681628704071040000e-001) (23, 1.29956412315368650000e+000) (24, -6.31624698638916020000e-001) (25, -4.29600656032562260000e-001) (26, 4.39531356096267700000e-001) (27, -3.84064972400665280000e-001) (28, -1.72251984477043150000e-001) (29, -6.92489445209503170000e-001) (30, -5.68322837352752690000e-001) (31, -4.76239651441574100000e-001) (32, 1.66198778152465820000e+000) (33, 6.63221001625061040000e-001) (34, -3.82121592760086060000e-001) (35, 9.63950082659721370000e-002) (36, 3.07006035000085830000e-002) (37, -6.66914761066436770000e-001) (38, 2.09433346986770630000e-001) (39, -9.51285436749458310000e-002) (40, -4.88359808921813960000e-001) (41, -1.82702004909515380000e+000) (42, -1.53316892683506010000e-002) (43, 2.07107141613960270000e-001) (44, -1.83820113539695740000e-001) (45, 2.66617476940155030000e-001) (46, 2.13624894618988040000e-001) (47, 5.26014044880867000000e-002) (48, -3.87224584817886350000e-001) (49, -3.38339447975158690000e-001) (50, 6.68725073337554930000e-001) (51, -3.65529090166091920000e-001) (52, -2.70249724388122560000e-001) (53, -1.69739925861358640000e+000) (0, 1.42280701547861100000e-002) (1, 1.72402605414390560000e-001) (2, 4.82454717159271240000e-001) (3, -1.36759072542190550000e-001) (4, -7.54726678133010860000e-002) (5, 3.93961109220981600000e-002) (6, 3.83435100317001340000e-001) (7, 2.37587973475456240000e-001) (8, -5.75125738978385930000e-002) (9, -7.77985081076622010000e-002) (10, 1.50123924016952510000e-001) (11, -2.23201066255569460000e-001) (12, -7.91707038879394530000e-001) (13, 2.96155869960784910000e-001) (14, 1.74219742417335510000e-001) (15, 1.44080325961112980000e-001) (16, -3.55136454105377200000e-001) (17, -2.72081345319747920000e-001) (18, -1.21037673950195310000e+000) (19, -5.78552857041358950000e-003) (20, 1.32976502180099490000e-001) (21, -2.14033931493759160000e-001) (22, -1.71149000525474550000e-002) (23, 2.29921054840087890000e+000) (24, -2.16218139976263050000e-002) (25, -8.54080989956855770000e-002) (26, 3.74074727296829220000e-002) (27, 3.44642624258995060000e-002) (28, 2.50932246446609500000e-001) (29, 1.64356768131256100000e-001) (30, -5.70957303047180180000e-001) (31, 6.28830343484878540000e-002) (32, -1.84806370735168460000e+000) (33, 4.16403353214263920000e-001) (34, -3.47330033779144290000e-001) (35, 1.22200042009353640000e-001) (36, 2.42484539747238160000e-001) (37, -5.58392643928527830000e-001) (38, 8.15582573413848880000e-001) (39, 2.35095079988241200000e-002) (40, 1.88283786177635190000e-001) (41, -7.02706694602966310000e-001) (42, -6.15511499345302580000e-002) (43, -7.77684628963470460000e-001) (44, -7.75199569761753080000e-003) (45, 6.53479576110839840000e-001) (46, -2.59989917278289790000e-001) (47, 1.46777391433715820000e-001) (48, 2.79880136251449580000e-001) (49, 5.88466703891754150000e-001) (50, 5.92465162277221680000e-001) (51, -3.61390441656112670000e-001) (52, 1.97683006525039670000e-001) (53, -2.11002603173255920000e-001) (54, -3.31746935844421390000e-001) (0, -4.39483344554901120000e-001) (1, 2.31380015611648560000e-001) (2, 9.90263596177101140000e-002) (3, 8.12074780464172360000e-001) (4, -6.45748674869537350000e-001) (5, 3.39553803205490110000e-001) (6, -1.20450489223003390000e-001) (7, 6.66971266269683840000e-001) (8, -1.45837008953094480000e-001) (9, 3.54795902967453000000e-001) (10, 2.21082687377929690000e-001) (11, -8.24812725186347960000e-002) (12, -5.27548849582672120000e-001) (13, -3.06386053562164310000e-001) (14, 8.84662389755249020000e-001) (15, -3.61475348472595210000e-001) (16, -3.45904201269149780000e-001) (17, 3.91662210226058960000e-001) (18, -4.83923554420471190000e-001) (19, -1.36130094528198240000e+000) (20, 1.17338687181472780000e-001) (21, -1.16194736957550050000e+000) (22, -8.50718796253204350000e-001) (23, -5.87359666824340820000e-001) (24, 1.42328932881355290000e-001) (25, 3.44074815511703490000e-001) (26, -3.44870120286941530000e-001) (27, 7.27082073688507080000e-001) (28, 7.80978798866271970000e-001) (29, 5.26621162891387940000e-001) (30, 1.68008625507354740000e+000) (31, 2.43477255105972290000e-001) (32, 9.69310179352760310000e-002) (33, -4.99177753925323490000e-001) (34, -4.86936956644058230000e-001) (35, 9.82847332954406740000e-001) (36, 2.78884142637252810000e-001) (37, 1.24388825893402100000e+000) (38, -5.51314055919647220000e-001) (39, -1.70235320925712590000e-001) (40, 7.00942039489746090000e-001) (41, 1.32424545288085940000e+000) (42, 3.95225375890731810000e-001) (43, -1.46365031599998470000e-001) (44, 4.00794714689254760000e-001) (45, -1.26588070392608640000e+000) (46, 2.96996980905532840000e-001) (47, 2.40261927247047420000e-001) (48, 8.54182779788970950000e-001) (49, 2.27025672793388370000e-001) (50, -2.95177757740020750000e-001) (51, 6.91717982292175290000e-001) (52, -5.24140715599060060000e-001) (53, 7.32675909996032710000e-001) (54, 7.51672461628913880000e-002) (55, -5.07534861564636230000e-001) (0, 3.52876633405685420000e-001) (1, -5.96019923686981200000e-001) (2, -2.36365497112274170000e-002) (3, 1.72607934474945070000e+000) (4, 5.10115802288055420000e-001) (5, -1.42396080493927000000e+000) (6, 7.08449780941009520000e-001) (7, -2.89147883653640750000e-001) (8, 7.07596719264984130000e-001) (9, -1.81183695793151860000e-001) (10, -5.18957734107971190000e-001) (11, -6.91994056105613710000e-002) (12, 1.05160586535930630000e-001) (13, 1.93348094820976260000e-001) (14, 5.67413151264190670000e-001) (15, -6.66162729263305660000e-001) (16, 3.10300469398498540000e-001) (17, 3.09906899929046630000e-001) (18, -9.83144119381904600000e-002) (19, -1.04334704577922820000e-001) (20, -3.21582287549972530000e-001) (21, -4.44727152585983280000e-001) (22, 4.96034950017929080000e-001) (23, -1.36060714721679690000e+000) (24, 9.64789211750030520000e-001) (25, -5.13740956783294680000e-001) (26, -2.54756142385303970000e-003) (27, 9.41869437694549560000e-001) (28, -4.01209086179733280000e-001) (29, 1.16698257625103000000e-001) (30, 4.11694437265396120000e-001) (31, 1.01990425586700440000e+000) (32, 9.69520032405853270000e-001) (33, 1.16408884525299070000e+000) (34, 5.49168661236763000000e-002) (35, 8.64661931991577150000e-001) (36, 4.95506614446640010000e-001) (37, -2.29496657848358150000e-001) (38, -1.45358932018280030000e+000) (39, -4.40623283386230470000e-001) (40, -9.82359170913696290000e-001) (41, 1.04908514022827150000e+000) (42, -1.21057856082916260000e+000) (43, 8.98665308952331540000e-001) (44, 7.11114943027496340000e-001) (45, -2.45212718844413760000e-001) (46, 9.08140122890472410000e-001) (47, 1.78463980555534360000e-001) (48, -1.66526332497596740000e-001) (49, -1.35846829414367680000e+000) (50, -8.21579337120056150000e-001) (51, 4.17280465364456180000e-001) (52, 1.03899049758911130000e+000) (53, -8.60602915287017820000e-001) (54, 6.12135827541351320000e-001) (55, -4.99181181192398070000e-001) (56, 3.42951774597167970000e-001) (0, -1.74867272377014160000e-001) (1, 1.21541649103164670000e-001) (2, 1.15959353744983670000e-001) (3, 5.30327558517456050000e-001) (4, 3.26439976692199710000e-001) (5, -3.57580989599227910000e-001) (6, 8.07463154196739200000e-002) (7, 3.10564368963241580000e-001) (8, -1.10056027770042420000e-002) (9, 3.37547180242836480000e-003) (10, 3.98360788822174070000e-001) (11, 2.02555432915687560000e-001) (12, -2.31867387890815730000e-001) (13, -3.20191919803619380000e-001) (14, -1.45902007818222050000e-001) (15, -3.41847330331802370000e-001) (16, -1.13026008009910580000e-001) (17, -2.11162865161895750000e-001) (18, 4.65625345706939700000e-001) (19, -7.29070127010345460000e-001) (20, -5.95373272895812990000e-001) (21, -6.32754564285278320000e-001) (22, 2.26186677813529970000e-001) (23, 6.44984006881713870000e+000) (24, -1.72234892845153810000e-001) (25, -4.03165519237518310000e-001) (26, 1.92812174558639530000e-001) (27, 1.29703804850578310000e-001) (28, 3.36612435057759280000e-003) (29, 6.31618440151214600000e-001) (30, -2.61620189994573590000e-002) (31, -2.44901761412620540000e-001) (32, 8.64536046981811520000e-001) (33, 3.49845737218856810000e-001) (34, 6.09391145408153530000e-002) (35, 3.09958010911941530000e-001) (36, 6.25428035855293270000e-002) (37, -7.29865953326225280000e-002) (38, 5.55937945842742920000e-001) (39, -5.81191778182983400000e-001) (40, -4.10052061080932620000e-001) (41, -1.23359727859497070000e+000) (42, -1.51102067902684210000e-002) (43, 2.64042586088180540000e-001) (44, -1.95948824286460880000e-001) (45, 3.27265441417694090000e-001) (46, -2.65127778053283690000e-001) (47, 3.06097567081451420000e-001) (48, -5.02003133296966550000e-002) (49, 1.05206735432147980000e-001) (50, 2.81980454921722410000e-001) (51, 4.49610412120819090000e-001) (52, -2.49241754412651060000e-001) (53, -5.87675809860229490000e-001) (54, 1.79533734917640690000e-001) (55, 1.19015745818614960000e-001) (56, 7.12368547916412350000e-001) (57, 1.77773721516132350000e-002) (0, -3.08488726615905760000e-001) (1, 6.34386464953422550000e-002) (2, 3.55605930089950560000e-001) (3, 1.86994820833206180000e-001) (4, -8.13960880041122440000e-002) (5, 2.96586543321609500000e-001) (6, -1.07258651405572890000e-002) (7, 2.87236839532852170000e-001) (8, 6.68831825256347660000e-001) (9, -2.46913313865661620000e+000) (10, -2.32422739267349240000e-001) (11, 2.56288889795541760000e-002) (12, -2.25187823176383970000e-001) (13, 1.18875794112682340000e-001) (14, 9.24025774002075200000e-001) (15, -5.69652020931243900000e-001) (16, 7.01595321297645570000e-002) (17, 3.90040993690490720000e-001) (18, -4.99002724885940550000e-001) (19, -3.18310782313346860000e-002) (20, -8.56138989329338070000e-002) (21, 3.51110577583312990000e-001) (22, 5.49523353576660160000e-001) (23, -3.96025061607360840000e+000) (24, 2.72202223539352420000e-001) (25, -5.03095269203186040000e-001) (26, -8.36554646492004390000e-001) (27, 1.07294045388698580000e-001) (28, -9.28521871566772460000e-001) (29, -1.90527725219726560000e+000) (30, -6.53193831443786620000e-001) (31, 3.62484663724899290000e-001) (32, -1.07771432399749760000e+000) (33, -2.97180622816085820000e-001) (34, 3.37019443511962890000e-001) (35, -2.26159878075122830000e-002) (36, -8.65149721503257750000e-002) (37, -2.12882351875305180000e+000) (38, -1.14421641826629640000e+000) (39, -1.97522267699241640000e-002) (40, -1.55142135620117190000e+001) (41, -7.23364639282226560000e+000) (42, -3.02408993244171140000e-001) (43, 3.07698875665664670000e-001) (44, 6.45858168601989750000e-001) (45, 3.93393963575363160000e-001) (46, 4.53437745571136470000e-001) (47, -5.58301627635955810000e-001) (48, -2.08656072616577150000e-001) (49, -3.92364740371704100000e-001) (50, -4.51189547777175900000e-001) (51, -7.43635952472686770000e-001) (52, 3.06440353393554690000e-001) (53, -6.24087452888488770000e-001) (54, 3.65941613912582400000e-001) (55, 1.86008036136627200000e-001) (56, -1.45218759775161740000e-001) (57, -1.00623095035552980000e+000) (58, -4.99885827302932740000e-001) (0, 4.75590825080871580000e-001) (1, 2.66782939434051510000e-001) (2, -2.96441279351711270000e-003) (3, 6.30304753780364990000e-001) (4, 1.29124119877815250000e-001) (5, -3.62186133861541750000e-001) (6, 3.53222727775573730000e-001) (7, 4.17125783860683440000e-002) (8, -5.13250172138214110000e-001) (9, 1.34134739637374880000e-001) (10, 3.93926560878753660000e-001) (11, 5.16646325588226320000e-001) (12, 1.67151801288127900000e-002) (13, 6.44712269306182860000e-001) (14, -1.52050569653511050000e-001) (15, -3.02532732486724850000e-001) (16, -1.37481108307838440000e-001) (17, 1.09948836266994480000e-001) (18, -2.34106659889221190000e-001) (19, 5.69054543972015380000e-001) (20, -7.02313899993896480000e-001) (21, 4.10736322402954100000e-001) (22, -6.55161142349243160000e-001) (23, -9.85294532775878910000e+000) (24, 3.14610421657562260000e-001) (25, 3.75289797782897950000e-001) (26, 9.23815846443176270000e-001) (27, -1.07340432703495030000e-001) (28, -2.04244852066040040000e+000) (29, -3.76331031322479250000e-001) (30, -1.16737484931945800000e-001) (31, 1.25632122159004210000e-001) (32, -1.03147506713867190000e+000) (33, -4.75637651979923250000e-002) (34, 2.27553889155387880000e-001) (35, -4.00171935558319090000e-001) (36, -1.14490702748298650000e-001) (37, 2.97244399785995480000e-001) (38, -3.62277299165725710000e-001) (39, 3.28821897506713870000e-001) (40, 1.47820973396301270000e+000) (41, 1.48511037230491640000e-001) (42, 3.94049793481826780000e-001) (43, -2.43786558508872990000e-001) (44, 3.28227728605270390000e-001) (45, 1.56472158432006840000e+000) (46, -6.65922835469245910000e-002) (47, -5.11381149291992190000e-001) (48, -1.45071834325790410000e-001) (49, 9.14724990725517270000e-002) (50, 4.20037358999252320000e-001) (51, 2.61330425739288330000e-001) (52, 1.39279156923294070000e-001) (53, 1.19471967220306400000e+000) (54, 1.04203782975673680000e-001) (55, 3.05344551801681520000e-001) (56, -1.46431446075439450000e-001) (57, -6.27717852592468260000e-001) (58, -4.99766469001770020000e-001) (59, -1.78475463390350340000e+000) (0, -1.78027614951133730000e-001) (1, 8.34710597991943360000e-002) (2, -1.52668833732604980000e-001) (3, -2.61135429143905640000e-001) (4, -1.52251258492469790000e-001) (5, 5.00707812607288360000e-002) (6, 1.33768990635871890000e-001) (7, 3.59839022159576420000e-001) (8, 3.28270554542541500000e-001) (9, 5.97818121314048770000e-002) (10, -5.19696399569511410000e-002) (11, -4.08386111259460450000e-001) (12, 5.49225276336073880000e-003) (13, -9.81948003172874450000e-002) (14, 8.28351825475692750000e-002) (15, -1.51822403073310850000e-001) (16, -4.45275276899337770000e-001) (17, 2.82381381839513780000e-002) (18, -4.61216330528259280000e-001) (19, 3.81275713443756100000e-002) (20, -7.04474687576293950000e-001) (21, -6.19834363460540770000e-001) (22, 1.48588150739669800000e-001) (23, -3.05455851554870610000e+000) (24, -2.93392390012741090000e-001) (25, -1.55363291501998900000e-001) (26, -6.92904055118560790000e-001) (27, 1.72745957970619200000e-001) (28, 3.61255109310150150000e-001) (29, -4.93456810712814330000e-001) (30, 7.76349067687988280000e-001) (31, -2.09646910429000850000e-001) (32, 4.85577553510665890000e-001) (33, -1.49799704551696780000e-001) (34, -1.83072760701179500000e-001) (35, 3.00665885210037230000e-001) (36, -3.36697608232498170000e-001) (37, -7.64997243881225590000e-001) (38, 2.63561189174652100000e-001) (39, 5.02550601959228520000e-001) (40, 8.14005196094512940000e-001) (41, 1.01304209232330320000e+000) (42, -3.34462011232972150000e-003) (43, 1.81398421525955200000e-001) (44, 5.16531206667423250000e-002) (45, -6.02452337741851810000e-001) (46, -3.46651077270507810000e-001) (47, 5.38962781429290770000e-001) (48, -1.79704695940017700000e-001) (49, -4.89149868488311770000e-001) (50, -5.03808677196502690000e-001) (51, -1.28019616007804870000e-001) (52, 1.21875703334808350000e-001) (53, 3.16210389137268070000e-001) (54, -1.89300011843442920000e-002) (55, 6.44102573394775390000e-001) (56, -3.70393663644790650000e-001) (57, 2.04312592744827270000e-001) (58, 3.95167917013168330000e-001) (59, 1.70920968055725100000e+000) (60, -3.14694762229919430000e-001) (0, 4.33854937553405760000e-001) (1, 1.21977314352989200000e-001) (2, 3.51260125637054440000e-001) (3, 2.57908821105957030000e-001) (4, -1.49704813957214360000e-001) (5, 5.45217931270599370000e-001) (6, -1.38191450387239460000e-002) (7, 3.73082280158996580000e-001) (8, 2.88614332675933840000e-001) (9, -1.77871603518724440000e-002) (10, -2.44731888175010680000e-001) (11, 1.06600493192672730000e-001) (12, 4.09460991621017460000e-001) (13, -2.47211948037147520000e-001) (14, 2.83684849739074710000e-001) (15, -1.28208354115486150000e-001) (16, 3.43539446592330930000e-001) (17, 2.23056107759475710000e-001) (18, 2.22441583871841430000e-001) (19, 1.58909603953361510000e-001) (20, -2.69770145416259770000e-001) (21, 1.97283864021301270000e-001) (22, 9.40138578414916990000e-001) (23, -4.78199911117553710000e+000) (24, 1.58192738890647890000e-001) (25, -5.02514660358428960000e-001) (26, -3.78314822912216190000e-001) (27, 5.00018615275621410000e-003) (28, 8.86175274848937990000e-001) (29, 1.07948062941432000000e-003) (30, 8.82756829261779790000e-001) (31, 4.53986786305904390000e-002) (32, 1.10841877758502960000e-001) (33, 1.43846765160560610000e-001) (34, 2.88820445537567140000e-001) (35, 6.63168787956237790000e-001) (36, -1.10951423645019530000e-001) (37, 4.11020368337631230000e-001) (38, 4.51773136854171750000e-001) (39, -2.69333988428115840000e-001) (40, -2.67018795013427730000e-001) (41, -8.90848219394683840000e-001) (42, -1.27115204930305480000e-001) (43, -4.22152280807495120000e-001) (44, 2.01688915491104130000e-001) (45, 1.23979866504669190000e+000) (46, -2.60954290628433230000e-001) (47, -2.83658564090728760000e-001) (48, -8.24043701868504290000e-004) (49, -8.06438028812408450000e-001) (50, -2.26734001189470290000e-002) (51, -3.30157786607742310000e-001) (52, 3.97575348615646360000e-001) (53, 3.12236547470092770000e-001) (54, 1.20319910347461700000e-001) (55, -1.18750877678394320000e-001) (56, 5.03758937120437620000e-002) (57, 5.57309724390506740000e-002) (58, -2.52683460712432860000e-001) (59, -5.43161273002624510000e-001) (60, 2.08953037858009340000e-001) (61, -2.92898416519165040000e-001) (0, 6.72263726592063900000e-002) (1, 1.11964240670204160000e-001) (2, -1.83306008577346800000e-001) (3, -4.06749695539474490000e-002) (4, -1.00446641445159910000e-001) (5, 4.28043693304061890000e-001) (6, 1.95281088352203370000e-001) (7, 3.69113162159919740000e-002) (8, -1.46855503320693970000e-001) (9, 1.81982785463333130000e-001) (10, -5.01713119447231290000e-002) (11, 5.90443648397922520000e-002) (12, 2.00259417295455930000e-001) (13, 4.91937547922134400000e-002) (14, 2.54007950425148010000e-002) (15, -1.06476105749607090000e-001) (16, 5.53958211094141010000e-003) (17, -1.97297632694244380000e-002) (18, 9.46037590503692630000e-001) (19, -4.06292855739593510000e-001) (20, -8.98003019392490390000e-003) (21, 1.83943696320056920000e-002) (22, -1.87826424837112430000e-001) (23, -5.25531291961669920000e-001) (24, -5.69458715617656710000e-002) (25, 2.51567482948303220000e-001) (26, -7.04764127731323240000e-002) (27, -1.07125408947467800000e-001) (28, 1.73647189140319820000e+000) (29, 3.23092192411422730000e-001) (30, -6.99337869882583620000e-002) (31, -3.31673085689544680000e-001) (32, 1.24068725109100340000e+000) (33, 5.62652349472045900000e-001) (34, -8.71568247675895690000e-002) (35, 1.67768746614456180000e-001) (36, -1.37470304965972900000e-001) (37, -2.01228320598602290000e-001) (38, 4.82616722583770750000e-001) (39, -1.14727683365345000000e-001) (40, -8.92921090126037600000e-001) (41, -1.77764451503753660000e+000) (42, -2.59422838687896730000e-001) (43, 8.14345836639404300000e-001) (44, 9.28796902298927310000e-002) (45, -7.43816077709198000000e-001) (46, 1.82466670870780940000e-001) (47, -1.43583919852972030000e-002) (48, 1.56279116868972780000e-001) (49, 2.65259206295013430000e-001) (50, 7.42792963981628420000e-001) (51, 1.81445464491844180000e-001) (52, 3.79774183034896850000e-001) (53, 2.45465319603681560000e-002) (54, 5.90487606823444370000e-002) (55, -3.67960214614868160000e-001) (56, -3.43240231275558470000e-001) (57, 1.02603390812873840000e-001) (58, -5.60613796114921570000e-002) (59, -2.94419217109680180000e+000) (60, 1.56633287668228150000e-001) (61, 1.86115503311157230000e-002) (62, -1.65029391646385190000e-001) (0, 2.75486350059509280000e-001) (1, 4.04890000820159910000e-001) (2, -3.54367673397064210000e-001) (3, 2.78616809844970700000e+000) (4, 1.47385122254490850000e-002) (5, 1.67626321315765380000e-001) (6, 4.97011959552764890000e-001) (7, -1.56559431552886960000e+000) (8, 2.50230741500854490000e+000) (9, 3.28972004354000090000e-002) (10, 2.41959571838378910000e+000) (11, -9.85036134719848630000e-001) (12, 1.85023456811904910000e-001) (13, -2.42446780204772950000e+000) (14, -1.88104301691055300000e-001) (15, 1.63898706436157230000e+000) (16, 2.24919065833091740000e-001) (17, -1.15044796466827390000e+000) (18, -1.83249437808990480000e+000) (19, -2.33469796180725100000e+000) (20, 4.65266180038452150000e+000) (21, -1.05186745524406430000e-001) (22, 1.51398599147796630000e+000) (23, -7.20531463623046870000e+000) (24, -3.92675071954727170000e-001) (25, -1.52897679805755620000e+000) (26, -4.09370288252830510000e-002) (27, -1.38291084766387940000e+000) (28, -9.25798034667968750000e+000) (29, 3.54861903190612790000e+000) (30, -2.80453109741210940000e+000) (31, 2.45933914184570310000e+000) (32, 9.55527019500732420000e+000) (33, 1.79155647754669190000e+000) (34, 2.23938226699829100000e-002) (35, -2.95949435234069820000e+000) (36, 2.33210396766662600000e+000) (37, -3.97929519414901730000e-001) (38, -3.30739915370941160000e-001) (39, 1.94681918621063230000e+000) (40, -1.23471364974975590000e+001) (41, 4.99187612533569340000e+000) (42, 1.73924612998962400000e+000) (43, -4.56069326400756840000e+000) (44, -1.54339516162872310000e+000) (45, 4.34203672409057620000e+000) (46, 2.55788898468017580000e+000) (47, 1.64554452896118160000e+000) (48, -1.87049186229705810000e+000) (49, 1.11881744861602780000e+000) (50, -1.07956337928771970000e+000) (51, 2.12747716903686520000e+000) (52, 2.00306892395019530000e+000) (53, 7.59110403060913090000e+000) (54, 3.24224829673767090000e-001) (55, 2.29079246520996090000e+000) (56, 1.52636086940765380000e+000) (57, -4.27047848701477050000e-001) (58, 4.64603960514068600000e-001) (59, -2.29104828834533690000e+000) (60, -7.98849523067474370000e-001) (61, 4.16702270507812500000e+000) (62, 2.27105593681335450000e+000) (63, 1.47245585918426510000e+000) (0, -2.56404131650924680000e-001) (1, 5.45331239700317380000e-001) (2, 8.40858891606330870000e-002) (3, 8.87950882315635680000e-002) (4, 3.53715717792510990000e-002) (5, 3.57986181974411010000e-001) (6, 1.53668299317359920000e-001) (7, -5.47075986862182620000e-001) (8, 6.36857450008392330000e-001) (9, -2.20680403709411620000e+000) (10, -5.55865585803985600000e-001) (11, -1.80825382471084590000e-001) (12, -4.18729186058044430000e-001) (13, 1.15298675373196600000e-002) (14, -1.28159165382385250000e-001) (15, 1.62663385272026060000e-001) (16, -3.92831176519393920000e-001) (17, -1.40581518411636350000e-001) (18, -3.35630953311920170000e-001) (19, -8.48238587379455570000e-001) (20, -1.36169856414198880000e-002) (21, -3.45379870850592850000e-004) (22, 2.98188962042331700000e-002) (23, -2.56800937652587890000e+001) (24, 8.23681294918060300000e-001) (25, -7.30909109115600590000e-001) (26, -1.66736793518066410000e+000) (27, 4.40628379583358760000e-001) (28, -4.56983909606933590000e+001) (29, -1.70888453722000120000e-001) (30, -5.95555019378662110000e+000) (31, -2.23496019840240480000e-001) (32, -1.17102646827697750000e+000) (33, 3.96068811416625980000e-001) (34, 2.84447848796844480000e-001) (35, 4.89779226481914520000e-002) (36, -1.39367908239364620000e-001) (37, -5.04081368446350100000e-001) (38, -1.36879265308380130000e+000) (39, 2.61664986610412600000e-001) (40, -6.28828716278076170000e+000) (41, -8.13918495178222660000e+000) (42, -3.72553706169128420000e-001) (43, -3.40883940458297730000e-001) (44, 5.80980956554412840000e-001) (45, -1.68088531494140620000e+000) (46, 1.03367614746093750000e+000) (47, 3.64180713891983030000e-001) (48, -4.62977111339569090000e-001) (49, -1.42328485846519470000e-001) (50, 1.82713523507118230000e-001) (51, -4.54201310873031620000e-001) (52, -3.37269604206085210000e-001) (53, 1.94637012481689450000e+000) (54, 8.62204730510711670000e-002) (55, 4.51612472534179690000e-001) (56, -3.66183131933212280000e-001) (57, 9.52070206403732300000e-002) (58, 2.01392605900764470000e-001) (59, -5.75781965255737300000e+000) (60, -6.43077433109283450000e-001) (61, -9.73315358161926270000e-001) (62, -7.60768234729766850000e-001) (63, -3.38866263628005980000e-001) (64, 7.51760244369506840000e-001) (0, -8.76266658306121830000e-001) (1, -1.30868181586265560000e-001) (2, -3.77894401550292970000e-001) (3, 2.21342355012893680000e-001) (4, 2.19846606254577640000e+000) (5, -6.75830781459808350000e-001) (6, 4.97465550899505620000e-001) (7, 4.58776384592056270000e-001) (8, 8.31011474132537840000e-001) (9, -6.24433338642120360000e-001) (10, 4.18611288070678710000e-001) (11, -5.43532848358154300000e-001) (12, 1.08836162090301510000e+000) (13, 3.45249384641647340000e-001) (14, 5.61660468578338620000e-001) (15, -5.10808765888214110000e-001) (16, -1.59741032123565670000e+000) (17, -5.78145086765289310000e-001) (18, -1.96144700050354000000e-001) (19, 1.85693573951721190000e+000) (20, 2.04120945930480960000e+000) (21, -7.11889332160353660000e-003) (22, -2.03121602535247800000e-001) (23, 2.31835002899169920000e+001) (24, 9.09231364727020260000e-001) (25, 3.19534450769424440000e-001) (26, -2.39503011107444760000e-001) (27, 7.67526686191558840000e-001) (28, 7.66055440902709960000e+000) (29, -1.41390550136566160000e+000) (30, 2.97032892704010010000e-001) (31, 9.69525337219238280000e-001) (32, -2.36779785156250000000e+000) (33, 1.31281030178070070000e+000) (34, -7.89566934108734130000e-001) (35, -5.79276263713836670000e-001) (36, -1.87359347939491270000e-001) (37, 4.12235796451568600000e-001) (38, 1.92689850926399230000e-001) (39, 1.67817652225494380000e+000) (40, 1.06124839782714840000e+001) (41, -6.32077336311340330000e-001) (42, 2.25415915250778200000e-001) (43, -1.29816186428070070000e+000) (44, -1.37034010887146000000e+000) (45, -9.89762127399444580000e-001) (46, 2.33975470066070560000e-001) (47, -7.52790749073028560000e-001) (48, 9.15074229240417480000e-001) (49, -1.08322477340698240000e+000) (50, -1.50720608234405520000e+000) (51, -4.26844745874404910000e-001) (52, -3.41952413320541380000e-001) (53, -4.80561882257461550000e-001) (54, 1.26951903104782100000e-001) (55, 6.19639873504638670000e-001) (56, -8.79970610141754150000e-001) (57, 1.79615354537963870000e+000) (58, -1.66371092200279240000e-001) (59, 1.22479515075683590000e+001) (60, -2.02717199921607970000e-001) (61, 1.26606136560440060000e-001) (62, 6.39885485172271730000e-001) (63, 3.00768107175827030000e-001) (64, -1.34150242805480960000e+000) (65, 6.33640170097351070000e-001) (0, -2.71934475749731060000e-002) (1, -1.68856933712959290000e-001) (2, 2.69912868738174440000e-001) (3, -1.86203762888908390000e-001) (4, -8.21233540773391720000e-003) (5, 2.59250607341527940000e-002) (6, 1.38697236776351930000e-001) (7, -4.61961254477500920000e-002) (8, 2.03091070055961610000e-001) (9, -1.68994069099426270000e-001) (10, -4.73669141530990600000e-001) (11, 2.03202903270721440000e-001) (12, -1.04124218225479130000e-001) (13, 1.26631885766983030000e-001) (14, -2.18409195542335510000e-001) (15, -7.88460075855255130000e-002) (16, 3.87277686968445780000e-003) (17, 1.89266905188560490000e-001) (18, -3.53209048509597780000e-001) (19, 5.60193657875061040000e-001) (20, -1.06219135224819180000e-001) (21, -1.35546550154685970000e-001) (22, 2.28149250149726870000e-001) (23, 4.11869972944259640000e-001) (24, 1.66842505335807800000e-001) (25, 7.88857787847518920000e-002) (26, 7.31039093807339670000e-003) (27, -1.12695805728435520000e-001) (28, -1.16229824721813200000e-001) (29, -2.81615316867828370000e-001) (30, 2.04318180680274960000e-001) (31, -1.16077840328216550000e-001) (32, 8.39978873729705810000e-001) (33, 2.86470979452133180000e-001) (34, 6.22367765754461290000e-003) (35, -2.02853038907051090000e-001) (36, -2.52880245447158810000e-001) (37, 8.81545662879943850000e-001) (38, 1.74350291490554810000e-001) (39, 2.35207915306091310000e-001) (40, -6.48141264915466310000e-001) (41, -7.18266367912292480000e-001) (42, -3.62870335578918460000e-001) (43, 1.41928091645240780000e-001) (44, -8.75103026628494260000e-002) (45, 1.14272356033325200000e-001) (46, -6.66701346635818480000e-002) (47, -4.39465641975402830000e-002) (48, -1.31429940462112430000e-001) (49, -2.44218349456787110000e-001) (50, 2.06598684191703800000e-001) (51, 8.74387770891189580000e-002) (52, -4.36768889427185060000e-001) (53, 3.66449952125549320000e-001) (54, 2.64201283454895020000e-001) (55, 1.81215345859527590000e-001) (56, -7.87472426891326900000e-002) (57, -2.21296846866607670000e-001) (58, 1.00058063864707950000e-001) (59, 3.14973783493041990000e+000) (60, 1.64736241102218630000e-001) (61, -3.03714454174041750000e-001) (62, 1.38190723955631260000e-002) (63, 1.67520299553871150000e-001) (64, -7.40236937999725340000e-001) (65, -4.86301958560943600000e-001) (66, 4.08770263195037840000e-001) (0, -4.65273350477218630000e-001) (1, 1.27788469195365910000e-001) (2, 8.99365544319152830000e-002) (3, 2.88144677877426150000e-001) (4, -1.51704952120780940000e-001) (5, 9.09656345844268800000e-001) (6, -3.58140081167221070000e-001) (7, -2.87394255399703980000e-001) (8, 3.77858042716979980000e-001) (9, 1.51818081736564640000e-001) (10, 7.01691508293151860000e-002) (11, 2.18818187713623050000e-001) (12, 3.02484929561614990000e-001) (13, 4.30239513516426090000e-002) (14, -4.02651011943817140000e-001) (15, -3.37056279182434080000e-001) (16, 3.32031965255737300000e-001) (17, 1.97837829589843750000e-001) (18, 4.89575833082199100000e-001) (19, -8.09995710849761960000e-001) (20, -1.17477744817733760000e-001) (21, -3.58758151531219480000e-001) (22, 5.37919625639915470000e-002) (23, 3.23447537422180180000e+000) (24, 2.63763725757598880000e-001) (25, 9.17304009199142460000e-002) (26, -4.06392127275466920000e-001) (27, 4.55843657255172730000e-001) (28, -7.62709155678749080000e-002) (29, 6.21244609355926510000e-001) (30, 2.53039151430130000000e-001) (31, -9.82886627316474910000e-002) (32, -1.22110128402709960000e+000) (33, -2.57487669587135310000e-002) (34, -1.58790394663810730000e-001) (35, -6.17234222590923310000e-002) (36, 1.08690261840820310000e-001) (37, 1.06075942516326900000e+000) (38, -1.28120994567871090000e+000) (39, -2.93744266033172610000e-001) (40, -1.54227828979492190000e+000) (41, 2.46972069144248960000e-002) (42, 4.82079297304153440000e-001) (43, 5.77231459319591520000e-002) (44, 2.09216833114624020000e-001) (45, 1.85508310794830320000e-001) (46, -1.20575405657291410000e-001) (47, 4.29002046585083010000e-001) (48, -7.28108942508697510000e-001) (49, 6.97554126381874080000e-002) (50, 5.04632592201232910000e-001) (51, 4.61420297622680660000e-001) (52, -5.63336610794067380000e-002) (53, -4.96283806860446930000e-002) (54, -3.11248242855072020000e-001) (55, -1.95160463452339170000e-001) (56, -1.84441015124320980000e-001) (57, -1.98842454701662060000e-002) (58, 3.88970166444778440000e-001) (59, -9.37878072261810300000e-001) (60, 1.58985576126724480000e-003) (61, 7.48899206519126890000e-002) (62, -5.05018085241317750000e-002) (63, 7.08480000495910640000e-001) (64, -1.68358162045478820000e-001) (65, -1.40598684549331670000e-001) (66, 7.23791182041168210000e-001) (67, -4.23094987869262700000e-001) (0, 4.87302452325820920000e-001) (1, -4.51545596122741700000e-001) (2, -1.31326809059828520000e-003) (3, 4.48056161403656010000e-001) (4, 2.41678312420845030000e-001) (5, 4.09311473369598390000e-001) (6, 1.11727654933929440000e+000) (7, -1.92464455962181090000e-001) (8, -1.96369409561157230000e-001) (9, 5.60074925422668460000e-001) (10, 1.55926182866096500000e-001) (11, -1.67733535170555110000e-001) (12, -1.37203407287597660000e+000) (13, 2.13560760021209720000e-001) (14, 2.34971717000007630000e-001) (15, -1.07161068916320800000e+000) (16, -2.91579216718673710000e-001) (17, 1.19172826409339900000e-001) (18, 7.57616996765136720000e-001) (19, 2.30504655838012700000e+000) (20, 1.85308492183685300000e+000) (21, -5.96817076206207280000e-001) (22, -7.49766290187835690000e-001) (23, -2.90250825881958010000e+000) (24, -3.00761580467224120000e-001) (25, -1.17346179485321040000e+000) (26, -1.23236036300659180000e+000) (27, -9.68470811843872070000e-001) (28, 1.51757860183715820000e+000) (29, 1.62402677536010740000e+000) (30, -2.02824145555496220000e-001) (31, -1.25406336784362790000e+000) (32, 1.98972225189208980000e+000) (33, -3.04253131151199340000e-001) (34, -1.32547914981842040000e-001) (35, -1.81616365909576420000e+000) (36, -3.10480177402496340000e-001) (37, -4.09073501825332640000e-001) (38, 9.26902055740356450000e-001) (39, 8.22756111621856690000e-001) (40, 2.32286667823791500000e+000) (41, 1.46687746047973630000e+001) (42, -3.33156645298004150000e-001) (43, -4.26424086093902590000e-001) (44, 2.54617482423782350000e-001) (45, 1.13736617565155030000e+000) (46, -4.05435025691986080000e-001) (47, -1.79207718372344970000e+000) (48, 3.39910268783569340000e-001) (49, 2.43337228894233700000e-001) (50, 7.77171909809112550000e-001) (51, -5.14448344707489010000e-001) (52, 4.03575837612152100000e-001) (53, 7.06903219223022460000e-001) (54, -1.48832380771636960000e+000) (55, -2.63133555650711060000e-001) (56, -8.03067386150360110000e-001) (57, -5.62641739845275880000e-001) (58, 4.43394780158996580000e-001) (59, 4.40118503570556640000e+000) (60, -2.31894686818122860000e-001) (61, -3.70553195476531980000e-001) (62, -5.48508539795875550000e-002) (63, -4.38484698534011840000e-001) (64, 4.17607501149177550000e-002) (65, 2.59198498725891110000e+000) (66, 6.05252802371978760000e-001) (67, 4.13937717676162720000e-001) (68, -7.14389503002166750000e-001) (0, 2.30869340896606450000e+000) (1, -1.40293705463409420000e+000) (2, 1.90202510356903080000e+000) (3, 4.82785422354936600000e-003) (4, -1.64606586098670960000e-001) (5, 2.78395563364028930000e-001) (6, -9.98461127281188960000e-001) (7, 1.39420449733734130000e-001) (8, 9.09885466098785400000e-001) (9, -1.04234588146209720000e+000) (10, 7.55010187625885010000e-001) (11, 1.48958599567413330000e+000) (12, -3.32532942295074460000e-001) (13, 9.52388465404510500000e-001) (14, -1.37157535552978520000e+000) (15, 5.68220376968383790000e-001) (16, 5.34836173057556150000e-001) (17, -2.24093723297119140000e+000) (18, -2.93588399887084960000e-001) (19, -3.55739414691925050000e-001) (20, -6.17033064365386960000e-001) (21, -3.93229335546493530000e-001) (22, 1.48777294158935550000e+000) (23, 3.20259523391723630000e+000) (24, 7.69897997379302980000e-001) (25, -9.89536166191101070000e-001) (26, -8.00157904624938960000e-001) (27, 3.89149695634841920000e-001) (28, 5.34087419509887700000e+000) (29, 2.82326728105545040000e-001) (30, -1.20554435253143310000e+000) (31, 5.75331449508666990000e-001) (32, -2.34735822677612300000e+000) (33, 8.44282507896423340000e-001) (34, 2.93720602989196780000e-001) (35, 1.51032054424285890000e+000) (36, 7.78357326984405520000e-001) (37, 1.01831603050231930000e+000) (38, 5.53445480763912200000e-002) (39, 6.19580566883087160000e-001) (40, 1.94135284423828120000e+000) (41, 1.27484917640686040000e+000) (42, 6.62469625473022460000e-001) (43, -1.22306987643241880000e-001) (44, -3.21504548192024230000e-002) (45, 1.24032640457153320000e+000) (46, -7.74599850177764890000e-001) (47, 1.68220603466033940000e+000) (48, 5.64691685140132900000e-002) (49, 1.09493827819824220000e+000) (50, 3.04671144485473630000e+000) (51, 2.35892033576965330000e+000) (52, -7.28646755218505860000e-001) (53, -9.77303564548492430000e-001) (54, 6.96263790130615230000e-001) (55, 7.45162963867187500000e-001) (56, 4.13284629583358760000e-001) (57, -9.57828402519226070000e-001) (58, 3.82906496524810790000e-001) (59, -1.94190359115600590000e+000) (60, 2.20342159271240230000e-001) (61, -1.23075616359710690000e+000) (62, 5.89388668537139890000e-001) (63, 1.06029117107391360000e+000) (64, -7.91793286800384520000e-001) (65, -1.83628559112548830000e+000) (66, -1.24943584203720090000e-001) (67, -3.57142865657806400000e-001) (68, -6.32116869091987610000e-002) (69, -2.80146360397338870000e+000) (0, 3.43431442975997920000e-001) (1, 1.13655650615692140000e+000) (2, 6.35643959045410160000e-001) (3, 8.94764125347137450000e-001) (4, -1.04440772533416750000e+000) (5, -3.16791176795959470000e-001) (6, 6.65461897850036620000e-001) (7, -4.36892718076705930000e-001) (8, -7.29276001453399660000e-001) (9, 6.55252754688262940000e-001) (10, -1.07067370414733890000e+000) (11, -6.64859935641288760000e-002) (12, -5.09874820709228520000e-001) (13, -1.58206552267074580000e-001) (14, 1.78967463970184330000e+000) (15, 2.58764958381652830000e+000) (16, 4.00854438543319700000e-001) (17, -9.23083245754241940000e-001) (18, -1.89426377415657040000e-001) (19, 8.92426609992980960000e-001) (20, -1.07772004604339600000e+000) (21, -8.35958480834960940000e-001) (22, 3.09355521202087400000e+000) (23, 4.95244407653808590000e+000) (24, -2.76463508605957030000e-001) (25, -2.37052857875823970000e-001) (26, 3.92988801002502440000e+000) (27, -7.34354496002197270000e-001) (28, -3.91015124320983890000e+000) (29, -6.41923546791076660000e-001) (30, 1.10465562343597410000e+000) (31, 1.25747573375701900000e+000) (32, 4.64413690567016600000e+000) (33, -5.03439843654632570000e-001) (34, 7.74864733219146730000e-001) (35, -1.68446138501167300000e-001) (36, 1.46223664283752440000e-001) (37, -1.61437571048736570000e-001) (38, -3.22967076301574710000e+000) (39, -5.56755661964416500000e-001) (40, 2.35137224197387700000e+000) (41, 9.80766713619232180000e-001) (42, -3.56059223413467410000e-001) (43, 1.84794694185256960000e-001) (44, 7.07419395446777340000e-001) (45, 1.33235430717468260000e+000) (46, 1.59361171722412110000e+000) (47, -6.57763779163360600000e-001) (48, 1.73785316944122310000e+000) (49, 4.11305159330368040000e-001) (50, 3.50705564022064210000e-001) (51, 3.31901639699935910000e-001) (52, -1.48238980770111080000e+000) (53, 2.17218852043151860000e+000) (54, 3.50774750113487240000e-002) (55, 1.79198729991912840000e+000) (56, -6.03952705860137940000e-001) (57, 7.33643472194671630000e-001) (58, -1.02266788482666020000e+000) (59, -2.51395630836486820000e+000) (60, -1.81006714701652530000e-001) (61, -8.92674267292022710000e-001) (62, -9.06963706016540530000e-001) (63, -1.59612333774566650000e+000) (64, -2.75664180517196660000e-001) (65, 4.91764813661575320000e-001) (66, 8.22466492652893070000e-001) (67, -4.16766881942749020000e-001) (68, -4.03344482183456420000e-001) (69, 8.71710896492004390000e-001) (70, -1.23596334457397460000e+000) (0, -5.85463270545005800000e-003) (1, -9.92865040898323060000e-002) (2, -3.30606549978256230000e-001) (3, 3.36842387914657590000e-001) (4, 1.91821247339248660000e-001) (5, 2.81474441289901730000e-001) (6, 5.08302301168441770000e-002) (7, 3.37512016296386720000e-001) (8, 1.24998195096850400000e-002) (9, 1.10855937004089360000e-001) (10, 3.30326765775680540000e-001) (11, 2.93738842010498050000e-001) (12, -2.02518492937088010000e-001) (13, -3.42169046401977540000e-001) (14, 2.05892175436019900000e-001) (15, -1.67277213186025620000e-002) (16, 2.70170658826828000000e-001) (17, -2.01224938035011290000e-001) (18, 5.61526536941528320000e-001) (19, -2.10353389382362370000e-001) (20, 6.55672997236251830000e-002) (21, -3.62452238798141480000e-001) (22, 2.21024110913276670000e-001) (23, 1.02308142185211180000e+000) (24, -7.25229531526565550000e-002) (25, -2.39457245916128160000e-002) (26, 3.58498960733413700000e-001) (27, 2.93451130390167240000e-001) (28, 8.23773086071014400000e-001) (29, 1.27272117137908940000e+000) (30, 9.17237401008605960000e-002) (31, 8.58380347490310670000e-002) (32, 1.28561234474182130000e+000) (33, -1.43365636467933650000e-001) (34, 3.34509789943695070000e-001) (35, -2.14665755629539490000e-001) (36, 1.64519309997558590000e-001) (37, -3.66734445095062260000e-001) (38, 1.31668257713317870000e+000) (39, 7.12448684498667720000e-003) (40, -2.36441701650619510000e-001) (41, -6.83943033218383790000e-001) (42, 1.46892026066780090000e-001) (43, 3.83343279361724850000e-001) (44, 2.87161111831665040000e-001) (45, -8.20027112960815430000e-001) (46, -1.27430349588394170000e-001) (47, 2.23311737179756160000e-001) (48, 4.15201634168624880000e-001) (49, 3.65473061800003050000e-001) (50, -4.90032076835632320000e-001) (51, 1.76110744476318360000e-001) (52, 6.64676129817962650000e-002) (53, 3.36551547050476070000e-001) (54, 1.54358252882957460000e-001) (55, 4.68230759724974630000e-003) (56, -1.96465477347373960000e-001) (57, 2.68772065639495850000e-001) (58, -2.50863015651702880000e-001) (59, 1.73897373676300050000e+000) (60, 1.07510827481746670000e-001) (61, 1.12704157829284670000e-001) (62, -4.55417158082127570000e-003) (63, -2.60456744581460950000e-002) (64, 1.56469479203224180000e-001) (65, 4.83462631702423100000e-001) (66, -2.68484264612197880000e-001) (67, -1.99627906084060670000e-001) (68, 1.49982094764709470000e-001) (69, -9.03298974037170410000e-001) (70, -1.03832080960273740000e-001) (71, -2.10160329937934880000e-001) (0, -1.79028928279876710000e-001) (1, -6.40574544668197630000e-002) (2, 1.86440378427505490000e-001) (3, 7.69011199474334720000e-001) (4, 9.25954803824424740000e-002) (5, -2.17481777071952820000e-001) (6, -1.26711398363113400000e-001) (7, 4.13936711847782140000e-002) (8, 4.52754825353622440000e-001) (9, -1.05862908065319060000e-001) (10, 1.87499165534973140000e-001) (11, -3.32900077104568480000e-001) (12, 2.36146464943885800000e-001) (13, 3.55326123535633090000e-002) (14, 3.60950291156768800000e-001) (15, -3.89817416667938230000e-001) (16, 1.62477657198905940000e-001) (17, -1.75611227750778200000e-001) (18, -1.52584934234619140000e+000) (19, -5.42749285697937010000e-001) (20, 6.34489595890045170000e-001) (21, 4.27666693925857540000e-001) (22, -3.34978908300399780000e-001) (23, 1.74624776840209960000e+000) (24, 2.30396956205368040000e-001) (25, 2.23568141460418700000e-001) (26, -2.56262749433517460000e-001) (27, -1.22435522079467770000e+000) (28, -6.40263557434082030000e-001) (29, 3.73380154371261600000e-001) (30, 1.26569855213165280000e+000) (31, 5.59795647859573360000e-002) (32, -5.72169005870819090000e-001) (33, -3.61624091863632200000e-001) (34, -8.31469893455505370000e-001) (35, 1.47394686937332150000e-001) (36, -1.99405238032341000000e-001) (37, -1.32941305637359620000e-001) (38, -1.70919382572174070000e+000) (39, 3.86029809713363650000e-001) (40, 9.98452842235565190000e-001) (41, 6.10524356365203860000e-001) (42, -4.91919100284576420000e-001) (43, -2.89584517478942870000e-001) (44, -4.23696249723434450000e-001) (45, 6.97772443294525150000e-001) (46, 1.09043574333190920000e+000) (47, -3.31573426723480220000e-001) (48, -2.22953483462333680000e-001) (49, -1.29466056823730470000e+000) (50, -1.74090057611465450000e-001) (51, 6.18277549743652340000e-001) (52, -2.80988290905952450000e-002) (53, -1.16168367862701420000e+000) (54, -2.18066573143005370000e-001) (55, 4.22537207603454590000e-001) (56, -8.82026553153991700000e-001) (57, -1.86448663473129270000e-001) (58, 4.86244440078735350000e-001) (59, -3.32900428771972660000e+000) (60, 3.79285782575607300000e-001) (61, -4.71108317375183110000e-001) (62, -4.03780698776245120000e-001) (63, 5.88760435581207280000e-001) (64, -6.31035208702087400000e-001) (65, -4.80098843574523930000e-001) (66, -4.56883348524570470000e-002) (67, 1.17709942162036900000e-001) (68, -2.60667711496353150000e-001) (69, 4.31463718414306640000e-001) (70, -1.01014626026153560000e+000) (71, 8.07138562202453610000e-001) (72, 4.14915457367897030000e-002) (0, 2.43255749344825740000e-001) (1, -8.83946061134338380000e-001) (2, 6.60293042659759520000e-001) (3, 1.63782393932342530000e+000) (4, 6.97041809558868410000e-001) (5, 2.22912758588790890000e-001) (6, -7.90544092655181880000e-001) (7, 1.05135984718799590000e-001) (8, 4.43864129483699800000e-002) (9, 4.25496369600296020000e-001) (10, -8.09621959924697880000e-002) (11, -1.53730526566505430000e-001) (12, -2.19336926937103270000e-001) (13, -1.18516884744167330000e-001) (14, 3.01370881497859950000e-002) (15, -1.57565996050834660000e-001) (16, 1.18365250527858730000e-001) (17, -6.31859242916107180000e-001) (18, 1.00206816196441650000e+000) (19, 3.24404567480087280000e-001) (20, 3.78735870122909550000e-001) (21, -8.76291766762733460000e-002) (22, 5.67947998642921450000e-002) (23, -2.05386638641357420000e+000) (24, 4.14191037416458130000e-001) (25, 1.38024434447288510000e-001) (26, 6.35054647922515870000e-001) (27, -3.71129930019378660000e-001) (28, -3.55969166755676270000e+000) (29, -1.13759867846965790000e-001) (30, 8.53163182735443120000e-001) (31, 3.62534135580062870000e-001) (32, 5.26592850685119630000e-001) (33, 7.75858104228973390000e-001) (34, 4.84811455011367800000e-001) (35, 1.28342735767364500000e+000) (36, 1.09873237088322640000e-002) (37, 1.61486113071441650000e+000) (38, -7.32283174991607670000e-001) (39, 6.25482797622680660000e-001) (40, -1.07998132705688480000e+000) (41, -2.09445977210998540000e+000) (42, -1.13587009906768800000e+000) (43, -1.11239624023437500000e+000) (44, 9.21953260898590090000e-001) (45, 4.00639414787292480000e-001) (46, -7.43340104818344120000e-002) (47, 3.04730743169784550000e-001) (48, 2.00803920626640320000e-001) (49, 4.32495176792144780000e-001) (50, -6.40555322170257570000e-001) 