FANN_FLO_2.0
num_layers=3
learning_rate=0.700000
connection_rate=1.000000
shortcut_connections=0
learning_momentum=0.000000
training_algorithm=2
train_error_function=1
train_stop_function=0
cascade_output_change_fraction=0.010000
quickprop_decay=-0.000100
quickprop_mu=1.750000
rprop_increase_factor=1.200000
rprop_decrease_factor=0.500000
rprop_delta_min=0.000000
rprop_delta_max=50.000000
rprop_delta_zero=0.500000
cascade_output_stagnation_epochs=12
cascade_candidate_change_fraction=0.010000
cascade_candidate_stagnation_epochs=12
cascade_max_out_epochs=150
cascade_max_cand_epochs=150
cascade_num_candidate_groups=2
bit_fail_limit=3.49999994039535520000e-001
cascade_candidate_limit=1.00000000000000000000e+003
cascade_weight_multiplier=4.00000005960464480000e-001
cascade_activation_functions_count=6
cascade_activation_functions=3 5 7 8 10 11 
cascade_activation_steepnesses_count=4
cascade_activation_steepnesses=2.50000000000000000000e-001 5.00000000000000000000e-001 7.50000000000000000000e-001 1.00000000000000000000e+000 
layer_sizes=4 6 2 
neurons (num_inputs, activation_function, activation_steepness)=(0, 0, 0.00000000000000000000e+000) (0, 0, 0.00000000000000000000e+000) (0, 0, 0.00000000000000000000e+000) (0, 0, 0.00000000000000000000e+000) (4, 3, 5.00000000000000000000e-001) (4, 3, 5.00000000000000000000e-001) (4, 3, 5.00000000000000000000e-001) (4, 3, 5.00000000000000000000e-001) (4, 3, 5.00000000000000000000e-001) (0, 3, 0.00000000000000000000e+000) (6, 5, 5.00000000000000000000e-001) (0, 5, 0.00000000000000000000e+000) 
connections (connected_to_neuron, weight)=(0, 4.10439550876617430000e-001) (1, 4.05080527067184450000e-001) (2, 4.08719927072525020000e-001) (3, -3.19279718399047850000e+000) (0, 6.75793409347534180000e-001) (1, 6.73268914222717290000e-001) (2, 6.68877601623535160000e-001) (3, -1.22466707229614260000e+000) (0, 5.07908582687377930000e+000) (1, 5.15469455718994140000e+000) (2, 5.19165372848510740000e+000) (3, -9.14730548858642580000e+000) (0, -2.45288062095642090000e+000) (1, -2.42394948005676270000e+000) (2, -2.41460251808166500000e+000) (3, -5.98034334182739260000e+000) (0, -3.04146695137023930000e+000) (1, -3.04470705986022950000e+000) (2, -3.04410839080810550000e+000) (3, -6.38178253173828120000e+000) (4, 6.39800310134887700000e+000) (5, 3.67988252639770510000e+000) (6, 5.12162160873413090000e+000) (7, 1.27138781547546390000e+000) (8, 4.43619966506958010000e+000) (9, -3.99513989686965940000e-001) 
